-0.0012666784394644863,-1.0016588036874247E-7,
-0.0012666784394644863,-1.0016588036874247E-7,
-0.010305448531667045,1.0642979690975857E-6,
-0.010305448531667045,1.0642979690975857E-6,
-0.004278960643430107,6.136413963830564E-7,
-0.004278960643430107,6.136413963830564E-7,
-0.001550311147451958,1.596518116844109E-6,
-0.001550311147451958,1.596518116844109E-6,
8.849867008428755E-4,-9.23745411959484E-8,
8.849867008428755E-4,-9.23745411959484E-8,
0.0039969417923924845,-3.628176491058191E-7,
0.0039969417923924845,-3.628176491058191E-7,
-0.005590123350850254,1.7393491467069394E-6,
-0.005590123350850254,1.7393491467069394E-6,
-0.0038546490585863896,1.3048931608956524E-6,
-0.0038546490585863896,1.3048931608956524E-6,
2.40061837724185E-4,-6.99621206025694E-7,
2.40061837724185E-4,-6.99621206025694E-7,
-0.00523679694358965,1.2921312883516778E-6,
-0.00523679694358965,1.2921312883516778E-6,
-0.001716367644269639,4.082322579970418E-7,
-0.001716367644269639,4.082322579970418E-7,
-0.010733102930913811,1.8309394616824667E-6,
-0.010733102930913811,1.8309394616824667E-6,
8.997427883014846E-4,-5.361278336358036E-7,
8.997427883014846E-4,-5.361278336358036E-7,
-0.003404516462242073,8.383557327405408E-7,
-0.003404516462242073,8.383557327405408E-7,
-0.00292269476474843,1.0326570604587623E-6,
-0.00292269476474843,1.0326570604587623E-6,
0.004452786906046673,-3.8106757010991643E-7,
0.004452786906046673,-3.8106757010991643E-7,
-0.006023225036951778,1.4139135395205282E-6,
-0.006023225036951778,1.4139135395205282E-6,
-0.0043024305781054675,7.579998830484214E-7,
-0.0043024305781054675,7.579998830484214E-7,
6.944728975277512E-4,-6.490224418835566E-7,
6.944728975277512E-4,-6.490224418835566E-7,
-0.005654711696980323,1.6008751411158637E-6,
-0.005654711696980323,1.6008751411158637E-6,
0.0038809176419811946,6.201236534345012E-8,
0.0038809176419811946,6.201236534345012E-8,
-0.011150339289870602,1.3985337268323725E-6,
-0.011150339289870602,1.3985337268323725E-6,
0.001357072810764796,-2.825122122698809E-7,
0.001357072810764796,-2.825122122698809E-7,
-0.0038661937542160503,1.5782698981224239E-6,
-0.0038661937542160503,1.5782698981224239E-6,
-0.003367266725953405,5.232600491563572E-7,
-0.003367266725953405,5.232600491563572E-7,
-2.336496399486582E-4,7.817392370578977E-7,
-2.336496399486582E-4,7.817392370578977E-7,
6.105249530272507E-4,9.568669631990212E-8,
6.105249530272507E-4,9.568669631990212E-8,
-0.004749568338507335,1.1992000162252756E-6,
-0.004749568338507335,1.1992000162252756E-6,
0.0011535774106941421,-8.008370664235737E-7,
0.0011535774106941421,-8.008370664235737E-7,
-0.016257292792065912,1.250295301857135E-6,
-0.016257292792065912,1.250295301857135E-6,
0.004321067767963415,-6.989445385831294E-8,
0.004321067767963415,-6.989445385831294E-8,
-0.011581517598880977,1.6453397257160801E-6,
-0.011581517598880977,1.6453397257160801E-6,
-0.004746226657108267,7.953411653386505E-7,
-0.004746226657108267,7.953411653386505E-7,
-0.0019412247375933365,1.4325292987281066E-6,
-0.0019412247375933365,1.4325292987281066E-6,
-0.0038120792305744392,6.72418741913712E-7,
-0.0038120792305744392,6.72418741913712E-7,
0.004914696551120745,-5.303846820729763E-7,
0.004914696551120745,-5.303846820729763E-7,
-0.006459539443675414,9.515180263821102E-7,
-0.006459539443675414,9.515180263821102E-7,
-3.973840069225655E-4,9.08724242343166E-7,
-3.973840069225655E-4,9.08724242343166E-7,
-5.334859490371353E-5,1.3809920943212359E-6,
-5.334859490371353E-5,1.3809920943212359E-6,
-0.0060553159033217025,1.0417434193436825E-6,
-0.0060553159033217025,1.0417434193436825E-6,
0.004768464136308309,6.824866560870696E-8,
0.004768464136308309,6.824866560870696E-8,
-0.012000161808247973,1.627430223352308E-6,
-0.012000161808247973,1.627430223352308E-6,
-0.005187004871504508,7.029561315879604E-7,
-0.005187004871504508,7.029561315879604E-7,
-0.0023773322312418536,1.420872000828556E-6,
-0.0023773322312418536,1.420872000828556E-6,
0.001388150511541667,-4.4103176552109935E-7,
0.001388150511541667,-4.4103176552109935E-7,
-6.948191635296511E-4,6.888933191577865E-7,
-6.948191635296511E-4,6.888933191577865E-7,
0.001088168355623958,-5.622083366014011E-7,
0.001088168355623958,-5.622083366014011E-7,
-0.005177507085423619,9.384147221739442E-7,
-0.005177507085423619,9.384147221739442E-7,
-4.966108696974292E-4,1.1019616549933636E-6,
-4.966108696974292E-4,1.1019616549933636E-6,
-0.016657005233373486,1.002634580872172E-6,
-0.016657005233373486,1.002634580872172E-6,
0.005216872602059738,-1.6934800535408495E-7,
0.005216872602059738,-1.6934800535408495E-7,
-0.012409262749221764,1.7107312083822906E-6,
-0.012409262749221764,1.7107312083822906E-6,
0.0018537724889747813,-8.1670207704998E-7,
0.0018537724889747813,-8.1670207704998E-7,
-0.002829233420386237,1.2058374849344827E-6,
-0.002829233420386237,1.2058374849344827E-6,
0.0018378573146577717,-9.70200501091735E-7,
0.0018378573146577717,-9.70200501091735E-7,
-0.0011317725119699485,5.088949713996996E-7,
-0.0011317725119699485,5.088949713996996E-7,
-0.006920836363598326,1.6262588646087997E-6,
-0.006920836363598326,1.6262588646087997E-6,
-0.00562273142682369,9.139144973181051E-7,
-0.00562273142682369,9.139144973181051E-7,
-9.386390232911415E-4,2.039804410521387E-6,
-9.386390232911415E-4,2.039804410521387E-6,
-0.0064808184997869524,1.82083934712092E-6,
-0.0064808184997869524,1.82083934712092E-6,
0.005659605018865052,-4.157619145957886E-7,
0.005659605018865052,-4.157619145957886E-7,
-0.012809491256548618,1.3736066324411544E-6,
-0.012809491256548618,1.3736066324411544E-6,
0.0022907905766811356,-7.475062509610178E-7,
0.0022907905766811356,-7.475062509610178E-7,
-0.0032726889728274698,1.304002202490509E-6,
-0.0032726889728274698,1.304002202490509E-6,
0.0022718224715361736,-1.0428242974702684E-6,
0.0022718224715361736,-1.0428242974702684E-6,
-0.001582326501060239,2.2240595704079574E-7,
-0.001582326501060239,2.2240595704079574E-7,
0.0015766974884111123,-4.67081055303617E-7,
0.0015766974884111123,-4.67081055303617E-7,
-0.0060665041338096295,1.2274118424502461E-6,
-0.0060665041338096295,1.2274118424502461E-6,
0.0017001327364375238,-1.0487655455184916E-6,
0.0017001327364375238,-1.0487655455184916E-6,
-0.01705474006683884,1.3309062775182165E-6,
-0.01705474006683884,1.3309062775182165E-6,
0.006091330635525103,-3.5192974975721547E-7,
0.006091330635525103,-3.5192974975721547E-7,
0.002071902542918785,2.6904825865033816E-7,
0.002071902542918785,2.6904825865033816E-7,
0.0027555494561090333,-8.390931920719893E-7,
0.0027555494561090333,-8.390931920719893E-7,
-0.004227528183474045,2.0584029552274397E-6,
-0.004227528183474045,2.0584029552274397E-6,
-0.004316026798555417,7.900426814847275E-7,
-0.004316026798555417,7.900426814847275E-7,
-0.002037035916441106,4.163218716600123E-7,
-0.002037035916441106,4.163218716600123E-7,
-0.007370220873083623,1.3582677628951045E-6,
-0.007370220873083623,1.3582677628951045E-6,
-7.862421564338765E-4,1.9484666513025495E-6,
-7.862421564338765E-4,1.9484666513025495E-6,
0.002145032962969474,-1.1073102167778043E-6,
0.002145032962969474,-1.1073102167778043E-6,
-0.00688531421616624,1.499391951016206E-6,
-0.00688531421616624,1.499391951016206E-6,
0.0065258439986061395,-5.774372318773091E-7,
0.0065258439986061395,-5.774372318773091E-7,
0.0025205757947519003,-2.026097916264097E-8,
0.0025205757947519003,-2.026097916264097E-8,
-0.005683686502410211,1.08820730297058E-6,
-0.005683686502410211,1.08820730297058E-6,
-0.0036728796455637435,1.3868258037161296E-6,
-0.0036728796455637435,1.3868258037161296E-6,
0.0027299609515066187,-7.592307122361239E-7,
0.0027299609515066187,-7.592307122361239E-7,
-0.002484109165480948,3.166552281844148E-8,
-0.002484109165480948,3.166552281844148E-8,
-0.007800552777375693,1.6422559091866865E-6,
-0.007800552777375693,1.6422559091866865E-6,
-0.0012125141583841062,1.80798041922621E-6,
-0.0012125141583841062,1.80798041922621E-6,
0.0025818967971966314,-8.580412556693021E-7,
0.0025818967971966314,-8.580412556693021E-7,
-0.00731038348435027,1.708024163586501E-6,
-0.00731038348435027,1.708024163586501E-6,
0.006949538418110424,-5.918209129551072E-7,
0.006949538418110424,-5.918209129551072E-7,
-0.013256268341629776,1.5959228816635196E-6,
-0.013256268341629776,1.5959228816635196E-6,
-0.006128021767995022,1.2672763362751513E-6,
-0.006128021767995022,1.2672763362751513E-6,
-0.0041006596563261215,1.5079619034245179E-6,
-0.0041006596563261215,1.5079619034245179E-6,
-0.004778217555357484,1.0986138199416476E-6,
-0.004778217555357484,1.0986138199416476E-6,
0.005426950711345311,-1.0786468390309653E-6,
0.005426950711345311,-1.0786468390309653E-6,
0.002081742376317574,2.422175189300754E-7,
0.002081742376317574,2.422175189300754E-7,
-0.0016448403143178953,1.036204755122845E-6,
-0.0016448403143178953,1.036204755122845E-6,
-0.0014212315225788467,1.71250585278334E-6,
-0.0014212315225788467,1.71250585278334E-6,
-0.007736508994733676,1.7485540855319975E-6,
-0.007736508994733676,1.7485540855319975E-6,
-0.002213384781747923,3.3497064835710105E-7,
-0.002213384781747923,3.3497064835710105E-7,
0.003001421922605369,4.3529646833861263E-7,
0.003001421922605369,4.3529646833861263E-7,
0.0032577713352567573,-1.092094638901163E-6,
0.0032577713352567573,-1.092094638901163E-6,
-0.004621710881920794,1.8406097658405993E-6,
-0.004621710881920794,1.8406097658405993E-6,
0.003202985471474127,-8.185317533241851E-7,
0.003202985471474127,-8.185317533241851E-7,
-0.0029753350196748437,9.059500314196819E-7,
-0.0029753350196748437,9.059500314196819E-7,
0.0025484656983419804,-1.0331885269380947E-7,
0.0025484656983419804,-1.0331885269380947E-7,
-0.006421011324838943,1.6808572473438546E-6,
-0.006421011324838943,1.6808572473438546E-6,
-0.0018576171678224296,1.376831858030357E-6,
-0.0018576171678224296,1.376831858030357E-6,
-0.00816024488114241,1.7038376874285721E-6,
-0.00816024488114241,1.7038376874285721E-6,
0.007387269984943475,-6.392039409944955E-7,
0.007387269984943475,-6.392039409944955E-7,
-0.013668881175691143,1.977086408262718E-6,
-0.013668881175691143,1.977086408262718E-6,
-0.006581347908426632,5.689999807148224E-7,
-0.006581347908426632,5.689999807148224E-7,
-0.00451255921801525,1.4027720482050546E-6,
-0.00451255921801525,1.4027720482050546E-6,
-0.005232388883469339,1.1187375308233452E-6,
-0.005232388883469339,1.1187375308233452E-6,
0.005886937342996219,-8.181687181458772E-7,
0.005886937342996219,-8.181687181458772E-7,
0.0030050623018933304,-2.420266663723594E-7,
0.0030050623018933304,-2.420266663723594E-7,
-0.0020542947610431308,1.4497044594718143E-6,
-0.0020542947610431308,1.4497044594718143E-6,
-0.002297785616740021,1.6370161681523998E-6,
-0.002297785616740021,1.6370161681523998E-6,
-0.017387774813980055,1.9506440144759912E-6,
-0.017387774813980055,1.9506440144759912E-6,
0.007807028923445403,-4.820970738658725E-7,
0.007807028923445403,-4.820970738658725E-7,
-0.014079918469601596,1.5278340086792574E-6,
-0.014079918469601596,1.5278340086792574E-6,
-0.007017111008872703,9.939770619785473E-7,
-0.007017111008872703,9.939770619785473E-7,
-0.004960823722619673,1.5875660001529387E-6,
-0.004960823722619673,1.5875660001529387E-6,
0.0036555458572232703,-8.124947037807528E-7,
0.0036555458572232703,-8.124947037807528E-7,
-0.0034366154834603205,4.858294067235785E-7,
-0.0034366154834603205,4.858294067235785E-7,
-0.008242822755587362,1.74737462508949E-6,
-0.008242822755587362,1.74737462508949E-6,
-0.002488139783712822,2.1157693606056217E-6,
-0.002488139783712822,2.1157693606056217E-6,
0.003131267087286224,-1.3373524492248795E-6,
0.003131267087286224,-1.3373524492248795E-6,
-0.008534631974855014,1.8089766157707368E-6,
-0.008534631974855014,1.8089766157707368E-6,
0.008223336387939945,-4.52260440946331E-7,
0.008223336387939945,-4.52260440946331E-7,
-0.014485686579830447,1.6004209936540392E-6,
-0.014485686579830447,1.6004209936540392E-6,
-0.007446635681267219,1.3779523356620416E-6,
-0.007446635681267219,1.3779523356620416E-6,
-0.005394280592854186,1.8993584777566783E-6,
-0.005394280592854186,1.8993584777566783E-6,
-0.005691151315178968,1.5075698741916568E-6,
-0.005691151315178968,1.5075698741916568E-6,
0.006332482469105671,-1.0214326863697276E-6,
0.006332482469105671,-1.0214326863697276E-6,
-0.00865369667564341,2.270787099596834E-6,
-0.00865369667564341,2.270787099596834E-6,
-0.006789858511457706,1.1227857785989746E-6,
-0.006789858511457706,1.1227857785989746E-6,
0.0035716281196167396,-1.3057132279888778E-6,
0.0035716281196167396,-1.3057132279888778E-6,
-0.017763271900440875,1.9432775272493555E-6,
-0.017763271900440875,1.9432775272493555E-6,
0.00865938404181248,-6.703546929220927E-7,
0.00865938404181248,-6.703546929220927E-7,
-0.014890304743864147,1.875835426689773E-6,
-0.014890304743864147,1.875835426689773E-6,
0.0037705983609279676,-1.4485380570496836E-6,
0.0037705983609279676,-1.4485380570496836E-6,
-0.005817800658852361,1.264449440982647E-6,
-0.005817800658852361,1.264449440982647E-6,
-0.006116958061918854,1.0172436827448478E-6,
-0.006116958061918854,1.0172436827448478E-6,
0.006770196361599134,-1.215824599293952E-6,
0.006770196361599134,-1.215824599293952E-6,
0.0035358774637226547,-2.495291279089318E-7,
0.0035358774637226547,-2.495291279089318E-7,
-0.007224962573819091,1.4013650394628999E-6,
-0.007224962573819091,1.4013650394628999E-6,
-0.002784457409850697,1.0495028767891837E-6,
-0.002784457409850697,1.0495028767891837E-6,
-0.008900964254451802,1.5139916509053497E-6,
-0.008900964254451802,1.5139916509053497E-6,
0.009073462869756943,-7.077982912655212E-7,
0.009073462869756943,-7.077982912655212E-7,
-0.015295574450786196,1.9725714467968246E-6,
-0.015295574450786196,1.9725714467968246E-6,
-0.007896478039074862,1.1600193632749223E-6,
-0.007896478039074862,1.1600193632749223E-6,
-0.006248708112481219,1.8076324169247551E-6,
-0.006248708112481219,1.8076324169247551E-6,
0.004144436582819987,-1.0102269629389676E-6,
0.004144436582819987,-1.0102269629389676E-6,
-0.003929115558506439,6.912980615543171E-7,
-0.003929115558506439,6.912980615543171E-7,
-0.00906901334480399,2.153261976724132E-6,
-0.00906901334480399,2.153261976724132E-6,
-0.007639574843252463,1.6221899018955925E-6,
-0.007639574843252463,1.6221899018955925E-6,
0.004025180587179276,-1.4074344659911059E-6,
0.004025180587179276,-1.4074344659911059E-6,
-0.01814347448282887,2.112144689685007E-6,
-0.01814347448282887,2.112144689685007E-6,
0.009492349854952486,-8.802486001551965E-7,
0.009492349854952486,-8.802486001551965E-7,
0.0036563630637597723,-5.780748185951062E-7,
0.0036563630637597723,-5.780748185951062E-7,
-0.008321628553247813,1.4741514302828163E-6,
-0.008321628553247813,1.4741514302828163E-6,
-0.006679143741939117,1.8511221886799434E-6,
-0.006679143741939117,1.8511221886799434E-6,
-0.006567087777676847,1.1475041367193031E-6,
-0.006567087777676847,1.1475041367193031E-6,
0.007216077144205688,-6.035661536726161E-7,
0.007216077144205688,-6.035661536726161E-7,
0.004036128635048363,-8.9920658264157E-7,
0.004036128635048363,-8.9920658264157E-7,
-0.0028317324805859,1.4358790442273173E-6,
-0.0028317324805859,1.4358790442273173E-6,
0.004463143351622105,-1.0467940249831234E-6,
0.004463143351622105,-1.0467940249831234E-6,
-0.00926640655729086,1.453866941701805E-6,
-0.00926640655729086,1.453866941701805E-6,
-0.0027482305428376437,7.703848578857753E-7,
-0.0027482305428376437,7.703848578857753E-7,
-0.015716962224448478,1.8071752626415763E-6,
-0.015716962224448478,1.8071752626415763E-6,
0.004275911912510263,-7.854514626421186E-7,
0.004275911912510263,-7.854514626421186E-7,
-0.0048815396837976885,1.9170303545688362E-6,
-0.0048815396837976885,1.9170303545688362E-6,
0.004594635609115639,-6.272452220176111E-7,
0.004594635609115639,-6.272452220176111E-7,
0.007650949001660567,-7.91986812812874E-7,
0.007650949001660567,-7.91986812812874E-7,
-0.00950577113278788,1.913907669732866E-6,
-0.00950577113278788,1.913907669732866E-6,
-0.008027587197646784,1.4050656045967377E-6,
-0.008027587197646784,1.4050656045967377E-6,
-0.0032929984284056028,1.6101104542559641E-6,
-0.0032929984284056028,1.6101104542559641E-6,
-0.018517774576780863,2.026244822755409E-6,
-0.018517774576780863,2.026244822755409E-6,
-0.0031913761339489102,1.1388697440384288E-6,
-0.0031913761339489102,1.1388697440384288E-6,
0.004127365655642566,-8.893215306324254E-7,
0.004127365655642566,-8.893215306324254E-7,
0.004719379623975933,-1.4392814047465077E-6,
0.004719379623975933,-1.4392814047465077E-6,
-0.007071958439741058,1.5031505520737669E-6,
-0.007071958439741058,1.5031505520737669E-6,
-0.007013059718806023,1.0545314657961838E-6,
-0.007013059718806023,1.0545314657961838E-6,
-0.0044036778569362,1.0447233674912987E-6,
-0.0044036778569362,1.0447233674912987E-6,
-0.009938781298389415,1.6544765816190257E-6,
-0.009938781298389415,1.6544765816190257E-6,
-0.003239822578581317,1.6159570866724517E-6,
-0.003239822578581317,1.6159570866724517E-6,
0.004928752781068522,-1.0034484644329787E-6,
0.004928752781068522,-1.0034484644329787E-6,
-0.009650019604147035,1.7981888444209074E-6,
-0.009650019604147035,1.7981888444209074E-6,
-0.003617702965484151,8.275679665523811E-7,
-0.003617702965484151,8.275679665523811E-7,
0.004552013098256859,-9.432162567045953E-7,
0.004552013098256859,-9.432162567045953E-7,
0.005151193351329499,-1.139403953615177E-6,
0.005151193351329499,-1.139403953615177E-6,
-0.005290088347191814,1.6482727136679816E-6,
-0.005290088347191814,1.6482727136679816E-6,
0.005045925307011924,-5.312046886711899E-7,
0.005045925307011924,-5.312046886711899E-7,
-0.0048283802178950945,1.3288674529307598E-6,
-0.0048283802178950945,1.3288674529307598E-6,
0.00454011505900555,-5.908951601777193E-7,
0.00454011505900555,-5.908951601777193E-7,
-0.0036722787358651984,1.4577964485332738E-6,
-0.0036722787358651984,1.4577964485332738E-6,
0.0053633209621025135,-1.2111036870048227E-6,
0.0053633209621025135,-1.2111036870048227E-6,
-0.018879333070873392,1.8105012715525712E-6,
-0.018879333070873392,1.8105012715525712E-6,
-0.004054199545446985,6.785821930034922E-7,
-0.004054199545446985,6.785821930034922E-7,
0.004965045863289104,-7.426470329608206E-7,
0.004965045863289104,-7.426470329608206E-7,
-0.00883061777905704,1.765964740846164E-6,
-0.00883061777905704,1.765964740846164E-6,
-0.007470387596410119,1.6204213050471927E-6,
-0.007470387596410119,1.6204213050471927E-6,
0.00549109541618416,-1.3166679537950435E-6,
0.00549109541618416,-1.3166679537950435E-6,
-0.005246212667576092,9.980271990939898E-7,
-0.005246212667576092,9.980271990939898E-7,
0.004991248849565908,-8.090762769839138E-7,
0.004991248849565908,-8.090762769839138E-7,
-0.004096783702211054,1.7476045703810304E-6,
-0.004096783702211054,1.7476045703810304E-6,
0.005793153216614323,-1.053740771279378E-6,
0.005793153216614323,-1.053740771279378E-6,
-0.0192751853916335,2.23701200847623E-6,
-0.0192751853916335,2.23701200847623E-6,
0.0100148088229243,-7.05930064880296E-7,
0.0100148088229243,-7.05930064880296E-7,
-0.016211559628419397,2.2444399955402067E-6,
-0.016211559628419397,2.2444399955402067E-6,
-0.009233163915631547,1.589225669004074E-6,
-0.009233163915631547,1.589225669004074E-6,
-0.0056971020408018306,1.6728069012227932E-6,
-0.0056971020408018306,1.6728069012227932E-6,
0.005893768604771057,-1.1330413881918688E-6,
0.005893768604771057,-1.1330413881918688E-6,
0.00817496723169712,-1.1751605411159521E-6,
0.00817496723169712,-1.1751605411159521E-6,
0.00543238041257588,-1.2687403565369432E-6,
0.00543238041257588,-1.2687403565369432E-6,
-0.008373592914429394,1.8419801899732802E-6,
-0.008373592914429394,1.8419801899732802E-6,
-0.0038096065401593813,1.5545999592484795E-6,
-0.0038096065401593813,1.5545999592484795E-6,
-0.01965543339723755,1.713989800777773E-6,
-0.01965543339723755,1.713989800777773E-6,
-0.004502069914829526,7.853260036308832E-7,
-0.004502069914829526,7.853260036308832E-7,
-0.01658534266409999,2.7141350671887852E-6,
-0.01658534266409999,2.7141350671887852E-6,
0.005664701970594054,-8.344356937648248E-7,
0.005664701970594054,-8.344356937648248E-7,
-0.00786346110530711,1.911994866239143E-6,
-0.00786346110530711,1.911994866239143E-6,
-0.00751921584592093,1.0961745775632525E-6,
-0.00751921584592093,1.0961745775632525E-6,
-0.0056995286436633125,1.1079520165725373E-6,
-0.0056995286436633125,1.1079520165725373E-6,
0.00585434561277384,-1.0714357371248255E-6,
0.00585434561277384,-1.0714357371248255E-6,
-0.00878913667225139,2.081176122054138E-6,
-0.00878913667225139,2.081176122054138E-6,
0.006261176533801099,-1.430067353336631E-6,
0.006261176533801099,-1.430067353336631E-6,
-0.009968668471574594,2.0638964720637483E-6,
-0.009968668471574594,2.0638964720637483E-6,
-0.004931627923544884,5.947885024443558E-7,
-0.004931627923544884,5.947885024443558E-7,
0.00549966546535567,-6.694003094626783E-8,
0.00549966546535567,-6.694003094626783E-8,
-0.009671065572734835,1.713525565993912E-6,
-0.009671065572734835,1.713525565993912E-6,
-0.008274933453299788,1.9695263510474854E-6,
-0.008274933453299788,1.9695263510474854E-6,
-0.007947376583056009,7.621031637696993E-7,
-0.007947376583056009,7.621031637696993E-7,
0.008645004452773558,-9.977011012143877E-7,
0.008645004452773558,-9.977011012143877E-7,
0.006284047181546673,-1.0287829188744026E-6,
0.006284047181546673,-1.0287829188744026E-6,
-0.009200437879690078,1.6211872395535502E-6,
-0.009200437879690078,1.6211872395535502E-6,
0.00668171335023908,-1.790617815128695E-6,
0.00668171335023908,-1.790617815128695E-6,
-0.010369249139064429,1.8990229328336682E-6,
-0.010369249139064429,1.8990229328336682E-6,
-0.005369020845917594,8.340843207499393E-7,
-0.005369020845917594,8.340843207499393E-7,
0.005924904616971118,-2.0395322024822915E-7,
0.005924904616971118,-2.0395322024822915E-7,
-0.010070520784648805,1.310065505095298E-6,
-0.010070520784648805,1.310065505095298E-6,
-0.008683497052100421,1.5392789247470687E-6,
-0.008683497052100421,1.5392789247470687E-6,
-0.008377718828280664,1.8575018364518081E-6,
-0.008377718828280664,1.8575018364518081E-6,
0.00907594949538824,-1.5383188686525495E-6,
0.00907594949538824,-1.5383188686525495E-6,
0.006718888310089269,-8.975342568650138E-7,
0.006718888310089269,-8.975342568650138E-7,
-0.00961051880710905,1.3119264264394026E-6,
-0.00961051880710905,1.3119264264394026E-6,
0.00710897078474286,-1.2597676400344197E-6,
0.00710897078474286,-1.2597676400344197E-6,
-0.019991875344830472,2.2813606786681664E-6,
-0.019991875344830472,2.2813606786681664E-6,
-0.005787923135648421,9.502758414291212E-7,
-0.005787923135648421,9.502758414291212E-7,
-0.017002954156519166,2.6475467036881153E-6,
-0.017002954156519166,2.6475467036881153E-6,
-0.010482020035549586,1.4174677025777065E-6,
-0.010482020035549586,1.4174677025777065E-6,
-0.0060360598343557085,1.3311951980086133E-6,
-0.0060360598343557085,1.3311951980086133E-6,
0.006402557281067157,-1.0994602064875666E-6,
0.006402557281067157,-1.0994602064875666E-6,
0.009486497367226327,-1.1099027035377934E-6,
0.009486497367226327,-1.1099027035377934E-6,
0.007141719646084267,-2.561159034688079E-7,
0.007141719646084267,-2.561159034688079E-7,
-0.004394127213607693,1.5385914920529667E-6,
-0.004394127213607693,1.5385914920529667E-6,
0.007527903057369807,-1.4200670367136604E-6,
0.007527903057369807,-1.4200670367136604E-6,
-0.02036261640800773,2.0000202411939692E-6,
-0.02036261640800773,2.0000202411939692E-6,
0.010543686268611945,-1.068193488112587E-6,
0.010543686268611945,-1.068193488112587E-6,
-0.017391176596283423,2.6192459989171288E-6,
-0.017391176596283423,2.6192459989171288E-6,
0.006207710979960974,-1.4650171386880115E-6,
0.006207710979960974,-1.4650171386880115E-6,
-0.006477293897309017,1.604248592563303E-6,
-0.006477293897309017,1.604248592563303E-6,
-0.00882081834740644,1.4440683727681355E-6,
-0.00882081834740644,1.4440683727681355E-6,
0.009923118946851814,-9.453608092015522E-7,
0.009923118946851814,-9.453608092015522E-7,
0.007587043857806666,-1.1663114767770238E-6,
0.007587043857806666,-1.1663114767770238E-6,
-0.01000919090677427,1.9055121840516435E-6,
-0.01000919090677427,1.9055121840516435E-6,
0.007952073824913853,-1.4460849781399755E-6,
0.007952073824913853,-1.4460849781399755E-6,
-0.02073838125560982,2.058905139624371E-6,
-0.02073838125560982,2.058905139624371E-6,
0.0109595386592507,-1.0830034325223087E-6,
0.0109595386592507,-1.0830034325223087E-6,
-0.017775252948215168,2.5022447892280968E-6,
-0.017775252948215168,2.5022447892280968E-6,
-0.01093333398654301,1.626114983606635E-6,
-0.01093333398654301,1.626114983606635E-6,
-0.009051713206203288,2.0479754367190572E-6,
-0.009051713206203288,2.0479754367190572E-6,
0.006851071732850539,-1.1506279435817904E-6,
0.006851071732850539,-1.1506279435817904E-6,
-0.00624614103973522,1.1335406813525045E-6,
-0.00624614103973522,1.1335406813525045E-6,
0.008001420414959234,-7.039836255242488E-7,
0.008001420414959234,-7.039836255242488E-7,
-0.010414469663800966,2.1171256546865733E-6,
-0.010414469663800966,2.1171256546865733E-6,
-0.004403345483932762,2.080213143183015E-6,
-0.004403345483932762,2.080213143183015E-6,
-0.010656882626860521,1.495777907888074E-6,
-0.010656882626860521,1.495777907888074E-6,
-0.0062607534148030304,1.0098394541153272E-6,
-0.0062607534148030304,1.0098394541153272E-6,
-0.018154346541342143,2.3234951602281798E-6,
-0.018154346541342143,2.3234951602281798E-6,
0.0066638231323111275,-1.5678805959239324E-6,
0.0066638231323111275,-1.5678805959239324E-6,
-0.00688168205443042,1.8840394836652091E-6,
-0.00688168205443042,1.8840394836652091E-6,
-0.009261219397711743,1.7013747490419139E-6,
-0.009261219397711743,1.7013747490419139E-6,
0.010380658280938872,-1.3777713537884567E-6,
0.010380658280938872,-1.3777713537884567E-6,
-0.010588705058492603,2.994936970439257E-6,
-0.010588705058492603,2.994936970439257E-6,
-0.010815872825739321,1.5507472648419209E-6,
-0.010815872825739321,1.5507472648419209E-6,
0.008414058951208732,-1.7204557394580842E-6,
0.008414058951208732,-1.7204557394580842E-6,
-0.011084688394309004,2.3514691071457525E-6,
-0.011084688394309004,2.3514691071457525E-6,
0.011406497051763165,-7.935259300562506E-7,
0.011406497051763165,-7.935259300562506E-7,
-0.018531704068700663,2.3319642707417612E-6,
-0.018531704068700663,2.3319642707417612E-6,
-0.011380483783618472,1.4773804649123416E-6,
-0.011380483783618472,1.4773804649123416E-6,
-0.009434527316880098,1.7536240750023503E-6,
-0.009434527316880098,1.7536240750023503E-6,
-0.009661785183912953,1.5295625605668203E-6,
-0.009661785183912953,1.5295625605668203E-6,
0.010795721009615379,-1.5935652992269539E-6,
0.010795721009615379,-1.5935652992269539E-6,
-0.010978636128523398,2.292244624793171E-6,
-0.010978636128523398,2.292244624793171E-6,
-0.004713137284866257,1.992348806898435E-6,
-0.004713137284866257,1.992348806898435E-6,
-0.004869293254423181,1.9316483766910336E-6,
-0.004869293254423181,1.9316483766910336E-6,
-0.021075993169647478,2.8078485544884638E-6,
-0.021075993169647478,2.8078485544884638E-6,
-0.006701011830221154,6.796992731757795E-7,
-0.006701011830221154,6.796992731757795E-7,
-0.018896851564153994,2.8074715213758338E-6,
-0.018896851564153994,2.8074715213758338E-6,
0.007130188791293602,-1.8659814283411395E-6,
0.007130188791293602,-1.8659814283411395E-6,
-0.009852005307212326,2.047645245488363E-6,
-0.009852005307212326,2.047645245488363E-6,
-0.010074424843683134,2.0124159282462924E-6,
-0.010074424843683134,2.0124159282462924E-6,
-0.006751984279118271,1.6629170874089827E-6,
-0.006751984279118271,1.6629170874089827E-6,
-0.011378617769682634,2.0066835770891737E-6,
-0.011378617769682634,2.0066835770891737E-6,
-0.005132290700393479,1.359101704534807E-6,
-0.005132290700393479,1.359101704534807E-6,
0.008868859176537808,-1.7310329574939803E-6,
0.008868859176537808,-1.7310329574939803E-6,
-0.011423022938115424,2.1355179004142917E-6,
-0.011423022938115424,2.1355179004142917E-6,
-0.0071259983444407,1.250893016788504E-6,
-0.0071259983444407,1.250893016788504E-6,
0.006706376353469955,-1.133488796249086E-6,
0.006706376353469955,-1.133488796249086E-6,
0.00754517765891437,-1.4988739980843595E-6,
0.00754517765891437,-1.4988739980843595E-6,
-0.010253354655526266,2.286499929806101E-6,
-0.010253354655526266,2.286499929806101E-6,
-0.010471378017241765,1.442347714737148E-6,
-0.010471378017241765,1.442347714737148E-6,
-0.00714903364270338,1.164093456440616E-6,
-0.00714903364270338,1.164093456440616E-6,
0.00859040453140213,-1.048174661259435E-6,
0.00859040453140213,-1.048174661259435E-6,
-0.005569577672622455,2.149913461222362E-6,
-0.005569577672622455,2.149913461222362E-6,
-0.005340800545293426,2.0205613674544043E-6,
-0.005340800545293426,2.0205613674544043E-6,
-0.011808452362311973,1.6673889212171812E-6,
-0.011808452362311973,1.6673889212171812E-6,
-0.0075403372506952894,1.374373771999629E-6,
-0.0075403372506952894,1.374373771999629E-6,
-0.019311465989968475,2.3960716701134158E-6,
-0.019311465989968475,2.3960716701134158E-6,
0.007962522821070891,-1.8325001459157907E-6,
0.007962522821070891,-1.8325001459157907E-6,
-0.007210777955166445,1.5021500607576704E-6,
-0.007210777955166445,1.5021500607576704E-6,
0.0074327728591544965,-1.229363209617057E-6,
0.0074327728591544965,-1.229363209617057E-6,
-0.007583628669903168,1.7034149888844365E-6,
-0.007583628669903168,1.7034149888844365E-6,
0.009002919576888079,-1.3271395627595384E-6,
0.009002919576888079,-1.3271395627595384E-6,
-0.005981409567273931,1.8210619638007845E-6,
-0.005981409567273931,1.8210619638007845E-6,
-0.005762444072368589,1.721307304507029E-6,
-0.005762444072368589,1.721307304507029E-6,
-0.012207771861349918,2.1937138662397188E-6,
-0.012207771861349918,2.1937138662397188E-6,
-0.007955906137395077,1.6938487173174394E-6,
-0.007955906137395077,1.6938487173174394E-6,
0.007167856110991028,-8.766340917612178E-7,
0.007167856110991028,-8.766340917612178E-7,
0.00837816407147438,-1.7853093224060382E-6,
0.00837816407147438,-1.7853093224060382E-6,
-0.0076400139361719735,2.466386072277893E-6,
-0.0076400139361719735,2.466386072277893E-6,
0.007852244557968404,-1.1752471357141976E-6,
0.007852244557968404,-1.1752471357141976E-6,
0.011330668456514235,-1.148937886944184E-6,
0.011330668456514235,-1.148937886944184E-6,
-0.011838960934771577,2.462446031601794E-6,
-0.011838960934771577,2.462446031601794E-6,
-0.006403346420854255,1.6542040158075248E-6,
-0.006403346420854255,1.6542040158075248E-6,
0.009365816346994963,-1.815128756067503E-6,
0.009365816346994963,-1.815128756067503E-6,
-0.021357948040937432,2.4466947160890415E-6,
-0.021357948040937432,2.4466947160890415E-6,
-0.008369791340307218,1.760359356776063E-6,
-0.008369791340307218,1.760359356776063E-6,
-0.019716413683525016,2.2807416961093813E-6,
-0.019716413683525016,2.2807416961093813E-6,
-0.011983915953818026,1.3586295052481906E-6,
-0.011983915953818026,1.3586295052481906E-6,
-0.010578925766357553,2.4630579850029415E-6,
-0.010578925766357553,2.4630579850029415E-6,
-0.01095154814839792,1.6948838733707623E-6,
-0.01095154814839792,1.6948838733707623E-6,
-0.008013454557814523,1.6132389308938684E-6,
-0.008013454557814523,1.6132389308938684E-6,
0.009472406291538697,-1.5238987030878788E-6,
0.009472406291538697,-1.5238987030878788E-6,
-0.006814536361979543,2.01773251514532E-6,
-0.006814536361979543,2.01773251514532E-6,
-0.00623194320988342,1.4936408636026174E-6,
-0.00623194320988342,1.4936408636026174E-6,
-0.01256092382287194,2.8890763063933386E-6,
-0.01256092382287194,2.8890763063933386E-6,
0.012012080774986647,-1.555194752822682E-6,
0.012012080774986647,-1.555194752822682E-6,
-0.02009446669288182,2.6776296002885454E-6,
-0.02009446669288182,2.6776296002885454E-6,
0.008830122797431214,-2.0189593989486387E-6,
0.008830122797431214,-2.0189593989486387E-6,
-0.008011695187761238,2.475368704693559E-6,
-0.008011695187761238,2.475368704693559E-6,
-0.01135870320104446,1.5119461126982155E-6,
-0.01135870320104446,1.5119461126982155E-6,
-0.008435508569157535,9.932267223062077E-7,
-0.008435508569157535,9.932267223062077E-7,
0.009865526801597815,-1.4490728025844286E-6,
0.009865526801597815,-1.4490728025844286E-6,
-0.011053390206648204,2.2108144871421133E-6,
-0.011053390206648204,2.2108144871421133E-6,
-0.006660090011516822,2.2416866879431015E-6,
-0.006660090011516822,2.2416866879431015E-6,
-0.021681159506898872,2.3200945253819792E-6,
-0.021681159506898872,2.3200945253819792E-6,
0.012402448319493227,-1.2598854501697648E-6,
0.012402448319493227,-1.2598854501697648E-6,
0.007710505901026636,-7.902892806420543E-7,
0.007710505901026636,-7.902892806420543E-7,
0.009237542599653913,-2.0011433223667344E-6,
0.009237542599653913,-2.0011433223667344E-6,
-0.008416648648953466,2.837628715661022E-6,
-0.008416648648953466,2.837628715661022E-6,
-0.011774184287218931,2.2564069929779072E-6,
-0.011774184287218931,2.2564069929779072E-6,
-0.008867805562656407,1.2242869777434086E-6,
-0.008867805562656407,1.2242869777434086E-6,
-0.012321802775858589,2.867006572547775E-6,
-0.012321802775858589,2.867006572547775E-6,
-0.007199644046570161,1.9461830280298638E-6,
-0.007199644046570161,1.9461830280298638E-6,
0.009872939414111135,-1.7220073603822772E-6,
0.009872939414111135,-1.7220073603822772E-6,
-0.012887227680800445,2.3508818443374914E-6,
-0.012887227680800445,2.3508818443374914E-6,
-0.008845529306661081,1.2907892079777605E-6,
-0.008845529306661081,1.2907892079777605E-6,
-0.0204853007842903,2.2746054432263955E-6,
-0.0204853007842903,2.2746054432263955E-6,
0.009648696585358456,-1.6794059256291377E-6,
0.009648696585358456,-1.6794059256291377E-6,
-0.010871337598011982,2.3854075152560626E-6,
-0.010871337598011982,2.3854075152560626E-6,
0.00840469631207465,-1.0642659301141402E-6,
0.00840469631207465,-1.0642659301141402E-6,
0.011847608030366653,-1.6609568894753249E-6,
0.011847608030366653,-1.6609568894753249E-6,
0.010343302507811495,-1.0951495368382094E-6,
0.010343302507811495,-1.0951495368382094E-6,
-0.007605861669564231,2.387678872194099E-6,
-0.007605861669564231,2.387678872194099E-6,
-0.007115449759803828,2.1821460382486467E-6,
-0.007115449759803828,2.1821460382486467E-6,
-0.02201814959093658,2.2754749885080944E-6,
-0.02201814959093658,2.2754749885080944E-6,
0.012860032769746796,-1.1421888702783413E-6,
0.012860032769746796,-1.1421888702783413E-6,
0.008177406540014325,-1.6421132967661158E-6,
0.008177406540014325,-1.6421132967661158E-6,
0.01006232887403688,-1.809775139073773E-6,
0.01006232887403688,-1.809775139073773E-6,
-0.008772450819403662,1.6940905150004439E-6,
-0.008772450819403662,1.6940905150004439E-6,
-0.01219528754055842,1.5412604570095613E-6,
-0.01219528754055842,1.5412604570095613E-6,
-0.009321091723854714,1.5701317740632326E-6,
-0.009321091723854714,1.5701317740632326E-6,
-0.01273407181933511,2.4008119282269667E-6,
-0.01273407181933511,2.4008119282269667E-6,
-0.00800349466430538,2.1762533908738224E-6,
-0.00800349466430538,2.1762533908738224E-6,
0.010346932885885925,-1.53330123664518E-6,
0.010346932885885925,-1.53330123664518E-6,
-0.02238237807876926,2.313432474379106E-6,
-0.02238237807876926,2.313432474379106E-6,
-0.009299675903792569,1.6772516017817853E-6,
-0.009299675903792569,1.6772516017817853E-6,
0.008575745645258965,-1.5915293639610917E-6,
0.008575745645258965,-1.5915293639610917E-6,
-0.012577574126728807,2.5287540555583507E-6,
-0.012577574126728807,2.5287540555583507E-6,
-0.011243865876791864,2.5307383928405147E-6,
-0.011243865876791864,2.5307383928405147E-6,
0.008862366441906053,-1.4091865602416064E-6,
0.008862366441906053,-1.4091865602416064E-6,
0.012302855098348366,-2.0635200775579073E-6,
0.012302855098348366,-2.0635200775579073E-6,
-0.013137148773205142,2.4537741862367367E-6,
-0.013137148773205142,2.4537741862367367E-6,
-0.008404438920044837,2.2330805817746824E-6,
-0.008404438920044837,2.2330805817746824E-6,
0.010753916726525673,-2.0492493325225715E-6,
0.010753916726525673,-2.0492493325225715E-6,
-0.013209152556287376,2.488363619961541E-6,
-0.013209152556287376,2.488363619961541E-6,
0.013317685195176183,-1.80815842733403E-6,
0.013317685195176183,-1.80815842733403E-6,
0.008971441684743226,-1.3428299371217277E-6,
0.008971441684743226,-1.3428299371217277E-6,
0.010531627786753602,-1.4344860543844852E-6,
0.010531627786753602,-1.4344860543844852E-6,
-0.011644585020276139,2.4149508268595833E-6,
-0.011644585020276139,2.4149508268595833E-6,
-0.012626133735572956,1.501332553307047E-6,
-0.012626133735572956,1.501332553307047E-6,
0.012717059316722507,-1.3555282334411223E-6,
0.012717059316722507,-1.3555282334411223E-6,
-0.013537134137576453,2.1306968692931007E-6,
-0.013537134137576453,2.1306968692931007E-6,
-0.008795769873327508,2.5256571715673477E-6,
-0.008795769873327508,2.5256571715673477E-6,
0.01116461549536842,-2.123433094131013E-6,
0.01116461549536842,-2.123433094131013E-6,
-0.02272361427405109,2.0856268815980412E-6,
-0.02272361427405109,2.0856268815980412E-6,
-0.00973836089216349,1.1089522838165708E-6,
-0.00973836089216349,1.1089522838165708E-6,
0.00937164851836813,-1.3458176488147927E-6,
0.00937164851836813,-1.3458176488147927E-6,
-0.013000816735041016,1.9297601088455636E-6,
-0.013000816735041016,1.9297601088455636E-6,
-0.012046623789549984,2.005119837778825E-6,
-0.012046623789549984,2.005119837778825E-6,
-0.01301683420979889,2.081174504390236E-6,
-0.01301683420979889,2.081174504390236E-6,
-0.009821268579130491,1.088981772513764E-6,
-0.009821268579130491,1.088981772513764E-6,
0.010923417259822174,-1.95369532897784E-6,
0.010923417259822174,-1.95369532897784E-6,
-0.011247614530478891,1.9010495115544777E-6,
-0.011247614530478891,1.9010495115544777E-6,
0.011559338831147301,-2.1494385549526707E-6,
0.011559338831147301,-2.1494385549526707E-6,
-0.02309340216711938,2.413376562195209E-6,
-0.02309340216711938,2.413376562195209E-6,
-0.010153343160484373,2.0247852222216554E-6,
-0.010153343160484373,2.0247852222216554E-6,
-0.02105698903435128,2.478057653236554E-6,
-0.02105698903435128,2.478057653236554E-6,
-0.013395191845968086,1.7573906609200801E-6,
-0.013395191845968086,1.7573906609200801E-6,
-0.012429652960350906,2.152588154353402E-6,
-0.012429652960350906,2.152588154353402E-6,
0.009364380417506927,-1.290758193061431E-6,
0.009364380417506927,-1.290758193061431E-6,
0.013161658189457469,-2.021716598384418E-6,
0.013161658189457469,-2.021716598384418E-6,
-0.013995824311399367,2.0259594500880718E-6,
-0.013995824311399367,2.0259594500880718E-6,
-0.00916240061689544,2.111625876028908E-6,
-0.00916240061689544,2.111625876028908E-6,
-0.007714777856950152,2.7185316249182107E-6,
-0.007714777856950152,2.7185316249182107E-6,
-0.013508441771034147,1.9292439748554158E-6,
-0.013508441771034147,1.9292439748554158E-6,
-0.010543507418181672,1.1587496424455765E-6,
-0.010543507418181672,1.1587496424455765E-6,
0.009839609202012696,-7.152088374938297E-7,
0.009839609202012696,-7.152088374938297E-7,
-0.013790042682365257,2.408459847730391E-6,
-0.013790042682365257,2.408459847730391E-6,
-0.009031378268764318,2.331279989534977E-6,
-0.009031378268764318,2.331279989534977E-6,
0.009778017009749016,-1.6206549700741903E-6,
0.009778017009749016,-1.6206549700741903E-6,
-0.010277978155418994,1.349418156228275E-6,
-0.010277978155418994,1.349418156228275E-6,
0.011371645217426325,-1.8782569162771774E-6,
0.011371645217426325,-1.8782569162771774E-6,
-0.009558630451154243,2.0168192958113992E-6,
-0.009558630451154243,2.0168192958113992E-6,
-0.008120624046122403,2.4249376948757423E-6,
-0.008120624046122403,2.4249376948757423E-6,
-0.013896183573864232,1.836690177882145E-6,
-0.013896183573864232,1.836690177882145E-6,
0.013825608932009056,-1.6734970705342515E-6,
0.013825608932009056,-1.6734970705342515E-6,
0.010245608897297644,-1.5611732868360192E-6,
0.010245608897297644,-1.5611732868360192E-6,
-0.014155310612362757,1.7996574285653912E-6,
-0.014155310612362757,1.7996574285653912E-6,
-0.009433022777031305,2.571289422477127E-6,
-0.009433022777031305,2.571289422477127E-6,
-0.013498432036781598,1.2850716060489563E-6,
-0.013498432036781598,1.2850716060489563E-6,
-0.010687247938139396,2.0364038067761762E-6,
-0.010687247938139396,2.0364038067761762E-6,
0.011764818559305988,-1.4102135382884802E-6,
0.011764818559305988,-1.4102135382884802E-6,
-0.00996298451158891,2.5029832921622495E-6,
-0.00996298451158891,2.5029832921622495E-6,
0.012079136505039494,-2.1571487129256814E-6,
0.012079136505039494,-2.1571487129256814E-6,
-0.023412146897148794,2.7914885464990803E-6,
-0.023412146897148794,2.7914885464990803E-6,
0.014209245479326454,-1.919891072475321E-6,
0.014209245479326454,-1.919891072475321E-6,
-0.02152051341294618,2.9161996895174687E-6,
-0.02152051341294618,2.9161996895174687E-6,
-0.014545635339284137,2.468685835911328E-6,
-0.014545635339284137,2.468685835911328E-6,
-0.009843619085269581,1.8656171887456233E-6,
-0.009843619085269581,1.8656171887456233E-6,
0.01021987960609612,-1.5859993853610532E-6,
0.01021987960609612,-1.5859993853610532E-6,
0.013648893407615947,-2.01398942835428E-6,
0.013648893407615947,-2.01398942835428E-6,
0.012167062994790423,-1.2868187948167527E-6,
0.012167062994790423,-1.2868187948167527E-6,
-0.011531595647226,1.9933842808224876E-6,
-0.011531595647226,1.9933842808224876E-6,
-0.00857276107491111,2.4047442329809196E-6,
-0.00857276107491111,2.4047442329809196E-6,
-0.014252286855173091,2.454430804167771E-6,
-0.014252286855173091,2.454430804167771E-6,
0.014603355247992016,-1.5927344155244015E-6,
0.014603355247992016,-1.5927344155244015E-6,
-0.021873092471677003,3.0376801858043867E-6,
-0.021873092471677003,3.0376801858043867E-6,
-0.014920457151798582,1.7129018618964285E-6,
-0.014920457151798582,1.7129018618964285E-6,
-0.010263966460853067,2.222480471193722E-6,
-0.010263966460853067,2.222480471193722E-6,
0.010621758558120132,-1.5380705817177008E-6,
0.010621758558120132,-1.5380705817177008E-6,
0.014047393919103224,-1.650479379603463E-6,
0.014047393919103224,-1.650479379603463E-6,
0.012566087668292685,-1.7634623660166791E-6,
0.012566087668292685,-1.7634623660166791E-6,
-0.01031465549523899,2.4688654276299946E-6,
-0.01031465549523899,2.4688654276299946E-6,
-0.008977684219688274,2.725193602709248E-6,
-0.008977684219688274,2.725193602709248E-6,
-0.014624608206515005,2.002630060816534E-6,
-0.014624608206515005,2.002630060816534E-6,
-0.011092430685936348,1.5256297737848215E-6,
-0.011092430685936348,1.5256297737848215E-6,
-0.022235764764221625,3.2456554526693812E-6,
-0.022235764764221625,3.2456554526693812E-6,
0.011254393017529602,-1.909903586120882E-6,
0.011254393017529602,-1.909903586120882E-6,
-0.012661580400081416,2.5972261293275185E-6,
-0.012661580400081416,2.5972261293275185E-6,
0.011032485034904343,-1.8623288560856363E-6,
0.011032485034904343,-1.8623288560856363E-6,
-0.011165752436625478,1.6209728183986735E-6,
-0.011165752436625478,1.6209728183986735E-6,
-0.014571232273799707,2.730233624188838E-6,
-0.014571232273799707,2.730233624188838E-6,
-0.011893358722020634,1.396865621018737E-6,
-0.011893358722020634,1.396865621018737E-6,
-0.009370915040059003,2.0284910236005246E-6,
-0.009370915040059003,2.0284910236005246E-6,
-0.02370750359718447,2.282405302147031E-6,
-0.02370750359718447,2.282405302147031E-6,
0.015039095775426671,-1.9694732437979846E-6,
0.015039095775426671,-1.9694732437979846E-6,
-0.022592725300467645,3.3292068180291144E-6,
-0.022592725300467645,3.3292068180291144E-6,
0.011663320822302679,-2.2462484507383E-6,
0.011663320822302679,-2.2462484507383E-6,
-0.013037254350367617,2.4376398460737927E-6,
-0.013037254350367617,2.4376398460737927E-6,
0.011430141698538992,-2.2282037764023883E-6,
0.011430141698538992,-2.2282037764023883E-6,
-0.011577125584624549,1.8504313865708513E-6,
-0.011577125584624549,1.8504313865708513E-6,
0.013025014985458785,-1.5898607414405533E-6,
0.013025014985458785,-1.5898607414405533E-6,
-0.010680838716172798,2.916749812354076E-6,
-0.010680838716172798,2.916749812354076E-6,
-0.00978094151149022,2.60052192320101E-6,
-0.00978094151149022,2.60052192320101E-6,
-0.014972335370834453,2.403945674744022E-6,
-0.014972335370834453,2.403945674744022E-6,
0.015417960364908707,-2.3023485881466625E-6,
0.015417960364908707,-2.3023485881466625E-6,
0.010954718157859452,-1.5035397049958932E-6,
0.010954718157859452,-1.5035397049958932E-6,
-0.01543554219837236,1.8941362151564563E-6,
-0.01543554219837236,1.8941362151564563E-6,
-0.013423141923656554,2.769174452362834E-6,
-0.013423141923656554,2.769174452362834E-6,
-0.014097562264342388,2.1727386036486662E-6,
-0.014097562264342388,2.1727386036486662E-6,
-0.011966857291847875,1.9227892017145178E-6,
-0.011966857291847875,1.9227892017145178E-6,
-0.015004981766243212,2.6931383535705802E-6,
-0.015004981766243212,2.6931383535705802E-6,
-0.01106551459422873,2.1581865541115026E-6,
-0.01106551459422873,2.1581865541115026E-6,
0.012711109294319466,-2.500524639073836E-6,
0.012711109294319466,-2.500524639073836E-6,
-0.024035473090780267,3.260110450454927E-6,
-0.024035473090780267,3.260110450454927E-6,
0.015797155114137235,-2.1086366637900616E-6,
0.015797155114137235,-2.1086366637900616E-6,
0.011333705247524709,-1.2160102121059647E-6,
0.011333705247524709,-1.2160102121059647E-6,
-0.015821126071546246,2.28281096777529E-6,
-0.015821126071546246,2.28281096777529E-6,
-0.010537976891872964,2.3302501545082593E-6,
-0.010537976891872964,2.3302501545082593E-6,
0.011875937761070599,-2.061268787476901E-6,
0.011875937761070599,-2.061268787476901E-6,
0.014596807403665374,-2.4434306544972827E-6,
0.014596807403665374,-2.4434306544972827E-6,
0.013491162286542941,-1.6498257480426944E-6,
0.013491162286542941,-1.6498257480426944E-6,
-0.012212171647493613,2.5472013425557882E-6,
-0.012212171647493613,2.5472013425557882E-6,
0.01310568558270486,-2.3312079909976365E-6,
0.01310568558270486,-2.3312079909976365E-6,
-0.015279985181998194,2.1262406221999805E-6,
-0.015279985181998194,2.1262406221999805E-6,
0.016170344377361895,-1.720922608998074E-6,
0.016170344377361895,-1.720922608998074E-6,
0.011733986531091294,-1.1296241043965219E-6,
0.011733986531091294,-1.1296241043965219E-6,
0.012162123235915414,-2.4993828969146863E-6,
0.012162123235915414,-2.4993828969146863E-6,
-0.013761499639078962,2.3640902453271953E-6,
-0.013761499639078962,2.3640902453271953E-6,
-0.014539267431029075,2.164162758601547E-6,
-0.014539267431029075,2.164162758601547E-6,
-0.012427454755392479,1.792510161602659E-6,
-0.012427454755392479,1.792510161602659E-6,
0.01389161987948349,-1.502659039431982E-6,
0.01389161987948349,-1.502659039431982E-6,
-0.011396793597099563,2.1168160856455988E-6,
-0.011396793597099563,2.1168160856455988E-6,
-0.010305922065980574,2.3476533298565604E-6,
-0.010305922065980574,2.3476533298565604E-6,
-0.015645934575557165,2.8027706139980603E-6,
-0.015645934575557165,2.8027706139980603E-6,
0.016546702036878847,-2.3864280643093143E-6,
0.016546702036878847,-2.3864280643093143E-6,
-0.02307325676500576,2.6902106875347637E-6,
-0.02307325676500576,2.6902106875347637E-6,
-0.016264998011094465,2.559885492020488E-6,
-0.016264998011094465,2.559885492020488E-6,
-0.014140791546795657,2.6538480365503013E-6,
-0.014140791546795657,2.6538480365503013E-6,
-0.014929257194727794,2.712545664996461E-6,
-0.014929257194727794,2.712545664996461E-6,
-0.012819418844715104,2.0167339370717914E-6,
-0.012819418844715104,2.0167339370717914E-6,
0.014282204258232,-1.911878837674349E-6,
0.014282204258232,-1.911878837674349E-6,
-0.011787178351326621,2.138865906755206E-6,
-0.011787178351326621,2.138865906755206E-6,
-0.010713864810237608,2.4806987365044372E-6,
-0.010713864810237608,2.4806987365044372E-6,
-0.01600725131133853,2.476322325941499E-6,
-0.01600725131133853,2.476322325941499E-6,
0.0169202694126606,-2.3264954061344954E-6,
0.0169202694126606,-2.3264954061344954E-6,
0.012204439649012777,-1.7368572979969271E-6,
0.012204439649012777,-1.7368572979969271E-6,
-0.01664792041520735,2.4203320206444244E-6,
-0.01664792041520735,2.4203320206444244E-6,
-0.014506045551199736,2.2640506372544576E-6,
-0.014506045551199736,2.2640506372544576E-6,
-0.015303028638675496,2.5430674404462728E-6,
-0.015303028638675496,2.5430674404462728E-6,
0.015073628104065241,-2.3360295515291105E-6,
0.015073628104065241,-2.3360295515291105E-6,
-0.015534155228865384,3.3037067524955763E-6,
-0.015534155228865384,3.3037067524955763E-6,
-0.012524888010150873,1.9108166451464043E-6,
-0.012524888010150873,1.9108166451464043E-6,
-0.011114061885274208,2.901271535952609E-6,
-0.011114061885274208,2.901271535952609E-6,
-0.024258878505301267,2.3654139167119358E-6,
-0.024258878505301267,2.3654139167119358E-6,
-0.011828268501877872,1.6371981934500124E-6,
-0.011828268501877872,1.6371981934500124E-6,
0.012591199015229813,-7.939249149074845E-7,
0.012591199015229813,-7.939249149074845E-7,
0.012692924858569064,-1.764925356029668E-6,
0.012692924858569064,-1.764925356029668E-6,
-0.010816022555110336,2.7629726834870437E-6,
-0.010816022555110336,2.7629726834870437E-6,
0.012453274095282066,-2.6340688613077715E-6,
0.012453274095282066,-2.6340688613077715E-6,
0.015466824850383172,-1.9588911250455372E-6,
0.015466824850383172,-1.9588911250455372E-6,
0.014754722680515756,-1.7058315036149428E-6,
0.014754722680515756,-1.7058315036149428E-6,
-0.012144922259995522,3.089643160143589E-6,
-0.012144922259995522,3.089643160143589E-6,
0.013684154682607119,-2.7620190762565368E-6,
0.013684154682607119,-2.7620190762565368E-6,
-0.016338497468817305,2.548001428599213E-6,
-0.016338497468817305,2.548001428599213E-6,
-0.012220032263814243,1.9348515580093137E-6,
-0.012220032263814243,1.9348515580093137E-6,
0.013004724173606885,-1.4678459282976841E-6,
0.013004724173606885,-1.4678459282976841E-6,
-0.01706807558882968,2.1708044064109623E-6,
-0.01706807558882968,2.1708044064109623E-6,
-0.011213974243781056,2.7446317420239813E-6,
-0.011213974243781056,2.7446317420239813E-6,
-0.015745597688688606,2.070847187049963E-6,
-0.015745597688688606,2.070847187049963E-6,
0.015869343239096452,-2.0492661043413143E-6,
0.015869343239096452,-2.0492661043413143E-6,
0.01513807236871238,-2.1501755244827774E-6,
0.01513807236871238,-2.1501755244827774E-6,
-0.012866155139214483,2.1737133562137884E-6,
-0.012866155139214483,2.1737133562137884E-6,
0.014055156671687387,-2.581264837403941E-6,
0.014055156671687387,-2.581264837403941E-6,
-0.016702810155011627,2.6579863992466646E-6,
-0.016702810155011627,2.6579863992466646E-6,
0.017390252413904458,-1.7185452192468656E-6,
0.017390252413904458,-1.7185452192468656E-6,
-0.023565840186668068,3.1604361223603293E-6,
-0.023565840186668068,3.1604361223603293E-6,
-0.01744196317814147,2.54190608118968E-6,
-0.01744196317814147,2.54190608118968E-6,
-0.01161239388445775,3.0597068113838617E-6,
-0.01161239388445775,3.0597068113838617E-6,
0.012876844416249087,-2.4158210119268157E-6,
0.012876844416249087,-2.4158210119268157E-6,
0.016269638533082508,-1.978365358951562E-6,
0.016269638533082508,-1.978365358951562E-6,
0.015513540128706984,-1.8881689241986507E-6,
0.015513540128706984,-1.8881689241986507E-6,
-0.013262175949188743,1.994200770883813E-6,
-0.013262175949188743,1.994200770883813E-6,
-0.011629894159336459,2.9390129546347406E-6,
-0.011629894159336459,2.9390129546347406E-6,
-0.024531480115347632,2.433451165416694E-6,
-0.024531480115347632,2.433451165416694E-6,
0.01776686293129344,-2.3084596658820913E-6,
0.01776686293129344,-2.3084596658820913E-6,
-0.023909504104892797,3.312046919304052E-6,
-0.023909504104892797,3.312046919304052E-6,
0.01322438908779547,-1.984441409325771E-6,
0.01322438908779547,-1.984441409325771E-6,
-0.014730416316478897,2.575829505435147E-6,
-0.014730416316478897,2.575829505435147E-6,
-0.016197229699939232,2.6795889794583097E-6,
-0.016197229699939232,2.6795889794583097E-6,
-0.013419747109072561,2.4929060360996506E-6,
-0.013419747109072561,2.4929060360996506E-6,
0.015893797632888337,-2.159625097049051E-6,
0.015893797632888337,-2.159625097049051E-6,
-0.012439832071868596,2.5119167718040507E-6,
-0.012439832071868596,2.5119167718040507E-6,
-0.012014792868998123,3.145765035638976E-6,
-0.012014792868998123,3.145765035638976E-6,
-0.024882820090913874,2.7530871925646704E-6,
-0.024882820090913874,2.7530871925646704E-6,
-0.01271844354773808,2.2658122004691993E-6,
-0.01271844354773808,2.2658122004691993E-6,
-0.024249850753261536,3.359522810135983E-6,
-0.024249850753261536,3.359522810135983E-6,
0.013636702929132504,-1.9860993378372632E-6,
0.013636702929132504,-1.9860993378372632E-6,
-0.015107522636401895,2.8116387046830255E-6,
-0.015107522636401895,2.8116387046830255E-6,
0.013319198452185054,-2.1621665913509544E-6,
0.013319198452185054,-2.1621665913509544E-6,
0.01672958406321408,-2.3193587276033704E-6,
0.01672958406321408,-2.3193587276033704E-6,
-0.016121822943099384,2.5780177509244703E-6,
-0.016121822943099384,2.5780177509244703E-6,
-0.012831648913355207,2.396946225317713E-6,
-0.012831648913355207,2.396946225317713E-6,
0.014577666825830615,-2.4417527116301664E-6,
0.014577666825830615,-2.4417527116301664E-6,
-0.016970415194479272,2.2204271652582867E-6,
-0.016970415194479272,2.2204271652582867E-6,
-0.013096005912783138,1.8008909460744474E-6,
-0.013096005912783138,1.8008909460744474E-6,
0.013631937418588758,-1.7873754190847642E-6,
0.013631937418588758,-1.7873754190847642E-6,
-0.017920861767907924,1.928943186910951E-6,
-0.017920861767907924,1.928943186910951E-6,
-0.011899713213525745,3.0110937073802094E-6,
-0.011899713213525745,3.0110937073802094E-6,
0.013701602772779946,-2.0747865842030665E-6,
0.013701602772779946,-2.0747865842030665E-6,
0.017110355008170455,-2.0777961369320558E-6,
0.017110355008170455,-2.0777961369320558E-6,
-0.016499637693512335,3.3877855484063663E-6,
-0.016499637693512335,3.3877855484063663E-6,
-0.013219351362302637,2.6255960659843543E-6,
-0.013219351362302637,2.6255960659843543E-6,
0.014961713126067859,-2.45933358806235E-6,
0.014961713126067859,-2.45933358806235E-6,
-0.017342099765102,2.789563979406582E-6,
-0.017342099765102,2.789563979406582E-6,
0.018260950936556542,-2.1295553485310703E-6,
0.018260950936556542,-2.1295553485310703E-6,
-0.02465609944481518,3.5683428180172637E-6,
-0.02465609944481518,3.5683428180172637E-6,
0.014087444660579996,-2.675346932000649E-6,
0.014087444660579996,-2.675346932000649E-6,
-0.015426089464264464,3.0823641242313723E-6,
-0.015426089464264464,3.0823641242313723E-6,
-0.01667876479505511,2.7322421073281908E-6,
-0.01667876479505511,2.7322421073281908E-6,
0.01750760096266239,-2.4915701501669607E-6,
0.01750760096266239,-2.4915701501669607E-6,
0.016422462045905587,-2.2073309824464753E-6,
0.016422462045905587,-2.2073309824464753E-6,
-0.013523860154180306,2.520273648402762E-6,
-0.013523860154180306,2.520273648402762E-6,
0.015345450678618136,-2.3584352009746977E-6,
0.015345450678618136,-2.3584352009746977E-6,
-0.02516014479682444,3.0373221893043208E-6,
-0.02516014479682444,3.0373221893043208E-6,
-0.013540261934339982,2.1971768724054E-6,
-0.013540261934339982,2.1971768724054E-6,
0.01409952610544798,-1.8804856236369002E-6,
0.01409952610544798,-1.8804856236369002E-6,
0.01446801055725268,-2.551204079326297E-6,
0.01446801055725268,-2.551204079326297E-6,
-0.015785001854812037,2.5430144572073828E-6,
-0.015785001854812037,2.5430144572073828E-6,
-0.017034505791144076,2.4908007249854064E-6,
-0.017034505791144076,2.4908007249854064E-6,
0.017881282052120546,-2.094635217803932E-6,
0.017881282052120546,-2.094635217803932E-6,
-0.016925138177753006,3.2984574247080234E-6,
-0.016925138177753006,3.2984574247080234E-6,
-0.013539527942185164,2.447198326533187E-6,
-0.013539527942185164,2.447198326533187E-6,
-0.01258226154287556,2.92561588716286E-6,
-0.01258226154287556,2.92561588716286E-6,
-0.02549314230311387,2.7288487652716263E-6,
-0.02549314230311387,2.7288487652716263E-6,
-0.013923746019818169,2.2585521170922704E-6,
-0.013923746019818169,2.2585521170922704E-6,
-0.02504734373525931,3.1567443080139125E-6,
-0.02504734373525931,3.1567443080139125E-6,
-0.018434787094471456,3.170688618370915E-6,
-0.018434787094471456,3.170688618370915E-6,
-0.016149520833310307,2.118812393385374E-6,
-0.016149520833310307,2.118812393385374E-6,
-0.017404940539666264,2.235485171620498E-6,
-0.017404940539666264,2.235485171620498E-6,
0.0182539569558939,-2.349868364547817E-6,
0.0182539569558939,-2.349868364547817E-6,
0.016878141142600615,-1.5468764172532797E-6,
0.016878141142600615,-1.5468764172532797E-6,
-0.013918274592277968,2.8279332097824045E-6,
-0.013918274592277968,2.8279332097824045E-6,
-0.012961255742245586,3.7162995567877576E-6,
-0.012961255742245586,3.7162995567877576E-6,
-0.017599611281745538,2.5474504996903825E-6,
-0.017599611281745538,2.5474504996903825E-6,
0.01875265155583557,-2.36176908018906E-6,
0.01875265155583557,-2.36176908018906E-6,
-0.025386286489490303,3.2914047788036756E-6,
-0.025386286489490303,3.2914047788036756E-6,
0.014922418522360587,-3.087008611668378E-6,
0.014922418522360587,-3.087008611668378E-6,
-0.012152817159762517,2.8430100021468833E-6,
-0.012152817159762517,2.8430100021468833E-6,
-0.017782004905273062,2.4375058888426344E-6,
-0.017782004905273062,2.4375058888426344E-6,
0.018628202019102376,-2.4204252711342196E-6,
0.018628202019102376,-2.4204252711342196E-6,
0.017275235106739895,-2.3060540509248564E-6,
0.017275235106739895,-2.3060540509248564E-6,
-0.013810523200395804,2.411965061968613E-6,
-0.013810523200395804,2.411965061968613E-6,
-0.013322725410356033,3.1813357557666094E-6,
-0.013322725410356033,3.1813357557666094E-6,
-0.02579738248710003,3.1704528095787173E-6,
-0.02579738248710003,3.1704528095787173E-6,
0.01911525771096214,-1.8794674716575074E-6,
0.01911525771096214,-1.8794674716575074E-6,
0.014642525161249783,-2.1527384699484425E-6,
0.014642525161249783,-2.1527384699484425E-6,
-0.018865057012734533,2.4778963460762166E-6,
-0.018865057012734533,2.4778963460762166E-6,
-0.012537627505849526,2.8021005987958862E-6,
-0.012537627505849526,2.8021005987958862E-6,
0.014353766954698855,-2.2473244691333452E-6,
0.014353766954698855,-2.2473244691333452E-6,
-0.014149696425765365,1.9426252725481506E-6,
-0.014149696425765365,1.9426252725481506E-6,
0.01764093369456232,-2.6332730757813207E-6,
0.01764093369456232,-2.6332730757813207E-6,
-0.014204549964252302,2.2381577234817374E-6,
-0.014204549964252302,2.2381577234817374E-6,
0.015980454603781002,-1.9525167398570104E-6,
0.015980454603781002,-1.9525167398570104E-6,
-0.02612967148920556,2.7908950909448504E-6,
-0.02612967148920556,2.7908950909448504E-6,
-0.014406523486238925,2.330033693032779E-6,
-0.014406523486238925,2.330033693032779E-6,
-0.025781126826921276,3.491498903345283E-6,
-0.025781126826921276,3.491498903345283E-6,
-0.019235281070232566,3.059455637314905E-6,
-0.019235281070232566,3.059455637314905E-6,
-0.012923530164939032,2.827272082805022E-6,
-0.012923530164939032,2.827272082805022E-6,
-0.01821792034487646,2.825367377154008E-6,
-0.01821792034487646,2.825367377154008E-6,
0.01904715543540311,-2.404303071035837E-6,
0.01904715543540311,-2.404303071035837E-6,
0.01800143669017126,-2.3771268996761186E-6,
0.01800143669017126,-2.3771268996761186E-6,
-0.014196427815564648,2.1584516808649534E-6,
-0.014196427815564648,2.1584516808649534E-6,
0.016372228866712184,-2.4085678457081393E-6,
0.016372228866712184,-2.4085678457081393E-6,
-0.02646689520837352,2.569518019128903E-6,
-0.02646689520837352,2.569518019128903E-6,
-0.014785377113703473,2.3473714660113623E-6,
-0.014785377113703473,2.3473714660113623E-6,
0.01510713236110644,-2.1209137208090707E-6,
0.01510713236110644,-2.1209137208090707E-6,
0.015438773272856037,-2.5914904666101725E-6,
0.015438773272856037,-2.5914904666101725E-6,
-0.013311954179122589,2.66347423881182E-6,
-0.013311954179122589,2.66347423881182E-6,
-0.01858920311020175,2.5654211956590255E-6,
-0.01858920311020175,2.5654211956590255E-6,
-0.014592808834811682,2.3202176145445397E-6,
-0.014592808834811682,2.3202176145445397E-6,
-0.01753393987194035,3.6284863154257413E-6,
-0.01753393987194035,3.6284863154257413E-6,
-0.014578128713873997,2.6129225142272616E-6,
-0.014578128713873997,2.6129225142272616E-6,
-0.01380608222191477,2.9518165017929955E-6,
-0.01380608222191477,2.9518165017929955E-6,
-0.02680856042858989,2.768405556996187E-6,
-0.02680856042858989,2.768405556996187E-6,
0.019622367385599037,-2.3108153718175324E-6,
0.019622367385599037,-2.3108153718175324E-6,
-0.026181301079968876,3.6711430715557006E-6,
-0.026181301079968876,3.6711430715557006E-6,
0.015821680573081653,-2.288993419469112E-6,
0.015821680573081653,-2.288993419469112E-6,
-0.016341428762413554,2.8805773967716976E-6,
-0.016341428762413554,2.8805773967716976E-6,
-0.01894925711349441,2.5068408423733687E-6,
-0.01894925711349441,2.5068408423733687E-6,
0.019476617630889346,-2.2747169642015758E-6,
0.019476617630889346,-2.2747169642015758E-6,
-0.017899552970123977,3.312459072034833E-6,
-0.017899552970123977,3.312459072034833E-6,
-0.014515700739380822,2.4925621226285985E-6,
-0.014515700739380822,2.4925621226285985E-6,
-0.014176960583092155,2.7656136041298053E-6,
-0.014176960583092155,2.7656136041298053E-6,
-0.017763386462958882,2.733746568434666E-6,
-0.017763386462958882,2.733746568434666E-6,
0.019992087029206757,-2.0817037049650905E-6,
0.019992087029206757,-2.0817037049650905E-6,
0.015581095290118115,-1.947974308746936E-6,
0.015581095290118115,-1.947974308746936E-6,
0.01621028260615213,-2.9214661727834483E-6,
0.01621028260615213,-2.9214661727834483E-6,
-0.016700911268421534,3.275541433696988E-6,
-0.016700911268421534,3.275541433696988E-6,
0.014927085468563073,-2.5111175269271722E-6,
0.014927085468563073,-2.5111175269271722E-6,
-0.015043809578233095,2.2309487055869465E-6,
-0.015043809578233095,2.2309487055869465E-6,
-0.018265419704625693,3.2047633592015116E-6,
-0.018265419704625693,3.2047633592015116E-6,
-0.01490256210176439,2.334734915232072E-6,
-0.01490256210176439,2.334734915232072E-6,
0.016887569680891692,-2.9102245272050534E-6,
0.016887569680891692,-2.9102245272050534E-6,
-0.027103082861600195,2.745726868908123E-6,
-0.027103082861600195,2.745726868908123E-6,
0.02034701628276308,-2.171374560239192E-6,
0.02034701628276308,-2.171374560239192E-6,
-0.026571563639670906,3.442053204435417E-6,
-0.026571563639670906,3.442053204435417E-6,
0.016576459692442154,-2.6556650612762946E-6,
0.016576459692442154,-2.6556650612762946E-6,
-0.01358192191374143,2.9294094486577438E-6,
-0.01358192191374143,2.9294094486577438E-6,
-0.019392351588741905,2.66473760148064E-6,
-0.019392351588741905,2.66473760148064E-6,
0.019905411705250266,-2.2178242006154134E-6,
0.019905411705250266,-2.2178242006154134E-6,
0.018621185611604293,-1.914199363911226E-6,
0.018621185611604293,-1.914199363911226E-6,
-0.015271374108401788,2.856177185682658E-6,
-0.015271374108401788,2.856177185682658E-6,
-0.014636813524346514,3.0838065668953828E-6,
-0.014636813524346514,3.0838065668953828E-6,
-0.027437311001365663,2.844583685856269E-6,
-0.027437311001365663,2.844583685856269E-6,
0.02070320068794702,-2.6187250566000672E-6,
0.02070320068794702,-2.6187250566000672E-6,
0.01605516325735283,-2.000385392957396E-6,
0.01605516325735283,-2.000385392957396E-6,
-0.019857358528066246,2.9266873577643397E-6,
-0.019857358528066246,2.9266873577643397E-6,
-0.01394876576458734,2.7702026709200064E-6,
-0.01394876576458734,2.7702026709200064E-6,
-0.019761974651127587,2.686220077613693E-6,
-0.019761974651127587,2.686220077613693E-6,
0.020281615853051462,-2.320176753097501E-6,
0.020281615853051462,-2.320176753097501E-6,
0.018985646421660524,-2.595751295580203E-6,
0.018985646421660524,-2.595751295580203E-6,
-0.014804735095393267,2.7512685626153444E-6,
-0.014804735095393267,2.7512685626153444E-6,
-0.015019671798718331,3.253729163231033E-6,
-0.015019671798718331,3.253729163231033E-6,
-0.027760023155152445,2.7477581968546848E-6,
-0.027760023155152445,2.7477581968546848E-6,
0.021060456878980505,-2.4886823238204174E-6,
0.021060456878980505,-2.4886823238204174E-6,
0.01643426646076016,-2.021990457523777E-6,
0.01643426646076016,-2.021990457523777E-6,
-0.020216729315050763,2.4193513174482553E-6,
-0.020216729315050763,2.4193513174482553E-6,
-0.014325791179813842,3.178011204548522E-6,
-0.014325791179813842,3.178011204548522E-6,
0.015449528813758986,-2.6398986567046333E-6,
0.015449528813758986,-2.6398986567046333E-6,
0.020651023176879606,-2.4660528571149656E-6,
0.020651023176879606,-2.4660528571149656E-6,
0.019339516615406283,-2.163532145332478E-6,
0.019339516615406283,-2.163532145332478E-6,
-0.015571461503541082,2.8441322452595584E-6,
-0.015571461503541082,2.8441322452595584E-6,
0.017408006252798893,-2.894874858272445E-6,
0.017408006252798893,-2.894874858272445E-6,
-0.028094602975894795,2.806183512760272E-6,
-0.028094602975894795,2.806183512760272E-6,
-0.015477297582207882,2.030086383774353E-6,
-0.015477297582207882,2.030086383774353E-6,
0.016798940394258575,-2.4007765875755545E-6,
0.016798940394258575,-2.4007765875755545E-6,
0.01708061460593177,-2.7412351064305326E-6,
0.01708061460593177,-2.7412351064305326E-6,
-0.014702180718377308,3.172096879345762E-6,
-0.014702180718377308,3.172096879345762E-6,
-0.020194026635572307,2.146885859615009E-6,
-0.020194026635572307,2.146885859615009E-6,
0.02100641849328314,-2.398246094313574E-6,
0.02100641849328314,-2.398246094313574E-6,
0.019702315305682134,-2.856312919157465E-6,
0.019702315305682134,-2.856312919157465E-6,
-0.01512053431007861,2.855809880209729E-6,
-0.01512053431007861,2.855809880209729E-6,
0.017762312013680507,-2.6000923586295965E-6,
0.017762312013680507,-2.6000923586295965E-6,
-0.028435462079617738,2.532196808346064E-6,
-0.028435462079617738,2.532196808346064E-6,
0.02145812214922649,-2.6556591618503815E-6,
0.02145812214922649,-2.6556591618503815E-6,
-0.027101920785684172,3.485918720035064E-6,
-0.027101920785684172,3.485918720035064E-6,
0.017447473679090778,-2.539398478400637E-6,
0.017447473679090778,-2.539398478400637E-6,
-0.01507838900540415,2.490153302050265E-6,
-0.01507838900540415,2.490153302050265E-6,
-0.020564900277684345,2.8194000379704563E-6,
-0.020564900277684345,2.8194000379704563E-6,
0.021383918137254775,-2.9338083505536967E-6,
0.021383918137254775,-2.9338083505536967E-6,
0.020055370985034293,-2.0776220755244074E-6,
0.020055370985034293,-2.0776220755244074E-6,
-0.015477476347378666,2.430937375564636E-6,
-0.015477476347378666,2.430937375564636E-6,
0.0181455451161053,-2.9808330101062895E-6,
0.0181455451161053,-2.9808330101062895E-6,
-0.017893846044308492,3.2892890193601636E-6,
-0.017893846044308492,3.2892890193601636E-6,
-0.015936426152467556,2.074611947623997E-6,
-0.015936426152467556,2.074611947623997E-6,
0.01724451461400742,-2.3492598068956295E-6,
0.01724451461400742,-2.3492598068956295E-6,
0.01782944438405053,-2.9619571673632737E-6,
0.01782944438405053,-2.9619571673632737E-6,
-0.015463433255798468,2.869597730900328E-6,
-0.015463433255798468,2.869597730900328E-6,
-0.020917049386065974,2.9890490385034094E-6,
-0.020917049386065974,2.9890490385034094E-6,
-0.015754386177277632,2.4603838639724283E-6,
-0.015754386177277632,2.4603838639724283E-6,
-0.018946602858418024,3.2962257271113363E-6,
-0.018946602858418024,3.2962257271113363E-6,
-0.015854472663026316,2.8351887629510936E-6,
-0.015854472663026316,2.8351887629510936E-6,
-0.01560728256499617,3.044531199797914E-6,
-0.01560728256499617,3.044531199797914E-6,
-0.028717593403640537,2.9736429807639825E-6,
-0.028717593403640537,2.9736429807639825E-6,
0.021862300785138476,-2.4857630911453814E-6,
0.021862300785138476,-2.4857630911453814E-6,
-0.027505378271584918,3.283046115679176E-6,
-0.027505378271584918,3.283046115679176E-6,
-0.020797357272498256,3.081240737580742E-6,
-0.020797357272498256,3.081240737580742E-6,
-0.016741057157184516,2.6270978925649856E-6,
-0.016741057157184516,2.6270978925649856E-6,
0.01602851169849508,-2.7341904759712633E-6,
0.01602851169849508,-2.7341904759712633E-6,
-0.016131815438216696,2.7122352581902993E-6,
-0.016131815438216696,2.7122352581902993E-6,
0.020508578179143182,-2.438540294337054E-6,
0.020508578179143182,-2.438540294337054E-6,
-0.015782190748482163,2.834781600970747E-6,
-0.015782190748482163,2.834781600970747E-6,
-0.015978963292222533,2.3058947860709472E-6,
-0.015978963292222533,2.3058947860709472E-6,
-0.01817633517095294,3.146919275869714E-6,
-0.01817633517095294,3.146919275869714E-6,
0.022211050738684134,-2.2326665386086103E-6,
0.022211050738684134,-2.2326665386086103E-6,
0.01768655305718843,-2.048944820032695E-6,
0.01768655305718843,-2.048944820032695E-6,
-0.02114672112492819,2.7332316187385006E-6,
-0.02114672112492819,2.7332316187385006E-6,
-0.01578453372472235,2.9651750513646352E-6,
-0.01578453372472235,2.9651750513646352E-6,
0.016401512272563396,-2.966478117372162E-6,
0.016401512272563396,-2.966478117372162E-6,
-0.01650506429160009,2.8736935291377892E-6,
-0.01650506429160009,2.8736935291377892E-6,
0.020863910375179165,-1.7684440989053016E-6,
0.020863910375179165,-1.7684440989053016E-6,
-0.016137893645042457,2.9122156621212876E-6,
-0.016137893645042457,2.9122156621212876E-6,
-0.01637219115382291,3.3420151011472575E-6,
-0.01637219115382291,3.3420151011472575E-6,
-0.0289962358581192,2.6044683012582497E-6,
-0.0289962358581192,2.6044683012582497E-6,
0.02256057235254503,-2.881701445829523E-6,
0.02256057235254503,-2.881701445829523E-6,
0.01805789309870716,-2.3974577287406637E-6,
0.01805789309870716,-2.3974577287406637E-6,
-0.02150482743741351,3.2422331175370814E-6,
-0.02150482743741351,3.2422331175370814E-6,
-0.01616261855912574,2.2981990919837547E-6,
-0.01616261855912574,2.2981990919837547E-6,
-0.021418420633814307,2.847878819868272E-6,
-0.021418420633814307,2.847878819868272E-6,
-0.01686123841523867,2.6926485855328225E-6,
-0.01686123841523867,2.6926485855328225E-6,
-0.019427433722328028,3.2579457703075555E-6,
-0.019427433722328028,3.2579457703075555E-6,
-0.016501319100615565,2.9568425661445977E-6,
-0.016501319100615565,2.9568425661445977E-6,
0.018727691277151882,-2.6028733940228893E-6,
0.018727691277151882,-2.6028733940228893E-6,
-0.029335519733997045,3.2314509530060806E-6,
-0.029335519733997045,3.2314509530060806E-6,
-0.01652074593220838,2.67614262110423E-6,
-0.01652074593220838,2.67614262110423E-6,
0.018413423765536476,-2.1204002306849518E-6,
0.018413423765536476,-2.1204002306849518E-6,
-0.0218517241042506,2.848000662997608E-6,
-0.0218517241042506,2.848000662997608E-6,
-0.016538454191134762,2.8408755041219383E-6,
-0.016538454191134762,2.8408755041219383E-6,
0.0168341945437738,-2.5830187432439485E-6,
0.0168341945437738,-2.5830187432439485E-6,
-0.01722166172670357,2.7553206674345646E-6,
-0.01722166172670357,2.7553206674345646E-6,
0.021318006936715095,-2.071928636705484E-6,
0.021318006936715095,-2.071928636705484E-6,
-0.016850254387164487,2.901532216191289E-6,
-0.016850254387164487,2.901532216191289E-6,
-0.016799789482041107,3.366131293993345E-6,
-0.016799789482041107,3.366131293993345E-6,
-0.029653085649713713,2.9435478921327474E-6,
-0.029653085649713713,2.9435478921327474E-6,
0.022975605313366808,-2.57784848509612E-6,
0.022975605313366808,-2.57784848509612E-6,
-0.028035253065800184,3.582808184151784E-6,
-0.028035253065800184,3.582808184151784E-6,
0.018496906150691335,-2.8255695157862297E-6,
0.018496906150691335,-2.8255695157862297E-6,
-0.0169158120731061,2.3715669257187537E-6,
-0.0169158120731061,2.3715669257187537E-6,
-0.021854405231085398,2.747813451868357E-6,
-0.021854405231085398,2.747813451868357E-6,
-0.017585515108270194,2.7003338811076687E-6,
-0.017585515108270194,2.7003338811076687E-6,
-0.019872110561291834,3.723068740150038E-6,
-0.019872110561291834,3.723068740150038E-6,
-0.016002267248690038,2.875210379360907E-6,
-0.016002267248690038,2.875210379360907E-6,
-0.017156609884675843,3.2085033427908284E-6,
-0.017156609884675843,3.2085033427908284E-6,
-0.018358632300936432,2.6056576578324143E-6,
-0.018358632300936432,2.6056576578324143E-6,
-0.016957196812915003,2.3339926948379858E-6,
-0.016957196812915003,2.3339926948379858E-6,
-0.028366508228725877,3.5811610292935288E-6,
-0.028366508228725877,3.5811610292935288E-6,
-0.022273226432168936,3.2313142542795235E-6,
-0.022273226432168936,3.2313142542795235E-6,
-0.017304779399442874,3.1667547248878138E-6,
-0.017304779399442874,3.1667547248878138E-6,
-0.02220523852343187,3.141265395554399E-6,
-0.02220523852343187,3.141265395554399E-6,
0.022172571936401694,-2.4120378777510963E-6,
0.022172571936401694,-2.4120378777510963E-6,
0.021776935986964188,-2.0927895187112383E-6,
0.021776935986964188,-2.0927895187112383E-6,
-0.01714614877330882,2.6882098085180377E-6,
-0.01714614877330882,2.6882098085180377E-6,
0.019276625590016878,-2.8777791495192967E-6,
0.019276625590016878,-2.8777791495192967E-6,
-0.01872062784308243,2.9473255621918944E-6,
-0.01872062784308243,2.9473255621918944E-6,
0.02339479569243464,-2.177748270331889E-6,
0.02339479569243464,-2.177748270331889E-6,
-0.028677937459883562,3.462646306483675E-6,
-0.028677937459883562,3.462646306483675E-6,
0.018954667339301335,-3.0197695854027214E-6,
0.018954667339301335,-3.0197695854027214E-6,
-0.016863065754698533,3.1782012099401506E-6,
-0.016863065754698533,3.1782012099401506E-6,
-0.02254691029514597,2.5251354124405587E-6,
-0.02254691029514597,2.5251354124405587E-6,
-0.018016422356490223,2.6061898505962307E-6,
-0.018016422356490223,2.6061898505962307E-6,
0.022129678550662505,-2.286652835322908E-6,
0.022129678550662505,-2.286652835322908E-6,
-0.016320514209482422,2.6513279594215546E-6,
-0.016320514209482422,2.6513279594215546E-6,
-0.017589658064383114,3.420554381355998E-6,
-0.017589658064383114,3.420554381355998E-6,
-0.019063326707487213,3.079532363456719E-6,
-0.019063326707487213,3.079532363456719E-6,
-0.017400153989977594,3.2448842881556243E-6,
-0.017400153989977594,3.2448842881556243E-6,
0.01904546602497037,-2.108635820930859E-6,
0.01904546602497037,-2.108635820930859E-6,
-0.022703068139398108,2.710383345675034E-6,
-0.022703068139398108,2.710383345675034E-6,
-0.017603042870735042,2.7390263128914023E-6,
-0.017603042870735042,2.7390263128914023E-6,
0.01742491774475587,-2.8050515998414086E-6,
0.01742491774475587,-2.8050515998414086E-6,
0.02260007779084514,-2.7293206867821766E-6,
0.02260007779084514,-2.7293206867821766E-6,
0.022483481245479445,-2.554477484909782E-6,
0.022483481245479445,-2.554477484909782E-6,
-0.01669003454414324,2.7843767496787963E-6,
-0.01669003454414324,2.7843767496787963E-6,
-0.017938854546553938,3.051884162264245E-6,
-0.017938854546553938,3.051884162264245E-6,
-0.019397260323613545,2.7820263476621178E-6,
-0.019397260323613545,2.7820263476621178E-6,
-0.01772926288207921,2.5870924496539105E-6,
-0.01772926288207921,2.5870924496539105E-6,
0.019404089546351592,-2.2406313399756655E-6,
0.019404089546351592,-2.2406313399756655E-6,
-0.02305641597142898,2.7362281045197924E-6,
-0.02305641597142898,2.7362281045197924E-6,
-0.017975648615939706,3.2485259648675456E-6,
-0.017975648615939706,3.2485259648675456E-6,
-0.02295273677968674,3.0195791534295795E-6,
-0.02295273677968674,3.0195791534295795E-6,
-0.018445271597508032,2.9568079478255356E-6,
-0.018445271597508032,2.9568079478255356E-6,
-0.020424483491185558,3.5473335914556862E-6,
-0.020424483491185558,3.5473335914556862E-6,
-0.01738917461939165,2.4917029255847913E-6,
-0.01738917461939165,2.4917029255847913E-6,
0.019793348169883245,-3.6411752146071202E-6,
0.019793348169883245,-3.6411752146071202E-6,
-0.01974450503201503,2.923203005386968E-6,
-0.01974450503201503,2.923203005386968E-6,
-0.01808302144271382,2.9767753999964015E-6,
-0.01808302144271382,2.9767753999964015E-6,
-0.02914356062602999,3.987378239590691E-6,
-0.02914356062602999,3.987378239590691E-6,
-0.023410432600572247,3.057036976564058E-6,
-0.023410432600572247,3.057036976564058E-6,
-0.017111639004788223,3.0850018534374357E-6,
-0.017111639004788223,3.0850018534374357E-6,
-0.023283647482882502,3.1927776391127774E-6,
-0.023283647482882502,3.1927776391127774E-6,
-0.018804804110835606,3.1187620572986456E-6,
-0.018804804110835606,3.1187620572986456E-6,
-0.02077469409410328,3.468344037184986E-6,
-0.02077469409410328,3.468344037184986E-6,
-0.01774207123561215,2.7075660470428017E-6,
-0.01774207123561215,2.7075660470428017E-6,
-0.018386989061366675,3.371924302061815E-6,
-0.018386989061366675,3.371924302061815E-6,
-0.020090105774590077,2.630497824637843E-6,
-0.020090105774590077,2.630497824637843E-6,
-0.01844824884166309,3.3243055110364697E-6,
-0.01844824884166309,3.3243055110364697E-6,
-0.029457198874370847,4.143028198601729E-6,
-0.029457198874370847,4.143028198601729E-6,
-0.02375660832913181,3.0588656926640485E-6,
-0.02375660832913181,3.0588656926640485E-6,
-0.018271949092288253,2.291664531378461E-6,
-0.018271949092288253,2.291664531378461E-6,
0.01794556343443987,-3.2281106719820804E-6,
0.01794556343443987,-3.2281106719820804E-6,
-0.01916239487451452,2.44279537288351E-6,
-0.01916239487451452,2.44279537288351E-6,
0.023014134266390183,-2.7494171316445708E-6,
0.023014134266390183,-2.7494171316445708E-6,
-0.01808265386037005,2.395327748730587E-6,
-0.01808265386037005,2.395327748730587E-6,
0.02022793158740118,-3.436693524728855E-6,
0.02022793158740118,-3.436693524728855E-6,
-0.02972105449235396,2.6554701296850267E-6,
-0.02972105449235396,2.6554701296850267E-6,
0.02408257414514422,-2.6535711469136483E-6,
0.02408257414514422,-2.6535711469136483E-6,
0.019962417591479122,-2.765557037075813E-6,
0.019962417591479122,-2.765557037075813E-6,
-0.024090505459471178,3.1303228949673342E-6,
-0.024090505459471178,3.1303228949673342E-6,
-0.01743168073432735,2.518438617631763E-6,
-0.01743168073432735,2.518438617631763E-6,
0.01830529418421972,-2.3979181801529054E-6,
0.01830529418421972,-2.3979181801529054E-6,
-0.01952524721821534,3.2299481453508527E-6,
-0.01952524721821534,3.2299481453508527E-6,
0.02335335420432319,-2.6426456250115346E-6,
0.02335335420432319,-2.6426456250115346E-6,
-0.016910172571920117,2.776234986989843E-6,
-0.016910172571920117,2.776234986989843E-6,
0.020579010864477686,-3.393541368816068E-6,
0.020579010864477686,-3.393541368816068E-6,
-0.02040657827193994,2.9549477603102274E-6,
-0.02040657827193994,2.9549477603102274E-6,
-0.018870134591554164,2.977117642478152E-6,
-0.018870134591554164,2.977117642478152E-6,
0.020324301125818973,-2.9502525320931547E-6,
0.020324301125818973,-2.9502525320931547E-6,
0.0196988177169348,-2.3736414902766553E-6,
0.0196988177169348,-2.3736414902766553E-6,
-0.01779868682161432,3.0929961648547104E-6,
-0.01779868682161432,3.0929961648547104E-6,
-0.02378441013826397,3.649188094394327E-6,
-0.02378441013826397,3.649188094394327E-6,
-0.019864899068535623,2.273598646965018E-6,
-0.019864899068535623,2.273598646965018E-6,
0.02369400431400778,-2.7113920271124546E-6,
0.02369400431400778,-2.7113920271124546E-6,
-0.017275977707406933,2.9212618177193277E-6,
-0.017275977707406933,2.9212618177193277E-6,
-0.01891055854067318,3.811884255925692E-6,
-0.01891055854067318,3.811884255925692E-6,
-0.02074693612153283,2.8751010325328737E-6,
-0.02074693612153283,2.8751010325328737E-6,
0.024506998982883957,-2.6945479421635644E-6,
0.024506998982883957,-2.6945479421635644E-6,
-0.02993039677004696,3.8097511210390816E-6,
-0.02993039677004696,3.8097511210390816E-6,
0.020070135703111787,-2.8098512317299533E-6,
0.020070135703111787,-2.8098512317299533E-6,
-0.018141518369921283,3.126416414843576E-6,
-0.018141518369921283,3.126416414843576E-6,
-0.024114122810557387,3.012448583182472E-6,
-0.024114122810557387,3.012448583182472E-6,
0.02334614014719998,-2.6717948657020013E-6,
0.02334614014719998,-2.6717948657020013E-6,
0.024032740205499642,-2.9413245806234577E-6,
0.024032740205499642,-2.9413245806234577E-6,
-0.01832799772692213,3.164178671253952E-6,
-0.01832799772692213,3.164178671253952E-6,
-0.01925749492933734,3.4431655421339295E-6,
-0.01925749492933734,3.4431655421339295E-6,
-0.02107031631697717,3.138381909924444E-6,
-0.02107031631697717,3.138381909924444E-6,
0.024833277790981594,-2.507626602713843E-6,
0.024833277790981594,-2.507626602713843E-6,
0.020762702048602515,-2.3992235943198596E-6,
0.020762702048602515,-2.3992235943198596E-6,
0.020433196637452973,-3.343337925964824E-6,
0.020433196637452973,-3.343337925964824E-6,
-0.018492250202287185,3.5466847872261606E-6,
-0.018492250202287185,3.5466847872261606E-6,
0.018842929559919525,-2.959561687438609E-6,
0.018842929559919525,-2.959561687438609E-6,
-0.020310391747860004,3.1388510721656188E-6,
-0.020310391747860004,3.1388510721656188E-6,
0.024366031556471362,-2.5730409131466403E-6,
0.024366031556471362,-2.5730409131466403E-6,
-0.018676947475772317,2.900427829237006E-6,
-0.018676947475772317,2.900427829237006E-6,
-0.019600483559399896,2.684626335589923E-6,
-0.019600483559399896,2.684626335589923E-6,
-0.02140870901729059,2.8229084142500534E-6,
-0.02140870901729059,2.8229084142500534E-6,
0.025171345327135525,-2.4748552267324538E-6,
0.025171345327135525,-2.4748552267324538E-6,
-0.030309583689882416,3.921538193522346E-6,
-0.030309583689882416,3.921538193522346E-6,
0.02077656634710279,-3.162757275052691E-6,
0.02077656634710279,-3.162757275052691E-6,
-0.018411623178893347,3.237907901713563E-6,
-0.018411623178893347,3.237907901713563E-6,
-0.02452636689551764,3.132782661274206E-6,
-0.02452636689551764,3.132782661274206E-6,
-0.02064956515097001,2.8723086472723543E-6,
-0.02064956515097001,2.8723086472723543E-6,
-0.021506920507483394,3.6741519007922434E-6,
-0.021506920507483394,3.6741519007922434E-6,
-0.017506943108394884,2.527255514095123E-6,
-0.017506943108394884,2.527255514095123E-6,
0.021192330788670194,-3.1920294200908812E-6,
0.021192330788670194,-3.1920294200908812E-6,
-0.021748107322705126,2.9198946691986333E-6,
-0.021748107322705126,2.9198946691986333E-6,
0.02551710205353126,-3.053192537777645E-6,
0.02551710205353126,-3.053192537777645E-6,
0.021219119212389923,-2.6569997685962216E-6,
0.021219119212389923,-2.6569997685962216E-6,
0.02112339674145003,-3.001946707891206E-6,
0.02112339674145003,-3.001946707891206E-6,
-0.018781613503945097,3.0041138089275873E-6,
-0.018781613503945097,3.0041138089275873E-6,
0.019285747741416545,-2.5253294401229344E-6,
0.019285747741416545,-2.5253294401229344E-6,
-0.02100473145421013,3.332532108995742E-6,
-0.02100473145421013,3.332532108995742E-6,
0.024812222877628434,-2.643142915810786E-6,
0.024812222877628434,-2.643142915810786E-6,
-0.017865201850718805,2.6401208768748498E-6,
-0.017865201850718805,2.6401208768748498E-6,
-0.020056315649594463,3.407496330576007E-6,
-0.020056315649594463,3.407496330576007E-6,
-0.022086928304809565,3.005034842676422E-6,
-0.022086928304809565,3.005034842676422E-6,
0.02583978158224116,-2.3800029452193325E-6,
0.02583978158224116,-2.3800029452193325E-6,
-0.030687761985813966,3.947280372749128E-6,
-0.030687761985813966,3.947280372749128E-6,
0.021477759120033597,-3.868418640707791E-6,
0.021477759120033597,-3.868418640707791E-6,
-0.019135359564669534,3.068161236120543E-6,
-0.019135359564669534,3.068161236120543E-6,
0.019656937381104963,-2.8927375044381608E-6,
0.019656937381104963,-2.8927375044381608E-6,
-0.02134453895062584,3.138868545732483E-6,
-0.02134453895062584,3.138868545732483E-6,
0.025145707622233494,-2.987866421797023E-6,
0.025145707622233494,-2.987866421797023E-6,
-0.018919242863069393,3.3100465008451332E-6,
-0.018919242863069393,3.3100465008451332E-6,
-0.02040295964844241,3.089756715100693E-6,
-0.02040295964844241,3.089756715100693E-6,
-0.022423736109593854,2.849126368428389E-6,
-0.022423736109593854,2.849126368428389E-6,
0.026175497557236395,-2.8903868888384247E-6,
0.026175497557236395,-2.8903868888384247E-6,
0.02167161572950194,-3.0192619438406884E-6,
0.02167161572950194,-3.0192619438406884E-6,
-0.02494383753478255,3.1531934240641886E-6,
-0.02494383753478255,3.1531934240641886E-6,
-0.01949782190602913,2.9256402631710164E-6,
-0.01949782190602913,2.9256402631710164E-6,
0.02002959660842711,-3.1999527096895214E-6,
0.02002959660842711,-3.1999527096895214E-6,
-0.02168032652488556,2.4354465754982194E-6,
-0.02168032652488556,2.4354465754982194E-6,
-0.02201140275307835,3.894289032916037E-6,
-0.02201140275307835,3.894289032916037E-6,
-0.018168881308080625,2.408828466630552E-6,
-0.018168881308080625,2.408828466630552E-6,
0.02172176176176,-3.507469612229995E-6,
0.02172176176176,-3.507469612229995E-6,
-0.02275293042483205,2.886688536760714E-6,
-0.02275293042483205,2.886688536760714E-6,
0.026492751878838185,-2.3533396477093405E-6,
0.026492751878838185,-2.3533396477093405E-6,
-0.031070324803925915,4.013502325885942E-6,
-0.031070324803925915,4.013502325885942E-6,
0.021900170304357876,-3.5933688884003806E-6,
0.021900170304357876,-3.5933688884003806E-6,
-0.01985541816149448,2.6126505673291014E-6,
-0.01985541816149448,2.6126505673291014E-6,
0.020373833671090483,-3.033918545856072E-6,
0.020373833671090483,-3.033918545856072E-6,
0.02410116239302479,-3.3579047137000627E-6,
0.02410116239302479,-3.3579047137000627E-6,
-0.02234766267825991,3.974033722218499E-6,
-0.02234766267825991,3.974033722218499E-6,
-0.018531393871863908,3.082456478136278E-6,
-0.018531393871863908,3.082456478136278E-6,
0.02205716682127517,-3.3096928086528456E-6,
0.02205716682127517,-3.3096928086528456E-6,
-0.029686610882718126,2.7922902152283102E-6,
-0.029686610882718126,2.7922902152283102E-6,
0.02683196957223809,-3.0626748676967387E-6,
0.02683196957223809,-3.0626748676967387E-6,
-0.031379259242920884,3.998309201285518E-6,
-0.031379259242920884,3.998309201285518E-6,
-0.025368747909443188,3.4352074043861834E-6,
-0.025368747909443188,3.4352074043861834E-6,
-0.020211677455014045,2.538435970128334E-6,
-0.020211677455014045,2.538435970128334E-6,
-0.025196765481778655,3.0119817263306835E-6,
-0.025196765481778655,3.0119817263306835E-6,
-0.022133517449465658,2.9237427893106897E-6,
-0.022133517449465658,2.9237427893106897E-6,
0.02567797838465332,-3.088853409025788E-6,
0.02567797838465332,-3.088853409025788E-6,
-0.019154869807990034,3.2969008304803774E-6,
-0.019154869807990034,3.2969008304803774E-6,
-0.020938902584796557,3.3341746343718698E-6,
-0.020938902584796557,3.3341746343718698E-6,
-0.02303734077148695,3.188205447593722E-6,
-0.02303734077148695,3.188205447593722E-6,
0.02715906802302102,-3.259902107623225E-6,
0.02715906802302102,-3.259902107623225E-6,
0.0222115949630301,-2.552883859799869E-6,
0.0222115949630301,-2.552883859799869E-6,
0.022340796530848646,-2.8758790476595894E-6,
0.022340796530848646,-2.8758790476595894E-6,
-0.018489454885005283,2.3651792404608477E-6,
-0.018489454885005283,2.3651792404608477E-6,
-0.025537270947665454,3.292337641235942E-6,
-0.025537270947665454,3.292337641235942E-6,
-0.022476599200684712,3.12648303431003E-6,
-0.022476599200684712,3.12648303431003E-6,
-0.022777538098965912,3.5834861731691425E-6,
-0.022777538098965912,3.5834861731691425E-6,
-0.01881768391373175,2.8218663030636464E-6,
-0.01881768391373175,2.8218663030636464E-6,
-0.021279930722360712,3.4330756598340353E-6,
-0.021279930722360712,3.4330756598340353E-6,
-0.029949405660182008,2.8052061276880903E-6,
-0.029949405660182008,2.8052061276880903E-6,
-0.019883880445290925,3.4517681029981075E-6,
-0.019883880445290925,3.4517681029981075E-6,
-0.03176652879330923,4.073845795710216E-6,
-0.03176652879330923,4.073845795710216E-6,
0.022693431646622488,-3.6379921937454776E-6,
0.022693431646622488,-3.6379921937454776E-6,
-0.018854462212780317,3.2354857720019205E-6,
-0.018854462212780317,3.2354857720019205E-6,
0.02089268060932147,-3.5071772518345534E-6,
0.02089268060932147,-3.5071772518345534E-6,
0.024601415134557793,-3.504657161365783E-6,
0.024601415134557793,-3.504657161365783E-6,
0.02609812251159796,-2.4578155418562495E-6,
0.02609812251159796,-2.4578155418562495E-6,
-0.019167253202248023,2.540222461398789E-6,
-0.019167253202248023,2.540222461398789E-6,
-0.021612997503856833,3.900296204429731E-6,
-0.021612997503856833,3.900296204429731E-6,
-0.023307642262152657,2.989233383823668E-6,
-0.023307642262152657,2.989233383823668E-6,
0.027570775515750823,-3.5824258240169105E-6,
0.027570775515750823,-3.5824258240169105E-6,
0.02264848716359948,-3.204460007788946E-6,
0.02264848716359948,-3.204460007788946E-6,
-0.025881530585184106,3.4294110918030654E-6,
-0.025881530585184106,3.4294110918030654E-6,
-0.01919759953976053,3.091205414044486E-6,
-0.01919759953976053,3.091205414044486E-6,
-0.02596461762223416,3.1426662431290574E-6,
-0.02596461762223416,3.1426662431290574E-6,
-0.022909108804171276,3.1623592573692093E-6,
-0.022909108804171276,3.1623592573692093E-6,
-0.02318697269626357,4.434569243295071E-6,
-0.02318697269626357,4.434569243295071E-6,
-0.019532530565926926,2.7732487992435453E-6,
-0.019532530565926926,2.7732487992435453E-6,
-0.021934679807058984,3.1843351899372638E-6,
-0.021934679807058984,3.1843351899372638E-6,
-0.030219766962627945,3.00570804119462E-6,
-0.030219766962627945,3.00570804119462E-6,
0.027880258108431786,-3.2662620439586135E-6,
0.027880258108431786,-3.2662620439586135E-6,
-0.032150572079685025,3.3196090612080432E-6,
-0.032150572079685025,3.3196090612080432E-6,
-0.026200035060290377,3.485418340478698E-6,
-0.026200035060290377,3.485418340478698E-6,
-0.020426873295179213,3.6436988748158802E-6,
-0.020426873295179213,3.6436988748158802E-6,
0.021307687139087858,-3.108491898486717E-6,
0.021307687139087858,-3.108491898486717E-6,
0.025028622760366007,-2.9981607417429827E-6,
0.025028622760366007,-2.9981607417429827E-6,
-0.02351425586454872,4.301324264404348E-6,
-0.02351425586454872,4.301324264404348E-6,
-0.01933979505986605,2.6471833417243337E-6,
-0.01933979505986605,2.6471833417243337E-6,
0.022772220302537814,-4.042706934053505E-6,
0.022772220302537814,-4.042706934053505E-6,
-0.023563948352924614,3.0661604916589445E-6,
-0.023563948352924614,3.0661604916589445E-6,
0.028177714548499332,-2.369406542314899E-6,
0.028177714548499332,-2.369406542314899E-6,
-0.032461384696304836,4.028781858891103E-6,
-0.032461384696304836,4.028781858891103E-6,
-0.02652930019159064,3.800017977095057E-6,
-0.02652930019159064,3.800017977095057E-6,
-0.02076175226870019,2.8693980841619504E-6,
-0.02076175226870019,2.8693980841619504E-6,
-0.026382938275963753,3.7203971078327534E-6,
-0.026382938275963753,3.7203971078327534E-6,
-0.02332855024489339,2.9548938765716105E-6,
-0.02332855024489339,2.9548938765716105E-6,
-0.023855990523264307,3.6996731077520648E-6,
-0.023855990523264307,3.6996731077520648E-6,
-0.01967710007045968,3.170941049066185E-6,
-0.01967710007045968,3.170941049066185E-6,
0.02310301668585809,-3.6281412014887472E-6,
0.02310301668585809,-3.6281412014887472E-6,
-0.030480808590107294,3.2905475129498853E-6,
-0.030480808590107294,3.2905475129498853E-6,
-0.020460355055315342,3.6861670222191126E-6,
-0.020460355055315342,3.6861670222191126E-6,
0.023179558479726185,-3.3279559102368343E-6,
0.023179558479726185,-3.3279559102368343E-6,
0.023315149223116043,-3.552059792359414E-6,
0.023315149223116043,-3.552059792359414E-6,
-0.01941007128003891,3.0144995083959854E-6,
-0.01941007128003891,3.0144995083959854E-6,
0.021751672287567542,-3.6336686200493656E-6,
0.021751672287567542,-3.6336686200493656E-6,
-0.023670721440297235,2.7442300638415122E-6,
-0.023670721440297235,2.7442300638415122E-6,
-0.02419321880528083,3.964764637265795E-6,
-0.02419321880528083,3.964764637265795E-6,
-0.019783867008106058,2.9161252960694696E-6,
-0.019783867008106058,2.9161252960694696E-6,
0.02343644285574876,-3.5096287493534273E-6,
0.02343644285574876,-3.5096287493534273E-6,
-0.02383743978010703,2.3876129401690684E-6,
-0.02383743978010703,2.3876129401690684E-6,
-0.020789533569602153,3.396444144439237E-6,
-0.020789533569602153,3.396444144439237E-6,
-0.032862982193999565,3.6537763210267235E-6,
-0.032862982193999565,3.6537763210267235E-6,
0.023651387572486565,-3.428802599605464E-6,
0.023651387572486565,-3.428802599605464E-6,
-0.021069127156202065,2.7172699874323213E-6,
-0.021069127156202065,2.7172699874323213E-6,
-0.026793196662716214,3.710170354964161E-6,
-0.026793196662716214,3.710170354964161E-6,
-0.02400388265523831,3.02387043302774E-6,
-0.02400388265523831,3.02387043302774E-6,
-0.024531732889229836,4.413633287336186E-6,
-0.024531732889229836,4.413633287336186E-6,
-0.02012859857956088,3.059164039613191E-6,
-0.02012859857956088,3.059164039613191E-6,
0.02378506787588531,-3.988041624400449E-6,
0.02378506787588531,-3.988041624400449E-6,
-0.02417666081954509,2.628412034861704E-6,
-0.02417666081954509,2.628412034861704E-6,
-0.021132480643241327,3.139636549155493E-6,
-0.021132480643241327,3.139636549155493E-6,
-0.033180502661707786,4.507072810755637E-6,
-0.033180502661707786,4.507072810755637E-6,
-0.02703665200190306,3.5737185679202144E-6,
-0.02703665200190306,3.5737185679202144E-6,
-0.019713371919656105,3.4970872324026E-6,
-0.019713371919656105,3.4970872324026E-6,
-0.027107224675125198,3.1654456216279915E-6,
-0.027107224675125198,3.1654456216279915E-6,
0.025610191333205922,-3.360491096331998E-6,
0.025610191333205922,-3.360491096331998E-6,
-0.02485657686739898,3.938985261327157E-6,
-0.02485657686739898,3.938985261327157E-6,
-0.01989256543777696,2.4873497078583932E-6,
-0.01989256543777696,2.4873497078583932E-6,
0.02410381613137659,-4.184173012948978E-6,
0.02410381613137659,-4.184173012948978E-6,
-0.024497983464078835,3.1547637387506315E-6,
-0.024497983464078835,3.1547637387506315E-6,
-0.021490761986355713,3.3322790344322666E-6,
-0.021490761986355713,3.3322790344322666E-6,
0.023718878969706668,-2.932527349893549E-6,
0.023718878969706668,-2.932527349893549E-6,
0.024086886267363807,-3.2832969453200876E-6,
0.024086886267363807,-3.2832969453200876E-6,
-0.020039429887115736,3.445571551495292E-6,
-0.020039429887115736,3.445571551495292E-6,
-0.027435380988793546,4.038156610614279E-6,
-0.027435380988793546,4.038156610614279E-6,
0.025940169886460467,-3.5315702731544135E-6,
0.025940169886460467,-3.5315702731544135E-6,
-0.02518313249655594,4.0827843865837675E-6,
-0.02518313249655594,4.0827843865837675E-6,
-0.02042431827515442,2.957225220739674E-6,
-0.02042431827515442,2.957225220739674E-6,
-0.022779899988896592,3.57223358029516E-6,
-0.022779899988896592,3.57223358029516E-6,
-0.030660943174662784,3.287452116643424E-6,
-0.030660943174662784,3.287452116643424E-6,
-0.021814359845471844,2.9858368801238475E-6,
-0.021814359845471844,2.9858368801238475E-6,
0.024057943049192086,-2.7087163536310653E-6,
0.024057943049192086,-2.7087163536310653E-6,
0.024429957690072963,-3.1980174207148736E-6,
0.024429957690072963,-3.1980174207148736E-6,
-0.020359797182711435,2.7172678706013052E-6,
-0.020359797182711435,2.7172678706013052E-6,
-0.027724513857332916,3.386902033965071E-6,
-0.027724513857332916,3.386902033965071E-6,
-0.02452263338589968,3.0861747631508E-6,
-0.02452263338589968,3.0861747631508E-6,
0.027180584377776717,-3.038296342510339E-6,
0.027180584377776717,-3.038296342510339E-6,
-0.02018521168968993,2.9038644873730264E-6,
-0.02018521168968993,2.9038644873730264E-6,
0.024510646964619368,-3.2247411185211752E-6,
0.024510646964619368,-3.2247411185211752E-6,
-0.024753849547561272,2.7678070071732E-6,
-0.024753849547561272,2.7678070071732E-6,
0.028984131620039554,-3.030412378159618E-6,
0.028984131620039554,-3.030412378159618E-6,
0.02439991370543774,-3.0079629937092636E-6,
0.02439991370543774,-3.0079629937092636E-6,
0.024773460884769085,-3.247716422534637E-6,
0.024773460884769085,-3.247716422534637E-6,
-0.02069680308303794,2.966896489852485E-6,
-0.02069680308303794,2.966896489852485E-6,
0.022460307427734357,-3.3306445418154924E-6,
0.022460307427734357,-3.3306445418154924E-6,
-0.024852571103990754,2.948685904530235E-6,
-0.024852571103990754,2.948685904530235E-6,
-0.025598322912965037,3.69233465380989E-6,
-0.025598322912965037,3.69233465380989E-6,
-0.020694008010614343,2.8703168098785474E-6,
-0.020694008010614343,2.8703168098785474E-6,
0.02485079848855194,-3.8623508331432285E-6,
0.02485079848855194,-3.8623508331432285E-6,
-0.030924385512003282,3.468212259320324E-6,
-0.030924385512003282,3.468212259320324E-6,
0.029294299393329858,-3.0920484014691427E-6,
0.029294299393329858,-3.0920484014691427E-6,
-0.03371768523795553,4.283758130426817E-6,
-0.03371768523795553,4.283758130426817E-6,
0.02511117587764509,-3.6960239827312467E-6,
0.02511117587764509,-3.6960239827312467E-6,
-0.02104136212070979,2.9595620881237364E-6,
-0.02104136212070979,2.9595620881237364E-6,
-0.02812588343869215,3.592906713548172E-6,
-0.02812588343869215,3.592906713548172E-6,
-0.0251846265723442,3.4382051257060564E-6,
-0.0251846265723442,3.4382051257060564E-6,
-0.02593449506111097,4.415640308644449E-6,
-0.02593449506111097,4.415640308644449E-6,
-0.02105129385183683,2.724792639713803E-6,
-0.02105129385183683,2.724792639713803E-6,
-0.02331072718348571,3.800843403421305E-6,
-0.02331072718348571,3.800843403421305E-6,
-0.031222064984661384,3.1828081845318955E-6,
-0.031222064984661384,3.1828081845318955E-6,
0.029595391421535954,-3.025062161094664E-6,
0.029595391421535954,-3.025062161094664E-6,
0.024845298465033146,-2.5766051201408548E-6,
0.024845298465033146,-2.5766051201408548E-6,
0.02541766203825007,-3.6298577876197995E-6,
0.02541766203825007,-3.6298577876197995E-6,
-0.021141243092194253,3.04599130438463E-6,
-0.021141243092194253,3.04599130438463E-6,
0.022891906940776842,-3.208670565345642E-6,
0.022891906940776842,-3.208670565345642E-6,
-0.02550245753905357,3.82504474825485E-6,
-0.02550245753905357,3.82504474825485E-6,
-0.026236287723736096,3.952793039994993E-6,
-0.026236287723736096,3.952793039994993E-6,
-0.020412295473221088,3.2474539162293155E-6,
-0.020412295473221088,3.2474539162293155E-6,
0.02526974157462038,-4.068547039852519E-6,
0.02526974157462038,-4.068547039852519E-6,
-0.02494712754837119,2.9961666422741E-6,
-0.02494712754837119,2.9961666422741E-6,
-0.022412742555202488,3.5361940128571592E-6,
-0.022412742555202488,3.5361940128571592E-6,
0.025186298722019117,-3.081299168035661E-6,
0.025186298722019117,-3.081299168035661E-6,
0.025742211434715615,-3.4859860706944017E-6,
0.025742211434715615,-3.4859860706944017E-6,
-0.021329751125643646,2.903376125431862E-6,
-0.021329751125643646,2.903376125431862E-6,
-0.028533848563876096,3.7130216822564913E-6,
-0.028533848563876096,3.7130216822564913E-6,
0.02664218279859098,-3.3790016496799274E-6,
0.02664218279859098,-3.3790016496799274E-6,
-0.026576409169605353,3.873305227280674E-6,
-0.026576409169605353,3.873305227280674E-6,
-0.02133975156178265,3.0142882272085614E-6,
-0.02133975156178265,3.0142882272085614E-6,
-0.023741661044937114,3.88343717321743E-6,
-0.023741661044937114,3.88343717321743E-6,
-0.03147881398113534,2.9846289809998088E-6,
-0.03147881398113534,2.9846289809998088E-6,
-0.02276695262227972,3.5376066551103327E-6,
-0.02276695262227972,3.5376066551103327E-6,
0.025517992619954195,-3.3223103643189277E-6,
0.025517992619954195,-3.3223103643189277E-6,
-0.027921911070281812,3.367984281222279E-6,
-0.027921911070281812,3.367984281222279E-6,
-0.02142719729392727,3.126523271038042E-6,
-0.02142719729392727,3.126523271038042E-6,
0.023343132188454848,-3.6562955968559054E-6,
0.023343132188454848,-3.6562955968559054E-6,
0.026984244472292765,-3.6027588815293506E-6,
0.026984244472292765,-3.6027588815293506E-6,
-0.026889869124679593,4.051065629396156E-6,
-0.026889869124679593,4.051065629396156E-6,
-0.02068728206844727,2.8954844346670144E-6,
-0.02068728206844727,2.8954844346670144E-6,
0.02568733423027622,-3.869665348978698E-6,
0.02568733423027622,-3.869665348978698E-6,
-0.0252117820092472,2.9496644741318877E-6,
-0.0252117820092472,2.9496644741318877E-6,
-0.02309320377547948,2.7833669301062167E-6,
-0.02309320377547948,2.7833669301062167E-6,
-0.03427978968649819,4.242512743898343E-6,
-0.03427978968649819,4.242512743898343E-6,
-0.02824839986640412,3.900109562575849E-6,
-0.02824839986640412,3.900109562575849E-6,
-0.02176512761237011,3.7121896543403088E-6,
-0.02176512761237011,3.7121896543403088E-6,
-0.028938766022029865,3.6421109821257146E-6,
-0.028938766022029865,3.6421109821257146E-6,
-0.026009416213495,3.136819506458291E-6,
-0.026009416213495,3.136819506458291E-6,
0.02803070211082059,-3.3857823492919673E-6,
0.02803070211082059,-3.3857823492919673E-6,
-0.02162767441871731,3.590997894729886E-6,
-0.02162767441871731,3.590997894729886E-6,
-0.024163964122553474,4.097392308900424E-6,
-0.024163964122553474,4.097392308900424E-6,
-0.03173203964329075,3.103316042162886E-6,
-0.03173203964329075,3.103316042162886E-6,
-0.023436314414138588,4.013834839795578E-6,
-0.023436314414138588,4.013834839795578E-6,
-0.034555807089789635,4.732682815001069E-6,
-0.034555807089789635,4.732682815001069E-6,
0.026266644756104577,-3.5877619159710612E-6,
0.026266644756104577,-3.5877619159710612E-6,
-0.021537534546095197,3.0813805736457783E-6,
-0.021537534546095197,3.0813805736457783E-6,
0.023773068516826607,-3.5683104010913493E-6,
0.023773068516826607,-3.5683104010913493E-6,
0.027403049812289023,-3.835185232056032E-6,
0.027403049812289023,-3.835185232056032E-6,
-0.027307918736503258,4.4383208135214194E-6,
-0.027307918736503258,4.4383208135214194E-6,
-0.02095375026430875,2.8126413373868835E-6,
-0.02095375026430875,2.8126413373868835E-6,
0.026116360442027538,-3.5864320309677254E-6,
