-0.1990568107923642,2.581948221354463E-4,
-0.2003491076509357,2.0555164990587738E-4,
0.056187539506236395,3.2494759413401186E-5,
0.058121601468920134,7.128599809270997E-5,
0.05992142569691436,-1.546214750416941E-6,
-0.20141400325583442,1.8171617951949492E-4,
-0.20275165491939065,2.300997763934609E-4,
-0.20403310322061358,2.2517775673201734E-4,
0.062362711404413726,-4.9502891400987625E-5,
-0.20535095339032866,2.6895402589327544E-4,
-0.20673070100383772,2.7700357718317414E-4,
-0.2078472936319954,1.914609322331562E-4,
0.0645876170454221,-8.578608403818355E-5,
0.06620901286645016,-1.964806388322915E-5,
0.06793704113813065,-7.506708222111691E-5,
-0.20889231241573092,3.0275509420414626E-4,
0.06988830323263945,-2.6120584040792427E-5,
-0.21001715162016193,2.3583335584789755E-4,
-0.2112495819348787,2.3996791327547673E-4,
0.07199944943549338,8.0684503129827E-5,
0.07383296288815884,-8.75424103664868E-6,
-0.21226105391514172,2.610905265190422E-4,
-0.21347186840164648,3.411696302701994E-4,
-0.21461176564469098,1.5150412392239687E-4,
0.0761287946141006,-2.1923560319006552E-5,
-0.21597214723040148,3.0445727869272965E-4,
-0.21716152213292877,2.3297006682350407E-4,
-0.21842314869779222,1.044612787569621E-4,
-0.21979766050358546,3.5961812682994143E-4,
-0.2208865338627346,3.212814055180979E-4,
0.07870191529007571,-1.2536905330803871E-5,
0.08046699423562376,-7.359598843702242E-5,
0.0821823024629137,-1.1808035896428148E-4,
-0.22209876299556167,2.7549192326324634E-4,
0.08416576568337929,-8.764402827755868E-5,
0.0857080766111196,-7.109716021042045E-5,
-0.22322502365248592,2.2245212541179005E-4,
0.08767466466143019,-8.474345680158091E-5,
-0.22438960978091504,2.1564152311576157E-4,
-0.22567652901986313,2.6782141094564005E-4,
-0.22685658522909485,2.052730887910359E-4,
-0.22802765641180223,2.978872469468208E-4,
0.0898019406733804,-4.163289487736643E-5,
0.09134263491471793,-5.055786282591457E-5,
-0.2291718581700149,3.214732395061398E-4,
-0.23034054029913464,1.9461741543606859E-4,
-0.23157790858343758,2.5519097352408315E-4,
-0.2328406825477227,2.830513786632599E-4,
0.09389107912314466,3.575190889387736E-5,
-0.23389236255533202,2.9303068909555807E-4,
0.09592463406329303,1.5208681848552508E-5,
0.097613272057401,-9.957914468790297E-5,
0.09916130839737643,-1.2408005307795733E-4,
-0.23488454632729228,3.3026316422403446E-4,
-0.23611796912375885,2.480222328031245E-4,
0.10122100212440252,-1.2189037119204882E-4,
0.1027756467098457,-3.532216610598049E-5,
-0.23747359526268852,2.8716583888312164E-4,
-0.23867886677253214,2.1957838842651123E-4,
-0.23998094972373596,3.2428551245522463E-4,
0.104984901368768,-1.6830758519964517E-5,
-0.241014724793866,3.310910820105428E-4,
-0.2421059929930331,2.8416201113275197E-4,
-0.24307831502617475,2.7736134623357334E-4,
-0.2442593762258338,3.182195180132241E-4,
-0.245357928029621,2.8354943235693597E-4,
0.10736851237853741,-9.033292940288651E-5,
0.10912442290014827,-1.3333894251146838E-4,
0.11067964786350566,-8.023738904217037E-5,
0.1123301651007746,-1.329988743012378E-6,
0.11408872284832997,-7.958443460182041E-5,
0.11574640175254039,-8.690485333535947E-5,
-0.24632629960682173,3.1867819992691115E-4,
-0.2473638277493566,2.56034009030931E-4,
-0.24855157785575524,1.9216107608148458E-4,
0.11784151893101526,-1.28595094858866E-4,
0.11943792110043916,-6.374273898943073E-5,
-0.2496272138682277,2.817351088271469E-4,
0.12120528759482291,-4.451742501859757E-5,
-0.25075665458231455,3.4537894427136284E-4,
-0.25188035719086665,3.325965375498424E-4,
0.1235200880100621,-1.3663576868086502E-4,
-0.2529017467771355,3.113070538591778E-4,
-0.2540118494422171,3.302468195283542E-4,
-0.25499470384245937,2.7667512184417764E-4,
-0.25615875103586316,3.825017649890933E-4,
0.12611357461474365,-8.55936508966787E-5,
-0.2571339865631641,2.5887932066495645E-4,
-0.2583435488273321,2.741641404544748E-4,
-0.2594984060286877,3.6940053217020263E-4,
0.1283524608762459,-8.286331065592012E-5,
-0.26043337746502854,2.157861562475799E-4,
0.13012755368786755,-1.8612425604234983E-4,
-0.2616729466767039,3.0099518704768125E-4,
0.13156684756471596,-8.08977534046823E-5,
0.1330896016687783,-5.9211610970985595E-5,
-0.2625495457823469,3.4253069540654546E-4,
0.1349743458363099,-1.4649362356172757E-4,
0.13640748528134267,-1.6072259830604563E-4,
0.13791926455755626,-2.2111097755100895E-6,
0.13955167549956937,-1.0613048319854657E-4,
0.14105732448826497,-5.247518532264239E-5,
0.14268202409447217,-1.291332513682214E-4,
-0.26361575031149265,2.5293086547538424E-4,
0.14424762901339483,-1.3499822396539907E-4,
-0.2647520502214432,2.8446825785320706E-4,
0.1458519982576517,-1.321933500131045E-4,
-0.26585326739013593,2.9193782351191744E-4,
-0.2668836601513809,1.5254082046071982E-4,
-0.26816984479405376,3.2894208187322915E-4,
-0.2691928592615295,2.9439180306852636E-4,
0.14789414814338114,-1.1304559730807018E-4,
0.14930909731057201,-1.8320604949990243E-4,
0.15078076485792702,-1.5043468779112057E-4,
-0.2703054296601124,2.763351232704589E-4,
-0.27140979196595577,3.170571834859859E-4,
0.1525876666854246,-8.509100765469874E-5,
0.1540062285310476,-2.454427571084994E-4,
-0.27257660069950623,3.328168146353658E-4,
0.155457147627933,-1.477247264632109E-4,
0.15688200351451925,-1.0205950928688506E-4,
0.1582952053641944,-1.7695936710419857E-4,
0.1597850781980004,-1.6101303655997878E-4,
0.16105743469171568,-7.689244432908249E-5,
0.1625849547391468,-2.538818454632663E-4,
-0.27375444681247285,3.424955432758392E-4,
0.16400963363727208,-1.4741813891919198E-4,
-0.2747244984666107,3.3587055514715247E-4,
0.16557411566907715,-7.720721864329372E-5,
-0.27555773457259086,2.8921554815548173E-4,
-0.2765760833630033,2.9214680233904944E-4,
-0.2776102255882923,3.2412252215911763E-4,
-0.2785315100867797,3.097026805723921E-4,
-0.27961350613340263,3.5908381219444674E-4,
-0.28060542816394946,2.913623350357386E-4,
0.16836071978191403,-9.40396935086088E-5,
-0.2814944784417898,2.673757149849257E-4,
0.17015801821300908,-8.600560882602443E-5,
-0.2825106421939135,2.4914381893254706E-4,
0.17178148672377946,-1.201450033280066E-4,
-0.28359480910083956,3.830937900008505E-4,
0.17355017426786679,-9.589785543478307E-5,
0.17503688008039436,-2.1295562902766407E-4,
-0.2846582014973861,4.26031030693233E-4,
0.1766751829746957,-2.4243255979414235E-4,
0.17790280779625683,-2.108081291904429E-4,
0.17910365013419322,-1.3848666216719624E-4,
0.18050680691582727,-1.7613553536112436E-4,
0.1816059845472257,-1.8453407250258042E-4,
-0.28585647680799275,3.71074930289067E-4,
0.18316150364993036,-1.521588602210952E-4,
0.18452181037001902,-1.0361584555543257E-4,
-0.28696048733452173,3.665126201362612E-4,
-0.2877971771369506,3.581198181994427E-4,
0.1863610913005517,-1.614574901455043E-4,
0.1876828771196623,-2.2431024873589833E-4,
-0.2888488322802022,3.4459455105275566E-4,
-0.2899658167741881,2.584638038904685E-4,
-0.29111202660385693,3.439696193236544E-4,
0.18962108946170664,-6.169494194012415E-5,
-0.292035510688575,2.221447327563006E-4,
-0.29308381471378037,2.9141518275953987E-4,
-0.2940699945689619,3.358943145253604E-4,
0.19155687500304985,-1.0498718500385334E-4,
-0.29528116487067624,3.8032689092600686E-4,
0.19344531895379558,-9.39775252103911E-5,
0.19482655673762583,-1.4824679968294258E-4,
0.19618826724992458,-1.5153218766878612E-4,
-0.29617863827907265,2.675559606626979E-4,
-0.2972070322907998,2.844377546584245E-4,
-0.29807317011700996,3.063218200761719E-4,
-0.2991680851596644,2.840395244063376E-4,
0.19826177179686333,-1.1876684206900412E-4,
0.1996097356681048,-1.0488117376324102E-4,
-0.29991755651593505,3.132253911890537E-4,
-0.30097017626547706,3.1958327022317545E-4,
-0.30194013672444486,3.174415083868898E-4,
-0.30288433449964924,3.2706007738449866E-4,
0.20153969200844982,-1.7422583210897208E-4,
0.20278930601211823,-2.550460024783388E-4,
0.20410206075681644,-1.960095268441625E-4,
-0.3041801583764396,3.3389037555173195E-4,
-0.3051168466844354,3.214491438957509E-4,
-0.3060157675077271,2.1412614321750928E-4,
-0.307021035299411,3.2826358864244953E-4,
0.20603846136896828,-1.0085694388409228E-4,
-0.3078305476209241,3.996028293631604E-4,
-0.3086444299596899,2.7648280242102696E-4,
-0.3096214401787445,3.161097923508535E-4,
0.20787339488154616,-2.1039545984912617E-4,
0.20903237032501154,-1.9535068248243553E-4,
0.2103525281420216,-2.3788389916871294E-4,
-0.310706192186627,3.3086039958984265E-4,
-0.3116463633733233,3.980476291786453E-4,
0.21175220017273577,-1.530309608185898E-4,
0.213203304418289,-1.6956914293824593E-4,
0.21439050819605965,-2.2417183876236035E-4,
0.2155597852789946,-2.416619938318057E-4,
-0.31284447275136046,3.9444835293950264E-4,
0.21717850019537813,-2.2680462607494595E-4,
-0.3136917374698117,3.088123120635333E-4,
0.21862190795666317,-1.9899967876005342E-5,
0.22009424319266457,-2.6029768596064207E-4,
-0.3146253300401215,3.674451402227094E-4,
-0.3155903407915228,3.381304895358206E-4,
0.221621037046225,-1.715411447575227E-4,
-0.3166615895780003,2.977813923140324E-4,
0.22306660859956445,-1.8256980858999405E-4,
-0.3175282988253875,2.942749242995091E-4,
0.22456384158984788,-1.527831701502863E-4,
0.22580444590079948,-1.9257621574984146E-4,
-0.3184881720412545,3.679803006152657E-4,
-0.3193538631750512,3.4327449722549447E-4,
0.2275404255774394,-1.8259640824510454E-4,
-0.32022497354127966,3.250623121241955E-4,
-0.3212083638007548,3.4790945885473934E-4,
0.22918124038406293,-1.9426537721547316E-4,
0.23026337783180534,-2.0312123708429025E-4,
-0.32211530788885423,3.330365088205778E-4,
0.23164350269460837,-2.7633562086969155E-4,
0.23286749958124256,-2.161381234549939E-4,
0.23405196116442642,-2.0337049227590193E-4,
0.2352501763653384,-2.400083523294641E-4,
0.23646785392930375,-2.4474691884513594E-4,
0.2376124833198486,-1.877830681616885E-4,
0.23884857365621598,-2.470662076164143E-4,
-0.3239090355176314,3.6107735406187835E-4,
-0.3246831287333751,4.233417668057446E-4,
0.24043462949728595,-2.0819415995794455E-4,
0.24153410537147063,-2.7511015385661697E-4,
-0.3255352068991753,3.5718770919857673E-4,
0.24287880345497143,-2.2198592356171415E-4,
0.24406906159575653,-1.518255843183658E-4,
0.24514280591527343,-1.86606157755613E-4,
-0.32637771273074057,3.9699197743691544E-4,
-0.32719237004376744,3.7699051267491707E-4,
-0.3280407683001091,4.1476160296542025E-4,
-0.32878269802203924,3.909826567610325E-4,
0.24701036076474367,-2.4151526197191409E-4,
0.24811551465975698,-2.3160272035466917E-4,
0.249330420788931,-2.3596292171337158E-4,
0.2504129025704447,-1.8681295650251062E-4,
0.25162407455417796,-2.3793853028336587E-4,
-0.33029817421820196,2.9424735747690667E-4,
0.25286024812774544,-2.224621740628957E-4,
-0.3312805118544234,3.6847870199972765E-4,
0.2542479709402322,-2.972736153014008E-4,
0.2552770455759312,-2.382953275991001E-4,
-0.33250923127265447,2.4416918231631723E-4,
0.256466271557316,-2.840539416410215E-4,
0.2574659706073578,-2.1111640773986E-4,
0.25860804467155885,-2.8844498059344553E-4,
-0.33388100169884016,3.8009450672876754E-4,
0.25971534621058234,-2.3033118065320796E-4,
-0.3348811336984631,4.028965070611637E-4,
0.26095712868299464,-2.3644799920327642E-4,
-0.33577915815921194,4.548247948102102E-4,
-0.33655658077007894,3.0853248170018693E-4,
-0.33736342882994524,2.943908859364616E-4,
0.2623821955169694,-1.739799658830518E-4,
-0.3383618078973735,3.9675895006246326E-4,
-0.3390524458436636,3.198309657677853E-4,
-0.3400105077866629,4.237542483276416E-4,
-0.3407659463354176,3.2508610618545847E-4,
0.26446978442245,-2.2354240788304003E-4,
0.2656295687885271,-1.8359504055494996E-4,
-0.34176421615727337,4.195870278636202E-4,
-0.3424415800428698,2.7948701735141385E-4,
-0.3432495650061634,3.293277634214206E-4,
0.26736990099801866,-2.919893303885285E-4,
-0.344195903667012,4.368852630568035E-4,
0.26871525286583353,-2.225693277184207E-4,
-0.34504992055274586,3.9519501822504743E-4,
0.27014150527737746,-1.5008097107321872E-4,
-0.34569221927351396,4.131147396066043E-4,
0.27154148112002546,-1.902288900836116E-4,
-0.3466560706410665,3.821923021819912E-4,
0.27292579869785705,-2.969274898212207E-4,
0.2738254546483992,-2.796944420133743E-4,
0.2748357555036406,-2.2573905487532214E-4,
-0.3477391785538627,3.70704845337029E-4,
0.2761191158591753,-2.152608074130688E-4,
-0.3485393243968935,3.541056701608092E-4,
-0.34935992582331266,2.973087326605603E-4,
0.27752585009252295,-2.9852499488858264E-4,
-0.35051236916873796,3.772812455171831E-4,
-0.3512037435376645,4.3575666321462453E-4,
0.27913687843627183,-2.353855627821727E-4,
0.2800860777474073,-2.3809603908137716E-4,
0.281199314652865,-2.7923311250829114E-4,
0.28222568740124915,-2.1692637750783672E-4,
-0.3524503077323649,3.8518241904111905E-4,
-0.3532471556334708,4.7825313618472115E-4,
0.28358621853233834,-2.55883161603479E-4,
0.284468773396133,-2.4341437752678496E-4,
-0.35414836313689074,3.7790314873863834E-4,
0.28567658260797985,-3.3485534865929784E-4,
-0.355307572166443,3.810886660796514E-4,
0.2868467950107259,-3.450713841207792E-4,
-0.35643567804497156,3.7207395922167485E-4,
0.2880896538299135,-2.2659067225611063E-4,
0.2890781179489309,-3.0514491868523924E-4,
0.29009094641833233,-2.2280659420910454E-4,
0.2910851185498023,-3.4764066937342797E-4,
-0.3578461227778043,3.3793366878752396E-4,
0.29205669455650046,-3.321547276212908E-4,
0.29310369336016173,-3.4046593567779726E-4,
0.29397744562094136,-2.046599347878611E-4,
-0.358867538888252,4.541472563094895E-4,
-0.3595533682392797,3.74201581393549E-4,
-0.36034727757836,2.999679622978299E-4,
-0.3610335628467052,3.5994697309069124E-4,
-0.3617066323778501,4.4629871187848447E-4,
0.2961928080318922,-1.9196039423639844E-4,
-0.36233593826293076,3.112077800527732E-4,
-0.3631943806921305,4.2887178348869487E-4,
-0.3638424793445817,4.6144424722606436E-4,
0.2977290294594756,-2.68429134118911E-4,
0.29859149370156113,-2.9076659492840995E-4,
-0.3648085876475692,3.159515584104447E-4,
-0.3656859473988385,3.5613374071307574E-4,
0.29981924530288684,-1.8917354684795662E-4,
0.30095855365163854,-3.354326107984848E-4,
0.30185187198621594,-2.3211730259324603E-4,
0.302870693838066,-3.3629292343691913E-4,
-0.3668289602228855,3.892805405564942E-4,
0.30384657240315993,-2.1899135799362257E-4,
0.3048501927120026,-3.1569028286070056E-4,
-0.3679416378743694,3.526642859332657E-4,
-0.3686354791899952,4.43820332594394E-4,
0.30645210304953074,-3.75500404450127E-4,
0.3073606747747071,-2.383067642965364E-4,
-0.3696684398060135,3.162910132462407E-4,
-0.3704805424256607,3.8081706595438636E-4,
0.30841675190693935,-2.439973160422576E-4,
0.30935216542509536,-2.627870168865967E-4,
-0.37121427361439674,3.821041759301466E-4,
-0.3719716287487409,4.1612446121476465E-4,
-0.37265151316132683,3.6482617423388986E-4,
0.31083909251986824,-3.1137356829245844E-4,
-0.3735307747011455,4.0999953684525E-4,
-0.3741714317329256,3.868190587874923E-4,
0.3122403129710972,-2.780084588494547E-4,
0.3131592938461769,-3.1929397981553254E-4,
-0.3752092761693958,3.916633086478577E-4,
-0.37582410546612366,3.7182888734333536E-4,
-0.3763711153805763,3.645899186369775E-4,
-0.3770096628303955,4.345682205829163E-4,
-0.3776401234395243,3.1430734714545105E-4,
-0.37821594200906467,4.152273034171289E-4,
-0.37882328491301015,3.922337176973864E-4,
-0.3794425674135049,3.810501321453233E-4,
-0.38016848249232416,4.2454450539387845E-4,
0.3154760684937766,-3.676040688127824E-4,
-0.38104145124668976,4.453951108174467E-4,
-0.38168174012873085,4.6153232761209084E-4,
0.316918039848796,-3.3974161357729765E-4,
0.3178098534176664,-2.839814812601593E-4,
0.31859922548485087,-2.705313852439592E-4,
-0.38269011094910893,3.5118310632220595E-4,
-0.3834377176592724,4.1822855465203923E-4,
0.3198678243510292,-2.77534188165493E-4,
-0.3842997265715559,4.6314025262033515E-4,
-0.384894507981805,4.767986055620732E-4,
-0.38549508238831426,4.355567377221925E-4,
-0.38618740416745456,4.314533153154665E-4,
0.32186227961538094,-3.6568734743314124E-4,
0.3225759235535035,-3.257486166288043E-4,
-0.3873618517944748,4.924962980872097E-4,
0.3237215950064805,-3.279859588526113E-4,
0.3245917746597345,-3.992575359499165E-4,
0.32534345344634613,-2.593275821855881E-4,
-0.3885059277356675,4.750232387478598E-4,
0.3266696353205256,-3.649115929111879E-4,
-0.3892554932575765,3.90491063626236E-4,
-0.38987482956731134,4.550179048389072E-4,
-0.3906479117896746,4.025888216715387E-4,
0.32803229104285314,-3.498483350310097E-4,
0.32871401577092624,-2.518276202461839E-4,
-0.39166862385694823,4.747075808520934E-4,
-0.3920548514417891,4.06638216824122E-4,
-0.3926771007711414,3.8562616812624906E-4,
0.330285130181055,-2.371746263046398E-4,
0.33132056989564906,-3.1146588149654625E-4,
0.3321263234491991,-3.0539712255148177E-4,
0.3330326092398328,-3.018533976452756E-4,
-0.39385194225306386,3.991635231622645E-4,
0.3340187585984806,-2.9956437554801846E-4,
0.33483385045103276,-3.3441353320724093E-4,
-0.39492744906121185,4.694278837641952E-4,
-0.39548694673355445,3.9242813530126347E-4,
-0.39607365401904393,3.701005716107639E-4,
-0.3967791258051678,3.2915324053602035E-4,
0.33638106286995917,-3.3770046349974187E-4,
0.3370802871667064,-2.519621782164777E-4,
0.3379985207981428,-4.075537081696806E-4,
0.338785522523313,-2.994288702767231E-4,
-0.3978190874111701,4.3046630212514175E-4,
-0.39845872788166276,2.6289462462977115E-4,
-0.39918905622020107,4.5060019025792986E-4,
0.34006469877393386,-3.304659367583257E-4,
-0.39996185714697224,4.092696139982102E-4,
0.34118520103130673,-3.27749025922211E-4,
0.341961139963668,-2.8730233909923797E-4,
-0.4007908810193844,4.92252503509226E-4,
-0.4012808457925007,4.632338410154521E-4,
0.3432319576965638,-3.599625148669114E-4,
0.3439704287887595,-3.2910061206132407E-4,
-0.4020583630938367,3.091658717568127E-4,
-0.402697881779267,4.4522469750498533E-4,
-0.40319634539019433,3.77412593781247E-4,
-0.4037923052289193,4.7732813174507227E-4,
0.3452311161106307,-3.6922395811020414E-4,
-0.4046514569134811,4.510646376313862E-4,
-0.40514929683089057,4.32386662508763E-4,
0.3465292485393774,-2.3103349767043813E-4,
0.34734775922556965,-3.297951289316925E-4,
0.34803213614254846,-2.655982724242764E-4,
-0.4060700398228005,4.748204937445183E-4,
0.34913662221836417,-3.623187360983146E-4,
0.34991767240410837,-3.089275048379428E-4,
0.35073491100483395,-4.0789860189498206E-4,
-0.40710184430636037,4.3035237294373335E-4,
0.3515607211884988,-3.3234064982833045E-4,
0.3523871532614971,-3.0581683762961887E-4,
0.35318904509067217,-3.0008845223794545E-4,
-0.4078402423338171,4.280887876770764E-4,
0.3542260187024634,-3.107940960570682E-4,
-0.40838009687167826,4.483951295480987E-4,
0.35511322911112053,-4.040627127999477E-4,
-0.40939311342373563,4.89998046659966E-4,
-0.4099384716440558,4.435210043435209E-4,
-0.41047199075194957,4.449155695474133E-4,
-0.4110258543128295,4.911621355350587E-4,
-0.41164149541204087,3.88912317454658E-4,
-0.41226575324457115,4.768001128353516E-4,
-0.4128143765396507,3.6281351188559297E-4,
0.3575802011655197,-3.811995640298771E-4,
-0.4135362306356956,5.080221558373607E-4,
-0.41398948019977316,4.0471284538960706E-4,
0.3587520854098909,-3.244042523373944E-4,
-0.4146086790516751,4.0597165814474506E-4,
0.35963290441906265,-3.5034180229239625E-4,
-0.4154669746636903,4.941462871592972E-4,
0.3607143529717436,-3.943623924960518E-4,
0.3614125806952912,-3.3470652153357733E-4,
-0.41618255037043445,5.235372832154694E-4,
0.3622554022503894,-4.2053859941668104E-4,
0.36292217296643436,-4.340473461695374E-4,
-0.41710092989810327,4.7375928585045163E-4,
0.3638578536603913,-2.9039868302981053E-4,
-0.4177880048972167,4.963400140890889E-4,
-0.41817634294260486,4.060679870388009E-4,
-0.41881638659769493,5.030991411026642E-4,
-0.41937880392731014,4.540838761858193E-4,
-0.4199834810905561,3.835478922519092E-4,
-0.42043767758309414,4.560648854316923E-4,
0.36611959355254886,-3.674529346167771E-4,
0.36669516863292834,-3.98227908292019E-4,
0.36743085643748524,-3.634784020388887E-4,
-0.42168340349090594,4.5556580363390053E-4,
-0.42221902845700865,3.4765007579795615E-4,
-0.422820473021221,3.8665713820685427E-4,
-0.42348148457783935,4.2990840548730314E-4,
-0.424082501283742,3.959245632729272E-4,
-0.42464232860945317,4.891942672328592E-4,
0.3694026057832966,-3.854002957950631E-4,
-0.4253752012172114,4.1653596527606307E-4,
-0.42585565550013016,4.703481077125843E-4,
0.37063411317564876,-3.7582070267831724E-4,
0.3713409463102415,-4.369915313642836E-4,
0.3719023097401956,-2.920221963574124E-4,
0.37281464762692085,-4.1286125104791904E-4,
-0.42719161416409557,3.9182108519518477E-4,
0.3737507476355799,-3.7594105309052966E-4,
0.37439921747141525,-2.876132618195304E-4,
-0.4281105170505768,4.298472708923126E-4,
-0.4285510825897031,5.151293114003808E-4,
0.37554959533382903,-3.555753480850715E-4,
0.37621520343207254,-3.5761605803445035E-4,
0.3769413035283675,-3.749507896666157E-4,
0.377467749767891,-3.5121039702692286E-4,
0.3780026535517212,-3.212426644425767E-4,
-0.42937441784502534,4.642210828668947E-4,
0.37899235798311837,-4.1421955883122474E-4,
-0.43020192854614664,4.3425010292384714E-4,
0.37987597965624986,-4.3267612090597957E-4,
-0.4308218975747976,4.5223151698702E-4,
-0.431262079708648,4.2074077847388536E-4,
0.3807597359181408,-2.593373408126126E-4,
0.38159609070667405,-3.412673034112468E-4,
-0.4320156223036942,4.629903187955836E-4,
0.382619253210378,-2.5509153704277726E-4,
-0.43250274227724483,4.580524125950905E-4,
-0.4330806253108609,3.5426943436607516E-4,
0.3836365351074323,-4.336013084356438E-4,
0.38426368025381724,-3.1755048129231134E-4,
0.38491362504573867,-4.0083626607353984E-4,
-0.4341523619102786,4.4392049669212535E-4,
0.38583343995436054,-3.5477967762546914E-4,
0.04413156014307726,-1.0551109380051854E-4,
0.14231152477027337,-1.2025405413612633E-4,
0.14374694101590685,-2.467010942830729E-4,
0.14520389700487127,-6.891248824833496E-5,
0.1467854547074523,-2.6865511372952885E-4,
0.1481837269388768,-1.845065608041714E-4,
0.14953091354427483,-9.365131614783549E-5,
0.15102305379577038,-6.236548395742447E-5,
0.04439245639381543,-1.0094254448414844E-4,
0.04630598421004748,2.6447373784379072E-5,
0.1524866281889691,-1.3301340188403774E-4,
0.15395085889587837,-2.0040197254284076E-4,
0.04773631427317983,-2.7539433970011004E-5,
0.049620101808149596,-1.1828044486953543E-4,
0.05138104157804946,-7.740241577986959E-5,
0.05308216053653407,-4.1737426814332165E-5,
0.054992481338757074,-1.450452342140092E-4,
0.05666085012360188,-9.180770495493401E-5,
0.058519366344987306,-6.5512185731739225E-6,
0.15441035001546594,-2.2378151776133656E-4,
0.06015103392281976,-1.025894306626949E-4,
0.06187495691994227,-2.5515833993221965E-5,
0.15547940137014032,-2.170740401441218E-4,
0.06336645443989129,-4.2949895478863395E-5,
0.15668029957212443,-2.82520927878345E-4,
0.06508773711116997,-3.986168679162745E-5,
0.06684407762939736,-1.702996702685703E-4,
0.15753004226667874,-5.3598193905456115E-5,
0.06848777442932635,-1.2939841202802907E-4,
0.07015667326561821,-1.0854434884303293E-4,
0.07184083001972089,4.390218553546217E-5,
0.1587112004297823,-1.6206894033837793E-4,
0.0736114757057675,-1.1825663751803724E-4,
0.15999027656465475,-1.792942427593005E-4,
0.16141653405704215,-2.1590445100885466E-4,
0.07495210630915045,-2.292988790652574E-5,
0.16274051924549915,-1.6424470349995536E-4,
0.07655927741967128,-1.0501857109733795E-4,
0.1640413131263982,-1.375733373226492E-4,
0.07790356113482257,-9.955648183872234E-5,
0.16549529796019846,-2.1281580295077866E-4,
0.16693164249756554,-2.488186958804744E-4,
0.07880667359141218,-5.675684918931591E-5,
0.08049270002019318,-1.65551383759302E-4,
0.1678792154060098,-1.091547501527422E-4,
0.1693161098942313,-1.2549709824015431E-4,
0.08176008684736318,-1.2233270482204205E-4,
0.08352574105973373,-8.807098043630071E-6,
0.17038657964434514,-1.1986049464425032E-4,
0.08499318650282067,-1.3528260458373943E-4,
0.17149853631266385,-1.3866003004774606E-4,
0.17296307413595025,-1.9335784020636793E-4,
0.08639378085219568,-3.003476014301794E-5,
0.088228627253161,-4.3967081006067096E-5,
0.17407292795277096,-1.5978867592486394E-4,
0.17542681960592366,-1.4662097626382854E-4,
0.08949738206690346,-5.054419178385748E-5,
0.17677252704079796,-2.2050911058065469E-4,
0.178246099829614,-1.769166882554362E-4,
0.1796299637315091,-2.6459871757930284E-4,
0.09043167846774482,-3.187715261037012E-5,
0.18080323740368884,-1.7801980491757158E-4,
0.18218113616660475,-1.0040119524319137E-4,
0.18374779506776956,-1.46309315125933E-4,
0.09166061859655253,-1.9488140158127956E-4,
0.1848016442414206,-2.2211076000226877E-4,
0.18606770213193063,-2.288426431597294E-4,
0.1872311284865079,-1.9126737526210195E-4,
0.18859662593353577,-1.2982159985832058E-4,
0.09218374044024877,-4.378652107683671E-5,
0.09403292148728824,-5.384238647729647E-5,
0.09579591482847202,-2.4427410075440227E-5,
0.09761510630806956,-1.8207570875752692E-4,
0.0992003111937215,-8.590153768940536E-5,
0.18937548308649502,-2.1057570772709065E-4,
0.19072000183585966,-2.2656989949236626E-4,
0.19185640449758265,-2.3533909904574317E-4,
0.1930320089748623,-6.737100041913444E-5,
0.19462903276716834,-2.085379534803927E-4,
0.19592760382910407,-1.6527764124211943E-4,
0.09957287319981858,-2.032658882719033E-5,
0.19721624502678572,-2.0004675680453197E-4,
0.19844829666388683,-2.141526837861514E-4,
0.10074617607915122,-1.419144812753537E-4,
0.19961968061500424,-2.17936696954385E-4,
0.10229987875675423,-1.7979269211253982E-4,
0.20065385265221686,-1.0784322113382462E-4,
0.2019513206324424,-1.5060235642802566E-4,
0.10365285384671832,-1.6027469107151616E-4,
0.2030131089685709,-1.883844175919686E-4,
0.10494570867421797,-1.2011764795602162E-4,
0.10655892792693406,-9.586226590112528E-5,
0.1082256040402083,-5.35284735104051E-5,
0.10995111340271504,-1.0234980260062036E-4,
0.1116975564546661,-7.304183781317239E-5,
0.20335656837964233,-2.3237813813178692E-4,
0.2046923379189504,-2.0591022568780364E-4,
0.11253519862193062,-1.0648372858887336E-4,
0.20573349047604236,-1.699635230236465E-4,
0.11411275750067233,-2.3248115673445927E-4,
0.11558983024703898,-8.773618713212722E-6,
0.20670356250903665,-1.8503576474377184E-4,
0.2080452356471607,-1.9524107272064686E-4,
0.11666754714519653,-1.5107640773249316E-4,
0.11826751918549955,-8.29278159693767E-5,
0.20891738360691373,-2.378376193627068E-4,
0.11954222355794962,-6.616906701607458E-5,
0.12113704881838577,-1.2030613399159444E-4,
0.12275334842620624,-1.7204977325941772E-4,
0.12446275030859136,-1.2147560923163846E-4,
0.20913182238192046,-1.664390688914557E-4,
0.1259938554742102,-3.800293168166073E-5,
0.1277207261463603,-1.1044139907136316E-4,
0.2100624870540687,-2.2284968993323924E-4,
0.21147629164201703,-2.796112399407087E-4,
0.2127204457000203,-1.9255136393986642E-4,
0.21399381378833046,-2.0148297805805035E-4,
0.21531042575833653,-2.3137221173083673E-4,
0.216418360028225,-2.689239160127955E-4,
0.1274838011949285,-1.595221521492061E-4,
0.12892831730672308,-2.0454293504282536E-4,
0.1304495322391783,-1.5464497524847047E-4,
0.1319708250292376,-8.548715017006971E-5,
0.2168808429987305,-1.957581971323973E-4,
0.13325419693581764,-2.1317427183275704E-4,
0.13459072685206885,-1.2657820649005684E-4,
0.1361936331571338,-1.5843916788046216E-4,
0.2174879465598001,-3.0947864682009853E-4,
0.13727672451123424,-6.787219958638395E-5,
0.21843352215162948,-2.5848438722472886E-4,
0.21947571196202423,-2.9041355980312855E-4,
0.13823654548440714,-1.54970119040824E-4,
0.22047416229984573,-2.597812906621321E-4,
0.22155981397154423,-1.8509692328511377E-4,
0.22272204139323587,-1.7182439262169264E-4,
0.1387945873137406,-6.604111703616957E-5,
0.140400629438838,-1.803358984568816E-4,
0.22347123828743048,-2.2017555319658487E-4,
0.14142650475663998,-8.909878574033013E-5,
0.14278604285480895,-2.1743502540068826E-4,
0.2242327694752189,-2.1014759710859731E-4,
0.225373655229986,-2.016450134581906E-4,
0.1436707779028526,-1.1869071653373888E-4,
0.22646647838887557,-2.680129181966322E-4,
0.1448789118673996,-5.9883207352883286E-5,
0.22757791903984848,-1.5711320172770698E-4,
0.22887492984567187,-1.8272142946424395E-4,
0.1458815740937651,-1.2269846259017978E-4,
0.14734051012392935,-1.650683277728696E-4,
0.14866504685924117,-1.8385474532965802E-4,
0.15028024606444765,-1.6033590281424367E-4,
0.22911426189572348,-1.6378047302672682E-4,
0.15152529002925252,-1.4665866640316098E-4,
0.23010937044653326,-1.9500923249979405E-4,
0.1528999803614954,-1.4705771454883755E-4,
0.15428703267457702,-1.6328281954861804E-4,
0.23079041173284512,-1.7868804766460467E-4,
0.155460386111382,-9.860281366757487E-5,
0.2318079630767359,-1.8567142881868292E-4,
0.15669409268185372,-1.7951640747804025E-4,
0.2327168961034584,-1.861766863394277E-4,
0.1576714808278618,-1.9292122548161643E-4,
0.23361729422003455,-1.8910760365106055E-4,
0.23481199862894556,-3.279276294767446E-4,
0.1584615692169553,-1.0865316209490543E-4,
0.23567794123201316,-1.7992255419631807E-4,
0.23687808830725093,-1.9562758727018417E-4,
0.23806853838041878,-1.683822043179982E-4,
0.23939823992488793,-1.9928745559897633E-4,
0.24065900127173326,-2.047897949442011E-4,
0.1583515875548948,-5.679791994701519E-5,
0.24189261326782283,-1.0816910721563391E-4,
0.24319919505676768,-2.987085256473728E-4,
0.2442947611565908,-2.782733978001807E-4,
0.24538125372723904,-2.1176993034462827E-4,
0.1587311938776419,-2.2741043714531554E-4,
0.1601433014042992,-1.6576981823769078E-4,
0.16158425057876247,-1.849203387759308E-4,
0.24558482371841997,-2.0443715586220337E-4,
0.2467142414877297,-1.9681365710482943E-4,
0.16239790077204477,-2.0976687334704584E-4,
0.1638265648620591,-1.0187450451420305E-4,
0.16538712338441486,-1.0650074455164152E-4,
0.24685191745805127,-2.1393416486679452E-4,
0.16655556614525474,-2.4025271697170232E-4,
0.24762776178846818,-1.6919976925480924E-4,
0.24889420235347062,-3.068286667856756E-4,
0.250009461479491,-2.527715153159502E-4,
0.16696227033516683,-1.642496189499E-4,
0.2509775457196974,-1.6453279127979711E-4,
0.25217576306116785,-2.3425846258766196E-4,
0.2532392197450147,-2.699777302346846E-4,
0.16721344508948374,-2.2353148071423308E-4,
0.16854840499020826,-2.878164603803985E-4,
0.25353836897688586,-2.0546651281946708E-4,
0.25467074175654125,-2.2871389154701695E-4,
0.1693765217444592,-1.9133664581526787E-4,
0.17087423068627963,-1.6641212269982025E-4,
0.2553269539231059,-3.61781792256724E-4,
0.17180638631332718,-8.350415878643179E-5,
0.25597934643714787,-2.072119174137462E-4,
0.25714862791756876,-2.7010754309746143E-4,
0.17275979101831748,-1.4241603110561052E-4,
0.2577917107671572,-3.00568427229541E-4,
0.17378744911802463,-1.81316081991751E-4,
0.2584417494792931,-2.5192028002069683E-4,
0.25948710933467367,-2.2406832349514821E-4,
0.17455250373562498,-1.1820061181151004E-4,
0.2603863551361571,-2.519087641943453E-4,
0.17572574667896468,-1.584763814806156E-4,
0.2611355380801715,-4.3942794949195993E-4,
0.1764498373657709,-1.0891349103035741E-4,
0.26166122610154624,-2.622959395655426E-4,
0.2626771666015435,-2.589024004420286E-4,
0.26378082840636813,-2.6857168660101086E-4,
0.2649113031913459,-2.586444253712024E-4,
0.26585562701057164,-2.619719331033929E-4,
0.1761726858779804,-1.626719555788761E-4,
0.1775673003092202,-1.1420612992697407E-4,
0.1789422669847185,-1.899243832985363E-4,
0.2661806043157993,-3.238584770864014E-4,
0.17994143750861394,-1.8707509653607263E-4,
0.1813168645629411,-1.3595050473338977E-4,
0.2668254373152893,-2.6854480773040243E-4,
0.2678879159355946,-3.292022314713462E-4,
0.18193872942867018,-1.4665267887736463E-4,
0.1833233235784363,-1.2863968835609071E-4,
0.18470883993633014,-1.6526335224732736E-4,
0.18597688063517334,-1.4732221990379143E-4,
0.267852055764756,-2.3440097984689032E-4,
0.2689106277895108,-2.5666096171251054E-4,
0.2698844634192473,-2.6321525985923896E-4,
0.27093637310310653,-2.3119985008040675E-4,
0.18607755130097375,-1.4870332731849525E-4,
0.18752385863785037,-1.533014435967199E-4,
0.18880925039535157,-2.0351557546951712E-4,
0.19003701955682303,-1.3007060227205117E-4,
0.19142432598626127,-1.3377205472175913E-4,
0.2704641054822174,-1.7746093574610988E-4,
0.271633447326177,-3.0189010805527217E-4,
0.2725383406943643,-2.8699500509639375E-4,
0.2735744130358555,-2.4363993588048458E-4,
0.274708688460218,-2.4428329099639157E-4,
0.27584462486508826,-2.7586610866772027E-4,
0.27690734714559967,-2.880996705467466E-4,
0.19006324028056099,-1.5220647477059285E-4,
0.2776487583432085,-2.2096359340836869E-4,
0.19110286546641078,-1.3732925039717028E-4,
0.2784423430971339,-2.977237532377705E-4,
0.19212558774508373,-1.7299867865301286E-4,
0.19362899444583226,-1.7008320957696485E-4,
0.19496233881444824,-2.1143750138903974E-4,
0.27832757385271756,-3.117982707276992E-4,
0.19588871819455242,-2.3170599290618307E-4,
0.27880680008700764,-3.560259459388926E-4,
0.2797883903068936,-2.2781686324171296E-4,
0.196569200698351,-1.5746131230086682E-4,
0.197948694012119,-2.295213324287025E-4,
0.2801103964396075,-2.69518183533924E-4,
0.2812257684528581,-2.3119207689427726E-4,
0.19852229534616403,-2.0578162906925018E-4,
0.28178447138274815,-2.848319633371975E-4,
0.2827324700861884,-2.7000612307038E-4,
0.1989475635971765,-2.3341749210607082E-4,
0.28326995582999903,-2.8487925161099076E-4,
0.19983178498775464,-1.9123045420547588E-4,
0.20089670378756685,-2.0900734978042748E-4,
0.28334885533227977,-1.6992763302471625E-4,
0.2843852037051072,-2.5096762000671735E-4,
0.20146936996449455,-1.5171782856127775E-4,
0.20286815717798504,-2.2061731419601577E-4,
0.20423872273135543,-1.849836155341615E-4,
0.28422120591125505,-2.169474840815755E-4,
0.20522930536778589,-1.1956199369135556E-4,
0.28498235227562657,-2.1911865334892783E-4,
0.28608974760933137,-2.4285072192568175E-4,
0.20576624671051075,-1.7289098006793152E-4,
0.20698378586477612,-1.3621768026871733E-4,
0.20832138395107552,-2.5636425475272784E-4,
0.28604400701566135,-2.3401691864514962E-4,
0.2870492884911681,-2.0873601380825418E-4,
0.20882659660077682,-1.6883803560861083E-4,
0.2880482870254541,-2.3658110934331872E-4,
0.2891862902390878,-2.4218479493213346E-4,
0.2094343815168363,-1.9812017733773085E-4,
0.2898649921738992,-1.4089811316084222E-4,
0.2910405574662278,-2.996026240017352E-4,
0.20997786704273017,-1.3550452610698593E-4,
0.2916234238411922,-3.038640368022705E-4,
0.29272939864618325,-2.8161327869793973E-4,
0.21063417793906908,-1.6172056283999398E-4,
0.29348228108170127,-2.66886661148151E-4,
0.29444814592099144,-2.6391093292121165E-4,
0.2954394683329176,-4.2905542661197255E-4,
0.2962775559519865,-2.9933894039958775E-4,
0.21013385676133253,-2.048100690308502E-4,
0.21138866601465978,-3.1791634196935703E-4,
0.2963374247738946,-3.2501278698496283E-4,
0.2972200863666747,-2.816833430775781E-4,
0.2981645698360399,-2.123854237503775E-4,
0.21136882153543154,-2.3995361135984578E-4,
0.2988922035426218,-2.0460788353847403E-4,
0.3000246725541663,-2.7553832187846017E-4,
0.21177743800017135,-2.229702001193823E-4,
0.3005556897511694,-2.0505722011642663E-4,
0.30156401871125293,-3.120012676494713E-4,
0.30232853384920966,-2.711197067120849E-4,
0.30334235562201256,-3.2957831173770213E-4,
0.3041581334683485,-3.4997869707399654E-4,
0.2113636103989295,-2.0617985517863702E-4,
0.30462827989384617,-3.425849454550822E-4,
0.305494236223258,-2.456145522753139E-4,
0.2116903419575687,-1.2644357072735118E-4,
0.21300884096301634,-2.042125691871996E-4,
0.2142401260881372,-1.2816936094770665E-4,
0.21555668799042024,-1.5021517154203967E-4,
0.30517178088724284,-3.3651872710768055E-4,
0.21651489104416136,-2.159455427939022E-4,
0.3056952817251216,-3.401785160804527E-4,
0.3065752582604925,-2.998311697065409E-4,
0.21695152033099288,-1.3687897327196996E-4,
0.21824417930411447,-1.4566913459711922E-4,
0.2196309230070414,-1.5806899367358518E-4,
0.30660880859365525,-2.833726094536651E-4,
0.3074005064331309,-2.3646204505863022E-4,
0.308329736375296,-3.2035625632338E-4,
0.3092619594547893,-3.6382477516314765E-4,
0.3100219310449015,-3.315556044915305E-4,
0.21862383875848018,-1.907900757112252E-4,
0.31061135140667945,-3.584032774560514E-4,
0.21933727791612284,-1.4561000883240444E-4,
0.31136344590747617,-3.0355755303639737E-4,
0.22017985484474356,-1.7843281533087146E-4,
0.22139144850897058,-2.39236226935155E-4,
0.3114956251943809,-3.1461683868975326E-4,
0.31227212328333187,-2.3278137017480882E-4,
0.31321953863278906,-2.949066082277921E-4,
0.22116301659631413,-1.9612697374792043E-4,
0.3138314112609431,-3.1789443244234494E-4,
0.22194403795834275,-1.5412044546556092E-4,
0.3142730633618504,-2.4220041209305904E-4,
0.22272344967979363,-1.6343597026973605E-4,
0.3148839460544635,-2.3003235059144284E-4,
0.22344533865716426,-1.5228266397846607E-4,
0.3154809911043743,-2.519948780248804E-4,
0.22445715227442564,-2.141987679041557E-4,
0.2256114125854882,-1.8841071097273204E-4,
0.3154411223020605,-2.2165544359951939E-4,
0.3164759003740056,-2.8095572922624823E-4,
0.31750797633963196,-2.9771599291168044E-4,
0.2255578836434623,-2.502533769348017E-4,
0.31817590946183144,-3.0758748355278615E-4,
0.31887126834857293,-3.4876286715641164E-4,
0.31961302340643266,-2.5481928143589183E-4,
0.22533777116840487,-2.531168883086049E-4,
0.32012127575148763,-3.0936408513033975E-4,
0.22602282609256946,-1.7115361624872594E-4,
0.32075146221631556,-2.1522488041332555E-4,
0.3217671027048344,-2.9488325662577197E-4,
0.32258498835011906,-2.796753437444635E-4,
0.22578851475221443,-1.7328018362253172E-4,
0.32314464605628523,-3.0403454200427643E-4,
0.3239024909037609,-2.7610949057858825E-4,
0.226005426892945,-2.568802292984007E-4,
0.22712229145749818,-1.6235501499381466E-4,
0.22829172070417036,-1.8183938234218183E-4,
0.22958831020069448,-2.4241201657592554E-4,
0.23073362553225135,-2.05142463139317E-4,
0.23187021625189846,-2.4999298889288174E-4,
0.23304421945606363,-1.798675111828532E-4,
0.234132459108264,-2.0984383974412268E-4,
0.3216961388974835,-3.7992631343949923E-4,
0.23494769291087095,-2.572770660134102E-4,
0.3219251260016226,-2.5321950152769335E-4,
0.2358370805639881,-2.357315469617427E-4,
0.23701590327609096,-2.2685129314434227E-4,
0.23819305673447277,-2.0611676449435595E-4,
0.23925656579344506,-1.9906560518242328E-4,
0.24039008502435436,-2.20622965379072E-4,
0.24170983403896712,-2.915901776040161E-4,
0.24275917064758035,-1.887927608741624E-4,
0.24398874440985222,-1.8763503365207268E-4,
0.3195592086014482,-3.5716110280883256E-4,
0.2448587340366947,-2.519861854802796E-4,
0.24604176735102998,-1.5498380719963095E-4,
0.3196084507094272,-2.4038439338495976E-4,
0.24673705471217017,-2.446347410680963E-4,
0.24781336430778067,-1.1511426140248943E-4,
0.3198230627588821,-2.2849256536640328E-4,
0.3207538471300115,-2.3914253495333632E-4,
0.3215741400002663,-3.0387500402554585E-4,
0.2474822506859286,-2.047377427737418E-4,
0.24857837532545662,-2.599364573221477E-4,
0.32164298714173395,-2.3786583266224154E-4,
0.24905972498879378,-1.5196558067410992E-4,
0.3222690580500434,-2.558430862267605E-4,
0.2497506131766789,-1.8098986070971823E-4,
0.2508441312969576,-2.7135926373404035E-4,
0.32222198014386705,-3.146434927609118E-4,
0.32303993833400235,-2.2958544420766114E-4,
0.32396627459815786,-2.946719790302213E-4,
0.32476552558618993,-3.385865699849708E-4,
0.25024577209769694,-1.1951198651991013E-4,
0.32510627014003524,-3.246120305872152E-4,
0.25083221349326335,-2.168173206866797E-4,
0.2520273637959046,-2.84200893762257E-4,
0.3250612867544755,-3.618150677491966E-4,
0.25259822960432926,-1.3845693836780915E-4,
0.3256090537626443,-2.2779236411932247E-4,
0.2534458563515508,-2.859231741795254E-4,
0.2542943387750637,-1.4162743878827488E-4,
0.2553905471348893,-2.6827722686104116E-4,
0.3252082105169645,-2.5730422114988993E-4,
0.25610206121917006,-2.6965093901511195E-4,
0.32569354860362004,-2.788902255081993E-4,
0.2567872029270599,-1.819736044465503E-4,
0.3263210762211498,-3.509609645734185E-4,
0.3272189681258889,-2.8592465835351744E-4,
0.3280964454212929,-3.0716908751082794E-4,
0.32892499430580613,-2.7182925588530027E-4,
0.3298098470794213,-2.3951241809341828E-4,
0.33073040909711127,-3.038038045415775E-4,
0.33155251591573587,-2.4567831231131487E-4,
0.25455713727529056,-2.0644507146931612E-4,
0.3319542067234551,-2.9061045264203167E-4,
0.3327067258903222,-3.0436758374396966E-4,
0.3335421368074892,-2.9769884074434816E-4,
0.25432707052339576,-2.7611321476637973E-4,
0.33372146551639903,-3.2029205922666504E-4,
0.25462352619090467,-2.0938946709636586E-4,
0.25576297430812334,-1.9354195360812843E-4,
0.33384792493876336,-3.207076193204733E-4,
0.2563112743423304,-1.82099645720607E-4,
0.3341383784635174,-2.3916764618713005E-4,
0.33514068172768047,-3.076463025044607E-4,
0.33598313223152915,-3.494570455109952E-4,
0.3366751829848404,-2.6303189158870255E-4,
0.2554306540274375,-2.3079293192312944E-4,
0.33690444511251727,-2.8136245191068276E-4,
0.3375923818773316,-3.724781670889632E-4,
0.2555828758784628,-3.174916671246919E-4,
0.2564938912623442,-1.7141721625936468E-4,
0.2577784084526555,-2.5236233501155225E-4,
0.2588994393061929,-2.9762712023674587E-4,
0.2599709019789293,-2.2185874329491706E-4,
0.26109384672184144,-3.141454068129462E-4,
0.3353944437920272,-2.3298757077575005E-4,
0.26171862733214996,-2.012039893988654E-4,
0.33597143133764007,-2.734957076713229E-4,
0.336861202844001,-3.176952434200131E-4,
0.337512088843576,-3.1727970055361876E-4,
0.33834296410659614,-2.3521432509654439E-4,
0.339114941268978,-3.495157130827681E-4,
0.2605712220632936,-2.1314539816987E-4,
0.3395027988335324,-2.872833724827939E-4,
0.34036150053509906,-2.4538249904210163E-4,
0.26067767335100434,-2.7396453231406936E-4,
0.26159067832333044,-1.799651590212309E-4,
0.34040581323778996,-3.242381548078238E-4,
0.26203363810335223,-2.0730171697154465E-4,
0.34065185943016646,-2.9988390999978465E-4,
0.262544918892225,-3.079838501775234E-4,
0.26362978795560443,-2.604151060555254E-4,
0.3406404552127703,-2.003290358521953E-4,
0.3415146464602752,-3.1565928328415593E-4,
0.2637353865451226,-2.6615308567762286E-4,
0.3420448071828886,-2.8062584778842936E-4,
0.26442230164597363,-3.112627481628577E-4,
0.26539031993361933,-2.1494126976077943E-4,
0.2663843609450164,-1.8364086276305425E-4,
0.2674909188060489,-3.398215333664939E-4,
0.34096371840908574,-3.4861334508369535E-4,
0.26774027124751326,-2.2121452122018936E-4,
0.2687798967428905,-2.3751662503442017E-4,
0.34088899746052764,-1.76650208019144E-4,
0.2696645929938815,-2.362192982766076E-4,
0.3412053530596097,-3.511003443363858E-4,
0.2701986327777067,-2.1298036840892987E-4,
0.2711706549459669,-2.548106820431939E-4,
0.27217317589053824,-2.0569178937603072E-4,
0.2732379868494309,-3.186421021172947E-4,
0.2742639810436138,-2.795833614698817E-4,
0.2751990660941603,-1.4131451632230785E-4,
0.2762181314005564,-1.8085880166054946E-4,
0.27728458514545595,-1.882921966908785E-4,
0.2783961107566603,-2.7483347849704964E-4,
0.2794608021987839,-2.63587835868051E-4,
0.33742035788522523,-3.1406112619357385E-4,
0.3381874902083937,-2.8392182665502863E-4,
0.2796061841279471,-1.8545737979239196E-4,
0.33866361967762676,-2.8180719845857793E-4,
0.3395125418760151,-3.0632488715331974E-4,
0.27972724161640433,-3.0652590031785E-4,
0.2806771028988082,-1.6126534379093393E-4,
0.28184994260312785,-3.1531793474161296E-4,
0.2828307831605327,-3.31489776679475E-4,
0.3383226006346922,-2.7476561778826125E-4,
0.3390941854565411,-2.5840924677068833E-4,
0.33983086148840347,-3.3266694948137776E-4,
0.3405349849380499,-3.6913197599472425E-4,
0.0825031091348398,-2.8385254084966954E-5,
-0.009763403223022847,1.079354981428876E-5,
-0.011726134730338487,-2.407731878920961E-5,
0.08424661339405098,7.870314615691454E-6,
-0.013707659406273298,-8.870257268762255E-5,
0.08583106522759076,-9.06120348457668E-5,
-0.015782453401335564,7.907849290726622E-5,
-0.01752521513498799,2.646636335815384E-5,
0.08757364432145934,-4.929939465053582E-6,
-0.019417352637769867,-4.1520978030172876E-5,
0.08940083114764157,-8.190882453221757E-5,
0.09111806540787983,-6.399560487974781E-5,
-0.021579946455931868,-1.0058983228455323E-5,
-0.023497470658588933,-2.480889229407898E-6,
0.09273119299067205,3.662162718150565E-6,
0.09447456839888915,-9.811606897094536E-5,
0.09608458908989814,-7.386149033860071E-5,
0.09786791247430886,-1.4697707756253654E-4,
0.09947563667863418,-1.6765614824276227E-4,
-0.02556413519847246,1.3368773847257856E-4,
0.10117002948416821,-2.7930951958109683E-5,
0.10285387652872614,-1.435522835835294E-4,
0.10444487095750295,-1.6071813911928523E-4,
-0.02753606024425965,-5.7947713125742925E-5,
-0.029402034004719448,8.307180054851134E-5,
-0.03134879080240003,5.282692588685358E-6,
-0.03324339877731646,2.5467859220645742E-5,
-0.03521891100714174,2.2824293607233914E-5,
0.10582949063436035,-1.406262938241462E-4,
0.10742377668952846,-1.1540083238266403E-4,
-0.03741629917012298,1.1116158509358947E-4,
-0.03921500902876422,6.711313083229332E-5,
0.10898469437669234,-1.1385210255514444E-4,
0.1105375202570791,-1.467894564687608E-4,
-0.041309386806793476,-5.933470942061073E-5,
0.11217744928085965,-8.90263037518779E-5,
-0.04350907477346973,9.014179345203871E-5,
0.11389347063246402,-8.135737094086198E-5,
-0.04537552056213996,2.202825816892458E-5,
-0.04716367139748853,8.935710475845482E-6,
-0.049046973416811065,5.890964509422851E-5,
0.11550828522491147,-9.442966318612486E-5,
0.11713227354210651,-7.714944141714572E-5,
0.11876728522898286,-9.233502564109073E-5,
-0.050981564073218674,3.671070751791369E-5,
0.12042660106497488,-1.7772914800478427E-4,
0.12182250764164593,-1.4321467544633386E-4,
-0.05305138274212709,7.227759058982025E-5,
-0.05475556528167503,-8.831299801945257E-6,
0.12326766833011739,-3.4442266052755E-5,
-0.05650269173891789,6.141379328538548E-5,
0.12483010691330318,-1.1779076118661146E-4,
0.12625213614349523,-2.0056380415532107E-4,
-0.05860588798303548,9.019833335971938E-5,
-0.060349110252661195,6.359594220617165E-5,
0.1277660329560537,-1.3552803122568848E-4,
-0.0622260883377431,1.382412141573983E-6,
0.1292978514730705,-9.605855112264274E-5,
-0.06410669209430833,7.153922198045986E-5,
0.1309884280375257,-1.40962847850647E-4,
0.132382127323626,-1.0791117617629147E-4,
0.13402138861780932,-2.078926686923052E-4,
-0.06625161761109465,9.784563632212742E-5,
0.13542644398342824,-1.1967303009924432E-4,
0.1369062305491719,-1.1620352468642283E-4,
0.13839004290877324,-1.3804941865912137E-4,
-0.06820946056659932,6.791379154668514E-6,
-0.07005211206734635,7.755345572072435E-5,
-0.07172057934021578,1.0944854816968396E-4,
0.13996428885749493,-1.700867167956355E-4,
0.14149674560406852,-2.3496668824372446E-4,
-0.07388299559144018,3.184970538205032E-5,
0.14292693989874952,-9.535002653011286E-5,
-0.07573923858312073,1.0711130575153803E-4,
0.14454133704166522,-1.4678480786811665E-4,
-0.07758674670941672,1.0868008710983876E-4,
0.14610313916083387,-1.4014366829236016E-4,
0.1477012446941828,-1.157520878661113E-4,
0.14930778207564416,-1.75077047427375E-4,
0.1507251129343275,-1.1421838664443362E-4,
-0.07983556402147457,6.552874926833924E-5,
-0.08172024284905866,1.0430120064573679E-4,
-0.08341115083541004,1.509749808124932E-4,
-0.0850638706510268,6.0300617874154295E-5,
-0.08684413591064334,1.5084235917777193E-4,
0.15218361273457168,-2.2952326124393743E-4,
-0.0885253516358822,7.283458154177646E-6,
0.15337383283713357,-1.3149414628295646E-4,
-0.09046456339113815,1.1930039233543554E-4,
0.15503520509543653,-4.053141210583113E-5,
-0.09232345879372751,1.2071814466388863E-4,
-0.09406061218369344,6.256630280488881E-5,
0.1565832916824541,-8.388843300509907E-5,
-0.09572137173302177,1.5139038225951413E-4,
-0.09724285289786337,6.22026503086467E-5,
-0.09887773605741844,7.258277851781691E-5,
-0.1006234312478709,1.0135463587985236E-4,
-0.10234362758843842,7.965909318970155E-5,
-0.10403238535563067,8.22937775864438E-5,
0.1581081568966287,-1.4342073268437563E-4,
0.1595673740850566,-1.3455748953135208E-4,
0.1609571184344089,-1.8192662786164593E-4,
-0.10625824951365748,1.3672174267545306E-4,
0.1623935281617689,-2.7896783769336105E-4,
-0.1079568936592869,1.1838956006831897E-4,
-0.1096061348865267,1.3491289401564304E-4,
0.1637812742071008,-2.1605146784209523E-4,
-0.11128071445852694,1.0921275077927558E-5,
-0.11308924763269511,1.2640053461982392E-4,
0.16534794613625342,-1.3636074629711924E-4,
0.1667427846489736,-1.792534724338788E-4,
0.1681212309367898,-1.530763384231448E-4,
0.16954992680324057,-1.064217825718322E-4,
0.1709595010045004,-1.4976835326366116E-4,
0.17242636939143652,-1.4676340306144864E-4,
-0.11497408525810322,2.545172065270152E-4,
-0.1164971238689748,1.1434352180628767E-4,
0.17394797142828622,-1.6688240508017094E-4,
-0.118333374314111,1.4777317569663858E-4,
-0.11992275528793996,1.0399371809128102E-5,
0.1751357767576618,-2.1903363766186167E-4,
-0.12184498682380382,1.3055572657829934E-4,
-0.12340612817788996,1.237118060005392E-4,
0.17631614290385686,-1.9239587555554575E-4,
0.1776352141608465,-2.0567058957694914E-4,
0.1789861239189688,-1.3259546193272135E-4,
0.18033706491805632,-7.502942917876187E-5,
-0.1254459022823068,1.713759416251074E-4,
-0.12698320384101433,1.0678026949915032E-4,
-0.1285128411165577,9.436430691725332E-5,
0.18198860034396647,-2.9799388311174983E-4,
-0.1301764312909439,1.3100459380590125E-4,
-0.1318311255759907,9.168069235171179E-5,
0.18330600863908708,-9.775361785560859E-5,
0.18473540050305437,-2.101523998586075E-4,
0.185866718927362,-2.8742718935286394E-4,
-0.1337188809213694,1.88793449372508E-4,
-0.13517154827820455,1.6476095492952208E-4,
0.1873232215835016,-1.672335830722885E-4,
-0.13681027246394392,2.190309058615809E-4,
0.18873621759294684,-1.2810864536222247E-4,
-0.13831066525992722,1.685787899942835E-4,
-0.1398522857446062,8.242480337501083E-5,
-0.14133403504342767,1.295506585400328E-4,
0.19023344106302317,-2.5682139441198697E-4,
0.19146312597098775,-1.42240051484617E-4,
0.19297815056837003,-2.2426437841820655E-4,
-0.1432323256513609,1.861612107473239E-4,
0.19436266457839607,-1.8902607009483284E-4,
0.19564103856736337,-1.8034366984707355E-4,
-0.1450354810799897,1.443905976321871E-4,
0.19705355101506158,-1.3276194843074487E-4,
0.19842877061418482,-2.5790581540117204E-4,
0.1998382279543077,-1.886422272488978E-4,
0.2012048198171732,-1.8692992975713214E-4,
-0.14665681026543828,1.0181715574522545E-4,
0.20246003487814396,-1.789835593425269E-4,
0.20383181637418357,-2.5886410543911244E-4,
-0.1485384449637022,1.438471532066261E-4,
-0.14999581265857787,1.1983863776134085E-4,
0.2049953090981692,-2.49826006006368E-4,
0.20616368562043966,-2.062822599334926E-4,
-0.15169890238955422,8.023515716462995E-5,
-0.15326316611078183,1.8314174007971924E-4,
0.2074356197522398,-2.7991035261362446E-4,
0.20861648407988026,-1.4394887116619091E-4,
-0.15491424980750237,2.230248620948734E-4,
-0.15623637915208827,1.4591419642646496E-4,
-0.15755931950272709,1.8383468959905485E-4,
-0.15892928697638128,1.7148689674224404E-4,
0.21026170368113328,-2.1414986283935754E-4,
-0.1604573083621692,1.5551664798792945E-4,
0.21151392675253322,-3.1614724775329457E-4,
0.21267664871907738,-2.3892818500760235E-4,
-0.16236343040876292,1.497608757639766E-4,
-0.163814225616445,1.2777344592373573E-4,
-0.16519154835642244,1.0135517510435552E-4,
0.21396832515628372,-1.65922516696837E-4,
-0.16659530782841298,1.9002734232101328E-4,
-0.16795988363762715,1.2518164769377126E-4,
0.21515753593408116,-9.28216698692138E-5,
-0.16956699278149337,1.886855160934094E-4,
0.21652967383255628,-2.044503889056552E-4,
0.2177317490139749,-1.9430676903652716E-4,
-0.17121292700592433,1.8457022041538495E-4,
-0.17263139322697985,1.877859095358956E-4,
-0.17400499451870013,2.407520850826509E-4,
0.21941601107752282,-1.8381223949972192E-4,
-0.17537094048764781,2.0164923348789084E-4,
-0.1767269702236564,1.8063685594673804E-4,
0.22093604806027448,-2.0080638605778252E-4,
0.22220078745305527,-2.2094621971972123E-4,
-0.17840867653101666,1.3769534103990917E-4,
0.22337384649952444,-3.1576565517191235E-4,
0.22441360133235008,-1.8146736141446806E-4,
-0.18028161289556618,1.21362926900688E-4,
-0.18166068594954832,8.473221888439554E-5,
0.22541822539443024,-2.735876733621417E-4,
-0.1832926942098799,1.476823489124134E-4,
-0.1845892741549416,2.5719060735208445E-4,
0.22680184249808266,-2.3659690621256717E-4,
0.22801517196498194,-1.9950421900086918E-4,
-0.18622828508555553,1.5190006307023735E-4,
0.22939993072118628,-2.0086492944628668E-4,
0.2306422320737763,-1.743939187239963E-4,
-0.1878926685714496,2.216214136115521E-4,
0.23189383894608823,-2.593805259055032E-4,
0.2330739353212371,-1.9377271161663025E-4,
-0.1893594491411963,1.1113743580373238E-4,
0.23430173993565093,-2.839787801103997E-4,
0.23553065452875369,-2.159845820450413E-4,
0.2365820374473173,-3.2523591523249493E-4,
-0.19150113451236805,1.9456049656785181E-4,
0.23785941090281787,-2.995976180190261E-4,
-0.19316035061669204,1.4596269855484366E-4,
0.2390901004523947,-2.35749013852515E-4,
-0.19458514269091068,1.8484347485083017E-4,
-0.19589442624066797,1.4002327878835218E-4,
-0.19727721833599107,1.6961612878489078E-4,
-0.19869321294744471,2.0147727221564264E-4,
-0.20000081908859504,2.4237854014034794E-4,
-0.20122073758868114,2.511026984712457E-4,
0.2406860623827656,-1.7610113403970003E-4,
-0.2025860220362733,2.190426060099289E-4,
-0.2038050549380904,1.2891143105801372E-4,
-0.20515715903973422,1.3749411809017755E-4,
-0.20659034589404401,1.8484101290884222E-4,
-0.20795612942582914,1.8215835014319306E-4,
0.2421087885438437,-1.8592610258870348E-4,
0.24334684246201305,-2.0342172878184267E-4,
-0.20950530542255558,1.2703394534562245E-4,
0.2445183918232549,-2.618288802338116E-4,
-0.21096258145427219,1.4482451288785891E-4,
0.2456717610356265,-2.8411326849361873E-4,
-0.21249777828553484,1.1948745616636482E-4,
0.2467794170411383,-3.0001283550954404E-4,
0.24782938889260803,-2.5675428637501364E-4,
-0.21407238842559528,2.2085057748058145E-4,
-0.2154390168587033,2.4370092790440903E-4,
0.24906365669685432,-2.8078852672526813E-4,
-0.21673684107989655,2.5788164868597533E-4,
-0.2180963765481904,2.481880611742921E-4,
0.2504157964368261,-3.053267736542733E-4,
-0.2195155232899558,2.8424782329274177E-4,
-0.22073939167348816,1.9465584271668307E-4,
-0.2220131932243171,2.7457117879888405E-4,
0.25171153051340855,-2.2477292794370867E-4,
-0.22312664664231607,2.7848200020944274E-4,
0.2529821530414339,-3.18286089511486E-4,
0.2540742318592847,-1.546665461506242E-4,
0.25527362703540823,-1.2960682271038332E-4,
-0.22481550578436194,2.0124443370044334E-4,
0.25653591602823844,-3.411718110126888E-4,
0.25747595920914423,-2.3935357407013202E-4,
-0.2265684146154252,2.634859664561043E-4,
-0.22780364516934606,2.3233874797719874E-4,
-0.22893864404740846,2.7988341856583377E-4,
-0.23008329102143474,2.6214148656477547E-4,
-0.23120696400877178,1.8632012236735173E-4,
0.25934911914121966,-2.1018838627839386E-4,
0.26037778626746666,-1.9993170764084087E-4,
0.2614092848217236,-2.924525274959934E-4,
0.2624307730032333,-2.8995742195557506E-4,
0.263486328079793,-2.5726536672732517E-4,
-0.2332290508165799,2.2266266233370805E-4,
-0.23440529356784442,1.4865755487066847E-4,
-0.23566074597292477,2.956634741419391E-4,
0.2648456310475436,-2.6693458152473974E-4,
-0.2368458479659568,2.071328823294175E-4,
-0.2380513546580581,2.757424271961203E-4,
-0.23918135209795263,2.284349938792233E-4,
0.2661270703203636,-3.0347200409588677E-4,
-0.2405213710900236,2.2640939958601955E-4,
0.2675065987784784,-2.4704241709538844E-4,
0.2684967014584483,-2.819810426550138E-4,
0.2696107380111055,-3.1692887746503657E-4,
0.270519294836886,-3.289442100079115E-4,
-0.24240426976185317,2.44510819124427E-4,
0.271604718982487,-3.103041804293095E-4,
0.2727596982226082,-3.4485677812913593E-4,
0.27370818320758356,-2.4442684889941675E-4,
-0.24432365433607237,2.6344086450807904E-4,
0.2749018621890073,-2.180391270423061E-4,
0.2760388451729771,-2.4257915429999784E-4,
0.276977854472594,-2.8482529859048984E-4,
-0.24577601260270215,2.6590882583203343E-4,
-0.24673563656721711,2.5235359241531936E-4,
0.27831402423416174,-2.2276264313514284E-4,
0.2795639345341009,-2.767389325228119E-4,
0.2805313971357974,-2.4155270645432377E-4,
-0.24842216223112215,2.7436576071141177E-4,
-0.24961320850186158,2.3434713900961652E-4,
-0.2507692505601467,1.8920398644305635E-4,
0.2819879542890076,-2.553221086086313E-4,
-0.25194854160160635,2.432335883300928E-4,
-0.25309761446978574,3.045612872368819E-4,
-0.2541467254165529,2.585815045435579E-4,
0.28317791111281143,-2.465243053551046E-4,
-0.25536406526487976,2.648115388597704E-4,
0.2842745524842364,-2.655946862767499E-4,
0.28519325567012976,-2.580639027407001E-4,
-0.2567423319691642,2.037374049522582E-4,
-0.25801260158703415,1.9790288429176461E-4,
0.2863191463354185,-2.973283424239498E-4,
-0.25961171112829523,1.9217486560632602E-4,
-0.2608798157628675,3.2528324396487694E-4,
-0.26186963930332363,2.0534643953803652E-4,
-0.2630471127200002,3.108089646766477E-4,
-0.2640097543254179,2.412849988769495E-4,
0.28769919499777463,-2.388239493503648E-4,
-0.26540228139067695,1.8972421382842854E-4,
0.2886478616103192,-3.3143565611896096E-4,
0.2896226977168465,-2.462033192186493E-4,
0.29058200508356574,-2.370378398050552E-4,
0.29158460586106205,-2.833927638933968E-4,
-0.2671985533888602,2.5812726100026516E-4,
0.29278955693182657,-2.7279779089313047E-4,
0.29386519666508704,-3.2606821875025456E-4,
-0.2685472955167279,1.878051395737988E-4,
-0.2696263887740788,2.678852531709389E-4,
0.29485111735952035,-3.0222725806551033E-4,
0.2957388155712326,-3.5455799629861146E-4,
0.29668707718293874,-3.291001251360653E-4,
-0.2712652471113271,3.65866010720816E-4,
0.29797766633653894,-2.5004112333941713E-4,
0.29912687778248626,-3.50091709310797E-4,
-0.27237519368543744,2.56790296403484E-4,
-0.2733252870295855,2.6955737496428805E-4,
0.3003387967890215,-4.0135794216185176E-4,
-0.27462106317727925,2.8307242592517587E-4,
0.30127212476524556,-3.5465943390010357E-4,
-0.2758500331101614,3.2016233480119255E-4,
-0.27682581966346403,2.0914447248649055E-4,
-0.27794102092147804,3.687177539088496E-4,
0.3028131118006441,-2.756540414986554E-4,
0.3037583483485675,-2.651714527969664E-4,
-0.27929804626271754,3.2655169148985107E-4,
0.3049664181447492,-3.2931126726730604E-4,
0.3057482264555955,-2.4890195910843085E-4,
0.30677227553534453,-2.971992392816897E-4,
-0.28066885104085865,2.2044025298755595E-4,
-0.2817853791003872,2.066941759870499E-4,
-0.28294209604516835,2.93052075758902E-4,
0.3080558770767232,-3.1279044939395984E-4,
0.30893312391120253,-2.6769984316431066E-4,
-0.28412768385681214,2.7933636935172524E-4,
-0.28511032110706125,2.5704440763343796E-4,
-0.2862081579339283,2.862862849745476E-4,
0.31036799725755115,-3.1485200915108875E-4,
-0.2873339362650776,3.136965104907465E-4,
-0.28836379945584306,3.099547137525322E-4,
-0.2892439930851906,3.6118476673565724E-4,
-0.2901610415329454,2.7571914690708785E-4,
-0.29108547300418,3.5219168450800493E-4,
0.3118525553274399,-2.345044459254571E-4,
-0.29210123642816355,3.466830199226724E-4,
-0.2931198093687479,3.3850481874428667E-4,
0.3132797667261542,-3.3520875582716044E-4,
-0.2944205202829194,3.0174556804276123E-4,
-0.29542276942406787,2.678323548885868E-4,
-0.29643846214326597,3.0517330278211205E-4,
-0.29742771879261864,3.371085012791259E-4,
-0.29839695893497553,2.996052706189718E-4,
0.3148614146678131,-3.5687047092324746E-4,
0.3157331543738047,-3.104527086418146E-4,
-0.2995385083914743,2.4959538862485585E-4,
0.3165941378789748,-3.24609170157131E-4,
0.3173805927314538,-2.9824741154564193E-4,
-0.3007787781372694,3.231301561370586E-4,
-0.30169830348407306,3.480409802947876E-4,
-0.30263479405663174,2.86499603638214E-4,
0.31875083870313337,-3.0988277510260454E-4,
-0.30381086308113653,2.863138249915489E-4,
-0.304785857342336,2.87037746683717E-4,
0.32002619757606104,-3.521772280826816E-4,
0.3208409754488528,-3.2259951145190363E-4,
-0.30603361696324016,3.963906493368967E-4,
-0.3068001144809636,2.642466909716615E-4,
-0.30778643203173184,3.6201882197746307E-4,
0.32230072447726765,-3.388903503034513E-4,
0.3231276862016622,-2.9190152016350017E-4,
0.3240454927804009,-3.108360305532614E-4,
-0.30923935699188526,2.9522471752491076E-4,
-0.31024951566613146,3.1787499525139963E-4,
-0.31119565225050283,2.2644166282701416E-4,
-0.3122559208863431,3.512063026465326E-4,
0.32535627181849885,-2.8639352913305315E-4,
-0.31334927233679194,1.9366909300128164E-4,
0.3263499011452929,-2.2437145986050613E-4,
-0.3145235577356177,3.3004840023360786E-4,
0.3276015338911603,-3.8852027731114914E-4,
0.3283752608042865,-3.3896916578373846E-4,
-0.31582289060616997,2.904986017301719E-4,
-0.3168956726270879,2.854569442851196E-4,
0.32974358299726475,-3.4459734156191664E-4,
0.33058922234260896,-3.321527417714911E-4,
0.33140244232748306,-2.667442590545267E-4,
0.33247962892797306,-3.5047869583941385E-4,
0.333261557305076,-3.483691014751506E-4,
0.33403252103812986,-3.8807252289516786E-4,
-0.3192706878271767,2.4843713146816037E-4,
0.3349077611350866,-3.388455024098693E-4,
-0.32043644469033317,3.5691120998163073E-4,
0.3360263898167639,-3.0952376103103585E-4,
-0.3215370586935789,3.261028364928771E-4,
0.3370604084774203,-3.5419868075822194E-4,
-0.32262926070014,3.0780183877936445E-4,
-0.32349431918935945,3.399332709131853E-4,
-0.32430068730184186,3.9112430517667177E-4,
-0.32512454197627877,3.06318317353383E-4,
0.33850717967306493,-4.0344266440879616E-4,
0.3392973623067021,-2.323026749296189E-4,
-0.3263595983064474,4.223103405503986E-4,
-0.3272121337716744,3.4058409817738734E-4,
0.34063807699606913,-3.3466970641754393E-4,
-0.32809665478888705,3.717135343886172E-4,
0.34178309581876687,-3.1136692958686277E-4,
-0.3290306446732639,3.208142956063302E-4,
0.34282709374062426,-3.891527304404501E-4,
-0.3299665630298746,3.459486834872876E-4,
-0.33085928923936253,2.926368726357876E-4,
0.34392487000744704,-2.7895698085521857E-4,
-0.3317784343109996,2.9584294131920937E-4,
0.34488320000962863,-2.819335123130308E-4,
0.34581180156787245,-3.5671332712376323E-4,
0.3465834408186314,-3.4207289974183454E-4,
0.3473382445815799,-3.12559095050059E-4,
-0.33325882637133847,3.1533535282221884E-4,
0.34828132714843796,-3.1075505811416475E-4,
-0.3341851563874297,3.823287443352869E-4,
-0.3349031079025462,2.7843868630955757E-4,
-0.335771070909565,2.9471673252324127E-4,
-0.33673041251930064,3.733677065899895E-4,
0.34985687628961687,-3.2174027197963764E-4,
-0.33771319986096504,4.0903013132689804E-4,
0.3510216729671997,-4.355299348595561E-4,
-0.3388024584782216,3.6442043358964017E-4,
0.35191539081052825,-3.7420483249245426E-4,
-0.3397768163966175,3.940029094481254E-4,
0.3528393602663271,-3.1238525753996167E-4,
-0.3406051485469402,4.261039941458101E-4,
-0.34127967640943696,3.480429971602539E-4,
0.3541507588745801,-3.5605103101542116E-4,
0.35493008751471916,-4.117525419133328E-4,
-0.3425250618202189,3.33691714280267E-4,
0.35579863204407935,-3.682679741606595E-4,
-0.34349869732164434,3.990301240282524E-4,
-0.34422574509176584,2.544965872390255E-4,
0.3569847454004243,-2.2838202111590033E-4,
0.3577902606759253,-2.3216785873988923E-4,
0.3586173720949573,-3.6722617945215497E-4,
0.3593611698943986,-4.048485275028914E-4,
0.3599746584899163,-4.214921905579521E-4,
-0.3457644165513228,2.680571334269526E-4,
0.36077039809349787,-3.820556550892299E-4,
0.36143392111666894,-3.1178746686277067E-4,
0.3620914620923802,-4.20710138923786E-4,
0.36271505813484894,-3.603785783064372E-4,
-0.3472322645339662,3.3544956091496533E-4,
0.363663569846827,-2.9056729294693953E-4,
0.36452921307673103,-3.1698614810291275E-4,
-0.3481629570400403,3.438744262274744E-4,
0.3654663280763071,-4.2759112028673083E-4,
0.3660944573321278,-2.94701581181357E-4,
-0.34932581217033554,3.449123012936534E-4,
-0.35018752135017317,3.674161967291978E-4,
0.3671191537808163,-4.053626281103114E-4,
0.367937126608597,-4.783881232641677E-4,
0.3685093444150148,-3.876137539890025E-4,
0.3691662866265372,-4.081760643145317E-4,
-0.35187521025293,3.741019404961774E-4,
-0.35259553914530384,4.2603767119181804E-4,
-0.3532729909463891,2.639289463284896E-4,
-0.3540758568504093,3.128337270029858E-4,
-0.35475773879775446,3.4411702193092725E-4,
-0.3556274773466014,3.6231967496798845E-4,
0.3707757383710857,-3.142299530959616E-4,
-0.3564599488133147,4.3043923055951713E-4,
-0.35711204636739596,5.638938941425003E-4,
-0.35774890497248324,3.9230861648358213E-4,
0.37245658084707006,-3.739051782215997E-4,
0.37312065196181554,-3.206158667847718E-4,
-0.35853029630438854,2.9666112963162763E-4,
0.37394954601827624,-3.315286524616804E-4,
-0.35945296929567905,4.2842513476769924E-4,
0.37486487186014544,-3.611880040407288E-4,
-0.36030496627339464,4.199870856412221E-4,
0.3757493797388045,-3.9235944130244565E-4,
-0.36141775561351225,4.2263015692984825E-4,
-0.3621210050046558,3.628248180166417E-4,
-0.36280755647677043,3.683941288877028E-4,
-0.36355344338761597,4.1753151659955183E-4,
-0.36434087804193027,3.620890321901246E-4,
0.37724211356002635,-3.277942298596536E-4,
-0.3650434979806822,3.516571456390685E-4,
-0.3657512136996838,3.1403151567644836E-4,
-0.3665594149187949,4.22549706785288E-4,
-0.3672328152580635,3.5343883613223905E-4,
-0.36786202553663866,3.100626444732333E-4,
0.37905642959674346,-3.982542359678903E-4,
0.009454651224205517,-1.0544757814090477E-5,
0.011430379633052927,-7.705375062250219E-5,
-0.09616612506266076,1.7796937544689584E-4,
-0.09778983936541355,1.434532418254017E-4,
-0.09942387417386667,1.473707948352193E-4,
0.013416039683957215,3.178821510744362E-5,
-0.1010735963040067,1.473306391880161E-4,
0.015512060882859682,4.273689942417558E-5,
0.017410910986076972,5.446557255735923E-5,
0.019496837485910988,4.007283602197598E-5,
0.021460935830336862,4.333851067739314E-6,
0.023324797054502987,-2.854507141984014E-5,
-0.10250733636696241,1.02175277383168E-4,
-0.10414137678350899,1.5430619218422675E-4,
-0.10575560801608289,7.923689968428876E-5,
0.025499780011268777,3.857219669368972E-6,
0.02747544609044273,5.242857576078647E-5,
-0.10731688800026881,1.2725389835712558E-4,
-0.10903673682504154,1.4632142721440755E-4,
-0.11062718749698297,2.762245478001718E-5,
-0.11229187008874886,2.9404985181516463E-5,
-0.11402239977965867,-7.755135645055866E-6,
0.02981105779264826,-4.821839617692031E-5,
-0.1158149001464096,2.0970066042681063E-4,
-0.11728168297810626,9.135724004780826E-5,
0.03198473780757227,-4.899437896663944E-5,
0.03381319049881525,-3.353966440905465E-5,
-0.11902630069790848,9.243985885277334E-5,
0.03578954371438728,-2.1723338217392862E-5,
0.03757814427954704,-7.332290603551117E-5,
0.039456266990575785,-4.1902778579551436E-5,
0.04125397274634965,1.25061324212139E-4,
0.043271216873046164,-1.2492115271038606E-5,
0.04512790485056759,3.7208519173541343E-5,
0.04696075273589946,-4.0135309207676995E-5,
-0.12028215270525008,1.4831531364253858E-4,
0.04881755026719891,-6.205706617707502E-5,
-0.12178357249222646,9.825454141631357E-5,
0.050719402888004285,-1.5946717566495128E-5,
0.05242833304799633,-4.904771048126061E-5,
0.054198327740186264,5.570336547223997E-6,
-0.12338545293069084,1.9201908350491986E-4,
-0.12483700986751663,2.208412335877874E-4,
-0.126351451608317,6.260660062192003E-5,
-0.12791359347892894,9.113390066822769E-5,
-0.12953148808768494,4.960491197896627E-5,
-0.13108172976679433,1.2444914638041343E-4,
0.05659310524448685,-6.819695656590935E-5,
-0.1328010299320269,1.4274881498683306E-4,
-0.13430796169003167,1.72131355241259E-4,
0.0585376926431284,-1.427300823991784E-5,
-0.1359358569239803,1.0368200321306253E-4,
-0.13759647610151152,1.4367568499328714E-4,
-0.13911125707100425,2.0248941286118288E-4,
0.0607266425460003,-8.531028852053202E-5,
-0.14067266394789055,8.566155797527092E-5,
-0.14220851085979308,2.5446224726686367E-4,
0.06261858908280599,3.486825544295885E-5,
0.06449256981230861,2.6802334887957024E-6,
0.06617145779891896,4.589893968836439E-5,
-0.14336010727262502,1.3520699246857837E-4,
-0.14488414537756025,1.5823755894168318E-4,
0.0682267357043964,-8.160515946163682E-5,
-0.14626887557420704,2.725562161374623E-4,
0.06996008520017788,-6.296511156463763E-5,
0.07166150797102158,2.6574865981829343E-5,
0.07354307190377735,-1.4451059557127333E-4,
-0.14773494363664763,1.7867128077109218E-4,
-0.14917036884255813,1.4130257536076885E-4,
-0.15064443053860793,1.6594590267274278E-4,
0.07561989593719462,-6.0098351630885616E-5,
-0.1520363983254163,2.2266554606249073E-4,
-0.1534416577944742,1.435428260877919E-4,
-0.1549465724285174,1.4621001499964814E-4,
0.0773907459671941,-6.182826958835846E-5,
-0.1564416018741393,2.7644601526020246E-4,
0.07928293577964912,-8.874555506058895E-5,
0.08096007108314487,-4.925135772000655E-5,
-0.1577850194429314,1.2625538984540469E-4,
0.08281002389138147,-8.261029165845812E-5,
0.08456638266758505,-1.4139274265152074E-4,
0.08607981928148914,-3.116125379075407E-5,
-0.15932978857556768,2.818637314710576E-4,
-0.16064371259818758,1.5476567042945616E-4,
-0.16206808013603208,2.0474769153532024E-4,
-0.16354639823949996,1.8012187804052754E-4,
0.08856138049882725,-4.834152762242527E-5,
0.09033833492106372,-5.2959428666399244E-5,
-0.1648794217023418,2.5203467362433507E-4,
-0.16617237829250361,1.5465241234356025E-4,
0.09251682165247273,-6.362189126404849E-5,
0.09421840231094662,-1.234995753120055E-4,
0.09584365180908788,-4.50624773299102E-5,
-0.16754528666824292,1.5226193274606864E-4,
0.09768281150604385,2.6857251840914365E-5,
0.0994832183203217,-8.81160227596059E-5,
-0.16905654506404127,1.4790411584406776E-4,
0.10116119141956945,4.660630761377238E-6,
0.1028484372304117,-8.857917989600617E-5,
-0.17056342795088664,1.429088529687414E-4,
0.10463661260488405,-1.8438456989749302E-4,
-0.17220303781738383,2.447340825903338E-4,
-0.17357230683456748,1.3904427256407337E-4,
-0.17507990918644128,1.1383392803158976E-4,
0.10651903258440376,-7.312572877366669E-5,
0.10820331222314712,-1.0353803033830156E-4,
-0.17665426397086276,1.9471825794754177E-4,
0.10972174339124688,-1.4266387463281183E-4,
-0.17793870973643885,1.6606817352671221E-4,
0.11128765022740256,-8.424248027109893E-5,
0.11300384667950361,-1.751045617597105E-4,
-0.17946344179555745,2.5957005654585197E-4,
0.11466449339996554,-4.462672861915706E-5,
-0.18077536991930798,2.3852281565796274E-4,
-0.1820570805340957,2.2800405146997799E-4,
-0.18341383591176336,1.5895726222039247E-4,
-0.18494578307665627,1.315824825144779E-4,
0.11687067871951126,-2.670350811244393E-6,
0.11856302496001522,-1.633526345487385E-4,
-0.18642353304094042,1.9814726524230997E-4,
-0.1877250026202891,1.8266719178298974E-4,
0.12038439736030346,-1.1965919298673883E-4,
0.1219603197374651,-1.411884736058147E-4,
-0.18927004880709372,4.130085084865856E-4,
0.1239704393365417,-1.2858398667859455E-4,
0.12569935639351618,-1.0824101101836181E-4,
-0.19053653509324933,2.444805591903451E-4,
-0.19189220378290872,2.43172432735847E-4,
-0.19320916998092938,2.1039317091719328E-4,
0.12750483807963497,-8.762076007980818E-5,
-0.19448632767032578,1.504258862151317E-4,
-0.1959082309248251,2.097147023141302E-4,
0.1291243683841943,-1.1889804868541604E-4,
0.1305378623017215,-1.5985465368818785E-4,
0.13203071687238987,-9.000043655661011E-5,
-0.19761978856086881,2.308464063128582E-4,
-0.19885694599260517,2.2618978313414945E-4,
0.13391120047504895,-1.1501124166429788E-4,
-0.2002969265615573,1.6152521898221694E-4,
-0.20164331028922772,1.7241801269923113E-4,
0.13560650194863105,-1.0736509166565239E-4,
0.13709607239679647,-1.03672159774644E-4,
-0.2031940939036712,1.9837597120361122E-4,
-0.20456963269451411,2.679169187057018E-4,
-0.2058390925847563,2.00780121653997E-4,
0.13931264237084615,-8.826283660300083E-5,
-0.20718936920250441,2.519845699859649E-4,
0.14088628104173903,-2.782172818314513E-4,
0.14236344063820702,-1.2735341649523085E-4,
-0.2088389518049984,1.659880248191109E-4,
0.1441278487716257,-2.0104821726487504E-4,
-0.21039892133445992,2.609568961652875E-4,
-0.21150648726373303,2.0891286965291772E-4,
0.14600841819721078,-2.1871017989353453E-4,
0.14745406672497433,-1.3874907196349817E-4,
-0.21300794397483142,2.0285174035425402E-4,
0.14920396824239301,-1.0722923584333827E-4,
-0.2141989834908229,1.1536723497403839E-4,
-0.21538721724058382,2.54195189634418E-4,
-0.21656650906309824,3.086946806810445E-4,
0.15104942466492877,-1.6725322754432975E-4,
0.15256160636303684,-1.389204675134592E-4,
-0.21783246643676643,1.8522463121101174E-4,
-0.21910410313290993,1.9548814335738213E-4,
-0.22031411784499336,2.944096707078042E-4,
0.15428929808623465,-8.419824767311179E-5,
0.1557889539562342,-1.3918086439800026E-4,
0.15723782428901728,-1.0745235817214566E-4,
0.15885559577753058,-6.70277125890198E-5,
-0.2209946360744814,1.803751641623122E-4,
0.16020911645685423,-1.3074450951663236E-4,
0.16167035725894602,-1.7059899812907342E-4,
0.1629727565571585,-1.712864115653856E-4,
0.1642817550919156,-1.3819199838845803E-4,
0.16566602666033667,-1.0460239082808742E-4,
-0.2222986765348141,2.1128526189014007E-4,
-0.22358776387696255,1.9113008243295398E-4,
-0.22482426936164263,3.1568247905781194E-4,
-0.22594641961945897,3.407904971877915E-4,
-0.2271067423100642,1.981506374474154E-4,
-0.22841011623361443,1.8474401401848833E-4,
0.16785208094970988,-1.0372848926932382E-4,
0.16918413140619065,-1.0557798118000783E-4,
-0.22983003331899257,3.188348190307222E-4,
0.17076451519125332,-1.8296784314753012E-4,
0.17215050769941911,-2.168809199991975E-4,
-0.23133978318730183,2.70625997084141E-4,
-0.23258407781566184,2.396821766314436E-4,
-0.23370810692596194,2.44895909453563E-4,
0.1738073644908942,-1.5321649563459355E-4,
0.17505791038725546,-1.410242061254674E-4,
-0.23526644994137927,3.6782285804234927E-4,
-0.23650271677406753,2.933127049282655E-4,
-0.23763704060310742,2.8215169869798967E-4,
0.17723529134360472,-1.2390823280725854E-4,
0.17869257388574583,-2.0211754215989503E-4,
-0.23889004926960006,2.3568190128268884E-4,
0.1800873190970128,-1.5059620115136924E-4,
0.18140628761556737,-2.2487136968597082E-4,
-0.24016484499227445,2.2362051904550873E-4,
-0.2414074649684475,2.711875637403313E-4,
0.18319802487743986,-1.2971672584237426E-4,
-0.24266614091378674,2.272751071565396E-4,
0.1847646875998492,-8.199705242799282E-5,
-0.24373824246377962,2.501770672262843E-4,
-0.24503268463347178,3.131169002498699E-4,
0.18650041177016402,-1.9076768928676796E-4,
-0.24603800084896543,2.2295270752731994E-4,
-0.24706585157632646,2.1056986634046537E-4,
-0.24827543194483956,3.164400513784582E-4,
0.18805712019475548,-1.7238285152106764E-4,
-0.24942234628171392,2.114977403043991E-4,
0.18944733368184719,-2.140375965034927E-4,
-0.25091882803187243,3.444915024641837E-4,
0.19095290978734084,-1.902796892929784E-4,
0.19226485694851653,-1.7656009549534002E-4,
0.19366654868958108,-1.2022861595338552E-4,
0.1950121954548587,-2.178421169063069E-4,
0.19617636638565028,-2.4658609942569687E-4,
0.1975111137022186,-1.4574128647461965E-4,
-0.25240305293331283,2.0585098624276155E-4,
0.1989473768577325,-2.7991941667401127E-4,
-0.2536505880484758,2.7501618889289037E-4,
-0.25485548776486205,2.542579273542081E-4,
0.2005117901811066,-2.122158693031173E-4,
-0.2561653408754895,2.9394876116269064E-4,
0.20183321218689304,-2.0658521322022838E-4,
-0.2572845476277199,3.3343807197102476E-4,
-0.25831625441043293,3.2946434039981404E-4,
-0.2593025148851552,2.5690285004075636E-4,
0.20353507230287696,-2.1025087405838333E-4,
0.204745222618743,-2.1175743810032677E-4,
0.20593990007530527,-2.6012600783019424E-4,
-0.2606804584981318,2.956273077379598E-4,
0.20742434315577396,-2.1719318681984873E-4,
-0.26170571886544913,2.092068904608474E-4,
-0.2629050301909275,3.17784642983987E-4,
-0.2639161892520121,2.9260300285986057E-4,
0.20910321512212815,-1.250552004106037E-4,
-0.26502662911406305,2.7406310155125846E-4,
-0.2660006585345835,2.3614615908942177E-4,
-0.2670891540000129,3.0448341398019857E-4,
-0.26821004439515145,2.586368240149947E-4,
0.2109701835009848,-2.3289291399433004E-4,
0.212245794670097,-1.7314754640671004E-4,
0.21344961922542532,-1.6806284842914992E-4,
0.2147998296145078,-2.1352570888629602E-4,
0.2159950523655989,-1.3802521013373675E-4,
-0.2697039187240394,3.3980777233758724E-4,
-0.27084961228278975,2.75951775982837E-4,
0.21749321411799422,-1.8388790786044718E-4,
-0.2722835561981036,3.546398945365875E-4,
-0.27316176458051433,2.3812934719250056E-4,
-0.27433088186612337,2.653373245032481E-4,
-0.2753272077333226,2.938088772989206E-4,
0.219543158507116,-2.0938141745739658E-4,
-0.2766229867390465,2.6841065615971355E-4,
-0.27762242678221816,3.2291038757056856E-4,
-0.2785630044703972,3.273290905937559E-4,
-0.2795343160074135,2.9232442023335165E-4,
-0.2804950321898484,3.559570593772571E-4,
-0.2814150858685167,2.295662897805334E-4,
-0.2825259082488963,3.513391375717517E-4,
-0.2834588408086452,3.153991691962829E-4,
-0.2845488447731457,3.380223387548023E-4,
0.2226806853311198,-1.3660117035106667E-4,
-0.28560449196479937,2.7515734212602005E-4,
-0.2866262455549216,3.422461667774712E-4,
-0.28756964709789046,2.3730887409070117E-4,
0.22465674759744317,-2.218354843260481E-4,
0.2257378870944865,-2.2412809038663967E-4,
-0.2888989927567897,3.3090242449613366E-4,
-0.28988770117792506,3.5786548156355874E-4,
-0.29072030526052084,3.340785907742644E-4,
0.22741027264409328,-2.1017926448159419E-4,
-0.29178908162979655,2.6242517616542615E-4,
-0.2929157759864805,2.992253780437354E-4,
0.22859988994477584,-1.9403429879401302E-4,
0.22980402647627818,-1.1895387847923877E-4,
-0.29413770482818724,2.996129076010129E-4,
0.23132862627993916,-2.2235095179893444E-4,
0.23250822300349583,-2.1777777672996046E-4,
-0.29533692092193004,3.549303776556739E-4,
-0.2963450416313345,2.2801817068233976E-4,
0.23394661211415851,-2.0439733871927684E-4,
-0.29757247206785525,3.155541804393813E-4,
-0.29847990694832277,3.7567409547335784E-4,
0.23557080567184865,-1.9279364456693815E-4,
-0.2995625704099781,4.169989179418007E-4,
0.23698389342426449,-2.0803718556917927E-4,
-0.30047256988096377,3.8789104555174425E-4,
-0.30140787596269636,2.723364514636631E-4,
-0.3024270474320128,3.4004936912827854E-4,
0.2387487034268003,-1.7255171165826005E-4,
0.24003536808683257,-2.0192482868682665E-4,
0.2412389310063165,-1.4274372199681723E-4,
-0.30352476237109616,3.0057237081847904E-4,
0.24268082657252485,-2.1439734570319335E-4,
-0.3045374167339177,2.5563605260777583E-4,
-0.3054953130721015,2.519232304787414E-4,
-0.30657285398942546,2.7077114875027203E-4,
-0.3074957650973563,2.331862319462294E-4,
0.24431627674795398,-3.3718306346171983E-4,
0.2453868540682326,-1.1900796002749237E-4,
-0.30880336135395536,3.379189447164435E-4,
0.24688733189815606,-2.0401101033280106E-4,
0.24812095751456303,-2.9944120203654473E-4,
-0.3098526233421705,3.205988281946362E-4,
-0.3107712978940105,2.9381960835626886E-4,
0.24929853849902253,-2.3053754947339328E-4,
-0.3116994016203078,3.046566094114314E-4,
0.2505599817375689,-2.402785866977078E-4,
-0.31276992445860596,3.563719311454952E-4,
-0.31365074219427336,3.112961552739629E-4,
-0.31445304060954654,3.127385067246413E-4,
0.25199205992779855,-3.108794655276234E-4,
-0.31571043102239715,3.606400287530613E-4,
-0.3165375051811781,3.096645605090709E-4,
0.2533275702701502,-2.9669796660367065E-4,
0.25436195417089474,-2.2052605297477948E-4,
0.25547324674246036,-2.723203086970327E-4,
0.25652765046044007,-1.7103948505235722E-4,
0.25779965597336224,-2.1999808185092784E-4,
0.258934535888327,-2.3677056117903106E-4,
0.26015186336751117,-2.441732137384925E-4,
0.2612755620352062,-2.517439073032382E-4,
-0.31805101435281763,3.840790261369839E-4,
0.2623467370806149,-2.4184541138638077E-4,
0.26342173936037583,-2.2928698096641442E-4,
0.26454826602380366,-3.034963830965687E-4,
-0.3193132585930852,3.098442471009058E-4,
0.265661623635563,-2.8926367739605385E-4,
-0.3204244673160783,3.6463922118432773E-4,
0.26689917802953145,-3.225686841738795E-4,
-0.3214626859887541,3.73114584989738E-4,
-0.32227104789076344,3.125969635602299E-4,
-0.3231996150597896,3.305093886231056E-4,
0.26861342643045455,-2.8699445370253956E-4,
0.2697069251524392,-1.899992139225079E-4,
-0.32430738958699445,2.6868419926958514E-4,
0.270947792485505,-2.073431019459504E-4,
0.2720174074545946,-3.0758606726007803E-4,
-0.3255696002325448,4.199770506844863E-4,
0.2733084147603599,-3.011207312256861E-4,
0.2742959276265118,-2.3898209939764853E-4,
0.2753086472504391,-2.2592651381225098E-4,
-0.3267311248699067,4.28770519930774E-4,
-0.32740791653751156,3.38271055028698E-4,
0.2768257875855984,-2.5738062543730067E-4,
0.2779027022734136,-2.4741564917356296E-4,
0.27892897828064683,-1.9178839702801292E-4,
0.2800641724273474,-2.686630137186674E-4,
0.28105165138598953,-2.6606519618958824E-4,
-0.3285784695814303,3.332376873097717E-4,
0.28236277844323887,-2.4440545842545347E-4,
-0.32944346394310786,3.0090236025149403E-4,
0.2834871382731794,-2.9020601587801537E-4,
-0.33056545459389186,2.963388578783588E-4,
0.2844150497267593,-2.7754202020600915E-4,
0.2854135290534726,-3.092857844679206E-4,
0.2863865165748594,-3.0189802091966367E-4,
0.2874646023754809,-2.954160297982053E-4,
0.28845733152017783,-3.11913483525203E-4,
0.2892831048440369,-2.3314810943545622E-4,
-0.3321081530982992,3.967274972382709E-4,
0.29072962615267794,-2.0342222646748537E-4,
0.2917687122957354,-3.025889141110988E-4,
-0.33318007629676616,4.0872792299099375E-4,
0.2928676702582619,-2.908414663593331E-4,
0.29397027795823377,-2.6484239085640404E-4,
-0.33435887848929424,3.4712292703099196E-4,
0.2950837508254679,-2.749963413724507E-4,
0.2960570746978167,-2.9311751897356797E-4,
-0.3354552256721684,3.4808813958599194E-4,
0.29713538081905777,-3.907947375902457E-4,
0.29805508205677905,-3.5821946823955814E-4,
0.29888137997936093,-2.632154808443546E-4,
0.29982907957064353,-2.4794962216447697E-4,
0.3007297490310219,-1.9852136285008343E-4,
-0.3368686638132287,3.420459779630153E-4,
-0.33775412986817743,3.5582620132244835E-4,
-0.3384698119576089,3.897909831210508E-4,
-0.3391557444154252,3.035400207169678E-4,
-0.3400268498089386,3.585575407262162E-4,
-0.3407440910795515,3.1770524070189043E-4,
-0.34159160408763567,3.052942576735537E-4,
-0.342425663825228,3.657984417966137E-4,
-0.34321187503338246,3.941263735736805E-4,
-0.34412735887732204,3.2879680393588934E-4,
-0.3450194716434265,4.072335228361146E-4,
0.3042595803588122,-3.324145281902724E-4,
-0.3458885239330413,3.7019007782986696E-4,
0.3053302630766116,-2.8677669666991173E-4,
0.30614245303353793,-3.0263069733243303E-4,
0.30716323929469924,-2.8830542331163833E-4,
0.30820301276555795,-2.8083245317833683E-4,
-0.3470124168104105,3.422642944915025E-4,
0.3092665963439399,-3.41121231988345E-4,
0.3101137836991937,-3.099613513619648E-4,
0.3110283199606127,-2.93421473327761E-4,
0.3119235088458168,-3.536635256599016E-4,
0.31275852983563623,-2.7557821347359845E-4,
-0.3484624518315273,3.6262596867693564E-4,
-0.34939041562680706,4.839287814594542E-4,
0.31422603242538877,-2.557125032646712E-4,
-0.3501047410105723,3.4703394688262446E-4,
-0.35093901001580907,3.791255562875448E-4,
0.3154984915669215,-2.681833942994802E-4,
-0.35157346018658947,3.788816192294153E-4,
0.31653983254856094,-3.5687797294087914E-4,
0.3173695150222364,-3.0619696891267395E-4,
0.31826830325384164,-3.2004461228324343E-4,
0.3191705136383883,-3.2575949168404256E-4,
-0.35270708610348134,3.2637185523115564E-4,
-0.35357287761834805,3.2485291779187075E-4,
-0.3543498823531006,3.1925216477286106E-4,
0.3206687742098703,-2.626005527515199E-4,
0.3216316929838305,-3.813731844982335E-4,
-0.35545112356526887,3.8344677175944364E-4,
-0.3562193805074809,3.0161289511729944E-4,
0.32269785419100205,-3.560885353867324E-4,
0.32351720076195967,-2.4324467953919932E-4,
-0.3573778326673272,4.300399176638825E-4,
0.3246592455368834,-3.1356066545627087E-4,
-0.35823094376914966,4.321741507672186E-4,
0.32576476058561515,-3.855889583458255E-4,
0.32652156115381115,-3.115556821617835E-4,
-0.3594145057248421,4.3062657855429815E-4,
0.3275707681572321,-3.244444633468402E-4,
0.32842468928229845,-3.2613219069856786E-4,
0.3292621621133477,-2.5256076749125694E-4,
-0.3604310500022686,3.258089970823441E-4,
-0.3611811638361172,3.3868171463507374E-4,
-0.3618480826219049,4.3680400264237834E-4,
0.33051332310809506,-3.407719716208152E-4,
0.33137615453083746,-3.764290298746073E-4,
-0.3628597108478384,4.0689476948520265E-4,
-0.36356377757455316,3.4334160453982493E-4,
0.33267929279803193,-3.563216635040986E-4,
0.333536865845741,-4.152973318448244E-4,
-0.3648446154202002,4.067388138251776E-4,
0.3343706890277419,-2.686251128462616E-4,
-0.36577065098736683,3.2341425728853873E-4,
-0.36659682106188773,3.802319575917576E-4,
0.33567932039356724,-3.189279388590219E-4,
0.33657099603422264,-2.6369915361109525E-4,
0.3375941912071761,-2.810817123764728E-4,
-0.3675222524851086,4.612191288919862E-4,
0.3388324936092288,-3.2603160097324085E-4,
0.33981447523094965,-3.472319170513896E-4,
0.34067654962465377,-3.6229748323766964E-4,
-0.36869296642988103,3.6080563249497183E-4,
-0.36947026785329873,3.736842726326309E-4,
0.34174031278492856,-3.123671140457737E-4,
-0.3701257422250238,4.2463140855778653E-4,
0.34258361512760666,-3.248833204893206E-4,
-0.3709309875795053,4.895044043342206E-4,
0.3436312659175694,-3.3475835901530804E-4,
0.34450141868725437,-3.074898706233037E-4,
0.3454164525932018,-3.708586214164894E-4,
-0.37218900297403995,3.875451479240996E-4,
0.34631617670263753,-3.369805365225839E-4,
0.3470422661271085,-4.129025417806617E-4,
-0.37319983482454877,3.2506982827539E-4,
-0.37394531972836353,4.140212091904155E-4,
-0.37454541998722557,3.9774518892998073E-4,
-0.3752237768969964,4.323712035358071E-4,
-0.37584526017997766,3.8776637125286645E-4,
0.3486443788834153,-3.9062670664712085E-4,
0.34948794236977815,-3.0423091396585E-4,
0.350227518248145,-2.952876066946372E-4,
-0.3769359821676219,5.755784468068278E-4,
-0.37738938992835064,3.9368945365054336E-4,
0.351516967331853,-2.7441235741921394E-4,
-0.37817499732125825,4.080388219356926E-4,
0.35224768499079456,-3.3181075459771253E-4,
0.3530620984930962,-3.596824051266337E-4,
0.3538087091386486,-2.915854704845719E-4,
0.35455837380195987,-3.64738129895098E-4,
-0.3796545352543358,4.364741009854414E-4,
0.35551283910814746,-4.240616264031549E-4,
0.3561392362344722,-2.6817494951638515E-4,
-0.3807979573851999,3.9672337617744496E-4,
-0.38155047200313363,3.733782221131965E-4,
0.3572981049883415,-4.01995664751284E-4,
-0.3825314822879014,3.221319457645949E-4,
-0.38337988837921694,3.0272479230497584E-4,
0.3581954212986457,-3.985937778377552E-4,
0.35885493307980476,-3.180180656718462E-4,
0.3597267765657191,-3.550957753854708E-4,
-0.38480528813182024,4.295519825664382E-4,
-0.3853455975143023,4.273256736089387E-4,
0.3608325347048409,-3.223093728723578E-4,
-0.3859669383041635,3.8399824777191754E-4,
0.36181223022683384,-2.4782322159424414E-4,
-0.38665652206445417,3.8271231949946194E-4,
0.3628043612567135,-3.7136119796166156E-4,
0.36336715538565817,-3.478313727545007E-4,
-0.3876159100446737,4.8469918364703324E-4,
0.36418445781340275,-3.3073136503387196E-4,
0.010263722645794119,3.2429487289049874E-5,
0.09984118587273363,-1.6796636365384518E-4,
0.012182679663192576,2.9482710667071144E-5,
0.01421761970033513,2.3631128401407214E-5,
0.1013691970490327,-1.4523976778927153E-4,
0.016159747230346397,-5.918516728692022E-5,
0.01802942508294733,-2.109993762897458E-5,
0.020036640632636663,-1.1227606019091271E-4,
0.021856713249852007,-4.657827917350921E-5,
0.023703519700906506,-1.1757160328223354E-4,
0.025512448937671767,-5.854705047104655E-5,
0.02746175188188116,2.1339608738346616E-5,
0.10235644511443326,-1.4741979811502479E-4,
0.1038283285495891,-1.5391925586759683E-4,
0.029176793880401203,-7.512924303720858E-5,
0.10530698607887123,-1.3645987591063766E-4,
0.10694893035171474,-1.0780803813252582E-4,
0.10868797082732162,-6.883103272435978E-5,
0.030680377345960273,5.6927094411241E-5,
0.11018678643067772,-1.5726535136559305E-4,
0.11181794915409504,-1.7875560610769448E-4,
0.11336750944679136,-1.3840857622771444E-4,
0.032296187679989256,-4.606278561601271E-5,
0.03422783436122823,-6.55189401507078E-7,
0.11474353643810013,-1.3604071778423876E-4,
0.11630687879360888,-1.2961386942787062E-4,
0.03585419859230393,-1.4136247904279406E-4,
0.037610272830234805,1.0301504828370833E-5,
0.03959849226910328,-1.5932493421192545E-5,
0.11757993551154468,-1.8766268177253242E-4,
0.11901334625321006,-1.7103259988838007E-4,
0.04124256765456308,-9.277990215770388E-5,
0.12026586309779277,-1.1502390171668278E-4,
0.042932804336037175,-8.128649247370404E-5,
0.04479826814295163,-4.34874969694847E-5,
0.046676778823292256,1.9168548694711157E-5,
0.12168958218287063,-1.6324004961305524E-4,
0.048484901658597,-1.5528443212300957E-5,
0.12329288119675366,-1.5038447297104074E-4,
0.05028259288654123,-1.2772541328496395E-4,
0.05202597343400986,-6.908854615769039E-5,
0.05386160676961785,-1.2078908058607216E-4,
0.05557141549942825,-4.8670294800715747E-5,
0.12440562768131744,-1.850521785558279E-4,
0.12598181525030747,-1.26772384371511E-4,
0.1274079323857134,-1.681881879397433E-4,
0.12896293405335868,-1.274006484112862E-4,
0.05697924564319588,-1.110966892300981E-4,
0.13035310111330345,-2.017200213738496E-4,
0.05839235910347915,-2.8350140852874406E-5,
0.06024366791402444,9.836844454578705E-5,
0.06212240033293906,-1.1218253483939039E-5,
0.13153872716362278,-1.4180975743418797E-4,
0.13312997734636867,-1.8100214134945947E-5,
0.06393638718952806,-1.0634702171523E-4,
0.0655959564046871,-1.0649128614453884E-4,
0.1343005121692151,-1.3422670516603785E-4,
0.0672595365341834,-9.704715003328729E-5,
0.06897118421130187,-1.3562072283251209E-4,
0.07068825310535559,-5.591122641424029E-6,
0.1353565941957302,-1.451856098150274E-4,
0.07242898806567936,-1.2872872132165675E-5,
0.07429305182029021,-1.0177523013469442E-4,
0.13660933632452477,-1.523611384390347E-4,
0.07590557672833395,-1.9020218625734678E-4,
0.13781147467595514,-1.5198482073852312E-4,
0.07733004251732001,-1.3868826032523845E-4,
0.13929408962544082,-1.788679791297626E-4,
0.07881152166027938,-8.38788529832768E-5,
0.0806523654025165,-8.36728556130352E-5,
0.08236867889778224,-1.0374204709747217E-4,
0.0841415381836054,-3.701684600614444E-5,
0.08599551090364313,-4.622226306790975E-5,
0.08769868881186066,-1.8635217186269148E-4,
0.1398824752969092,-1.6959026639912916E-4,
0.14144089857498718,-1.5377814255074576E-4,
0.08886652537204244,-5.4722923569786724E-5,
0.09054452244687336,-1.88071989788801E-4,
0.09218622094364227,-1.1669926623040713E-4,
0.1423185817193699,-1.3998024760345645E-4,
0.14371983364015398,-1.4659590637665365E-4,
0.09351230598126276,-5.108425622757373E-5,
0.09532260492949646,-1.9377975483923088E-4,
0.09694427526895029,-1.0931737298148017E-4,
0.14468944979272622,-2.3804402345755857E-4,
0.09819094545082595,-6.161739480790157E-5,
0.09988700740704451,5.796870508847918E-6,
0.1460806868289821,-1.843817041673572E-4,
0.10130926357863011,-4.7715108406488904E-5,
0.14747683203803263,-1.7686382889886554E-4,
0.1488962268395782,-1.1915872091548471E-4,
0.1027678861674445,-1.304479004536653E-4,
0.1502802468516303,-1.3612050043419407E-4,
0.15188115174944725,-1.7725958767737804E-4,
0.15326774150875203,-1.965103597248545E-4,
0.15477503488036484,-1.1706327330531646E-4,
0.1036037654723463,-6.88430545897449E-5,
0.1561677780767118,-1.447503437311988E-4,
0.1576223613375598,-1.6763787645049377E-4,
0.15915388588144144,-1.5043791950102026E-4,
0.16060442720406892,-1.3991152180124755E-4,
0.16215759408942948,-1.9081830244703155E-4,
0.10429417966938007,-8.130209958379445E-5,
0.10583848083415627,-9.411766137904301E-5,
0.1633422342201328,-2.465407494279502E-4,
0.10728278916301577,-1.63331358183378E-4,
0.10878320329294122,-1.9522622940277082E-4,
0.16409410271513972,-1.5674911082957932E-4,
0.1655297770900616,-2.1286638296375698E-4,
0.16698740158500466,-2.2862923335340013E-4,
0.10945696026715186,-8.217889533621014E-5,
0.11107067150197995,-3.8574253830900296E-5,
0.16824059424799437,-2.4697929022693757E-4,
0.11234088619977649,-1.16838921405054E-4,
0.11393599378837972,-1.1686277105529136E-4,
0.16906365571098145,-1.5341879275669948E-4,
0.17052520917429148,-2.3348940614223782E-4,
0.11480899051906171,-1.1842682628069104E-4,
0.11637959425934868,-1.7553539222827166E-4,
0.1713569744451143,-1.3070563877941657E-4,
0.1726647013338515,-1.717855562654129E-4,
0.1740183299196836,-1.318360028819826E-4,
0.11726593927382403,-1.2012495677738572E-4,
0.17512940394008575,-2.158216699186099E-4,
0.11852783112103976,-2.0632717738643114E-4,
0.11999931049785442,-1.3013642702917189E-4,
0.12159204463149088,-2.0366657878038118E-4,
0.1230455337253358,-2.088704939318467E-4,
0.17524420327120765,-1.7342303885927238E-4,
0.12423965698847948,-1.536498463574603E-4,
0.12566746328001727,-1.0447993156243937E-4,
0.1272755220977848,-1.0590529413932043E-4,
0.17585311313240184,-1.1677837809836826E-4,
0.1773844150927866,-2.542723497352094E-4,
0.1283561810026187,-1.1429706881454886E-4,
0.12991498794482173,-1.0835828790245819E-4,
0.13140705685045093,-1.0282250040022714E-4,
0.1779828311124488,-8.058341921336927E-5,
0.17952404233622535,-2.6442203996822344E-4,
0.18079290666389605,-1.8995414199805133E-4,
0.13225125952469763,-1.9278931219330643E-4,
0.18183894749461818,-2.2531018768130913E-4,
0.13339494633383037,-1.7375640379875025E-4,
0.13484926272135697,-1.7931029114918833E-4,
0.18287281562268903,-2.1698546642108518E-4,
0.13590924826736792,-5.683633608435934E-5,
0.1376226278247123,-2.0127329958620314E-4,
0.13914826831027383,-1.435664216238898E-4,
0.18362466396100693,-1.2058442785731725E-4,
0.1404815950056386,-2.0079709754359382E-4,
0.18490821361808132,-1.938346681991214E-4,
0.14153210215524437,-1.925624210406627E-4,
0.18612826842279775,-1.8427003555225585E-4,
0.18753983184123374,-2.29711307154757E-4,
0.18880892329171378,-1.8991902306685592E-4,
0.19014770410736206,-2.8972018225857654E-4,
0.19136231515669225,-2.4279439719717376E-4,
0.14133832991911266,-1.5008711804596724E-4,
0.14278828873994753,-1.3843063696150973E-4,
0.19210140426493746,-2.0944955448340928E-4,
0.14406026540578745,-1.5400260985056098E-4,
0.1931489597455507,-2.518382285775448E-4,
0.1943940792651816,-2.3036918206018747E-4,
0.19565888181765317,-2.052639445924674E-4,
0.19694798238469488,-1.1590533168627168E-4,
0.1447731868600167,-1.306440387623918E-4,
0.1462638161190086,-1.197124612654938E-4,
0.19805603420254017,-1.6320166779086945E-4,
0.1993335591526533,-2.7509549003312383E-4,
0.14716634723650995,-1.531203113085888E-4,
0.20035425135740254,-2.1515790747002328E-4,
0.14828727774460346,-2.4915565077747535E-4,
0.149574664549376,-1.5534192101511468E-4,
0.15110972132817993,-2.6728110065048997E-4,
0.15241389591561258,-1.6592611138922537E-4,
0.20044333350080004,-2.74793135163506E-4,
0.2017573895408639,-2.2248088472227E-4,
0.15329491479249416,-1.778198882794093E-4,
0.1547780277051843,-1.3843348916771098E-4,
0.15626006262419953,-1.6958939087668903E-4,
0.20202733597031752,-1.8386664811453988E-4,
0.15747968903231066,-2.2294738066407863E-4,
0.15903125884511696,-1.4729698759273664E-4,
0.20269208009544193,-2.6061387835131684E-4,
0.16016431389738078,-1.45789310945864E-4,
0.1616203381139857,-1.5154910687874192E-4,
0.20340269047077203,-2.384070987750883E-4,
0.2048205905004028,-1.4464327096001426E-4,
0.20620647084433172,-1.644667144113771E-4,
0.16254975625415272,-2.2750054630805028E-4,
0.2072423625945911,-1.0775447193433823E-4,
0.20874086460040006,-1.1833493187409644E-4,
0.16348163879402575,-1.6257332822820856E-4,
0.1649071278993424,-2.7840027831600245E-4,
0.16620294371973438,-1.718645161802334E-4,
0.16756650595871947,-2.3933239847022912E-4,
0.16891299478074429,-1.7986520350887119E-4,
0.20865083014083707,-1.4710578605115583E-4,
0.21007701827222394,-2.0665563713257178E-4,
0.21136866947095492,-8.416977951935015E-5,
0.16964350700642233,-1.1781536994111947E-4,
0.1712023455297031,-1.2134554374507167E-4,
0.21258453112251083,-2.2710205083941717E-4,
0.1723526455684639,-1.0363443908769938E-4,
0.17376930594211423,-1.7864104033311163E-4,
0.17509014629366984,-1.7517875388352127E-4,
0.21281529097943996,-1.9950103743070712E-4,
0.17625175156486564,-1.3725415761741192E-4,
0.17779652687057879,-2.082617051835235E-4,
0.17919685092710003,-1.3797677888864753E-4,
0.21323019663893603,-1.1991618532914225E-4,
0.21460004638190747,-1.511026312209656E-4,
0.21581492109934813,-1.8147295777210475E-4,
0.21717826840797064,-2.6940040331542835E-4,
0.21833021166133668,-2.5165931252637934E-4,
0.17910393745763906,-1.972695884661492E-4,
0.18041540398684427,-1.7447010896627754E-4,
0.1818072898260433,-1.2001796644157525E-4,
0.21866651787674898,-1.2270895916563908E-4,
0.18310699827721724,-2.572798570290005E-4,
0.18439162109455212,-1.6727023674509203E-4,
0.1857592175950847,-1.691871440423268E-4,
0.1870974190308158,-1.2294798240868737E-4,
0.1886685499326799,-2.026541214120224E-4,
0.21865599330122118,-1.766276532057104E-4,
0.2200616470983853,-2.827757618311553E-4,
0.1894317060427461,-2.0895470851457244E-4,
0.22109362678920783,-2.8691079249347235E-4,
0.22224837242319836,-2.2328886680871062E-4,
0.22348765271473023,-2.2053653762176125E-4,
0.224801010815352,-1.194300173177204E-4,
0.22611975116809271,-2.7451418984808474E-4,
0.1890761652898246,-1.9140709752083537E-4,
0.22697000990004013,-2.0473445201141683E-4,
0.18999922242367454,-2.7522443142604E-4,
0.19120900820032397,-2.3318318394113195E-4,
0.22756638369060184,-1.6693300531091682E-4,
0.19236899928739967,-1.552618440403648E-4,
0.2284831467957966,-1.8918622838142492E-4,
0.22956873057829988,-2.8541585858357383E-4,
0.2307661010353218,-2.2569207844427407E-4,
0.19269760146580509,-1.9344304721136824E-4,
0.23161799388029516,-2.742525322606843E-4,
0.19367660246211257,-1.653116172324132E-4,
0.23253099637578226,-2.739814664445214E-4,
0.23375227563309528,-2.3160113904967944E-4,
0.1943930131457082,-1.6481185484583296E-4,
0.23464564381622505,-2.790591883832386E-4,
0.19530463823771402,-1.709755583080867E-4,
0.23544344125687455,-3.442061626761535E-4,
0.23653401724572728,-1.652876537897481E-4,
0.19597660846941523,-1.997080753037058E-4,
0.23737382311950467,-2.737163437145605E-4,
0.19688030429252312,-2.2267692520190792E-4,
0.23823763309493545,-2.1067192642941837E-4,
0.1978593367636029,-1.8745648031038079E-4,
0.19917290269093846,-2.313752617368152E-4,
0.23865805465779355,-2.3321510205996134E-4,
0.2000069846441818,-1.4606701001462254E-4,
0.23964970640848576,-2.0331733611148733E-4,
0.20108972681368947,-2.167996039603385E-4,
0.2405699128889118,-1.9318549957145909E-4,
0.2418766590068805,-1.664660820884286E-4,
0.20166600780213145,-2.447081693676932E-4,
0.24272754142683842,-2.4051502469207668E-4,
0.20253308617849425,-1.9439409322318142E-4,
0.24345782831808196,-2.2280908166057503E-4,
0.24457430677655426,-2.2178983441454268E-4,
0.24576009761513762,-2.322672519606203E-4,
0.20273422490918186,-2.158053172162163E-4,
0.2464337548024076,-2.5460371886558246E-4,
0.24757367167619077,-2.422154422865707E-4,
0.24870114630551918,-2.2108919531993974E-4,
0.24981554623507504,-3.2723395305829864E-4,
0.20214249741389134,-2.7567308857839E-4,
0.25051689968197693,-2.509655805294324E-4,
0.20293630321263886,-2.123697116651977E-4,
0.20409867778252827,-1.7718124542050184E-4,
0.2052696911412481,-2.1205532330272926E-4,
0.25045662445666306,-1.9603011837723318E-4,
0.2516234627111794,-1.835079245772267E-4,
0.2060704599262536,-3.220940038321171E-4,
0.2524334180353486,-2.0055354504069575E-4,
0.2067741410261152,-2.2191836549237919E-4,
0.20806121084977847,-2.1071352023055087E-4,
0.2093069758142468,-2.390238381800476E-4,
0.21054939968850517,-2.252659725029832E-4,
0.21172717174945305,-2.338657334666136E-4,
0.25173355800508934,-2.52500267026709E-4,
0.2528366884341259,-3.1633910261410006E-4,
0.2122306966205304,-2.0855129658496618E-4,
0.2532802284906899,-1.4299810521658032E-4,
0.2544851809423886,-2.1675603136796923E-4,
0.2557277460702395,-3.320594299035043E-4,
0.2125011089989399,-1.752669188568208E-4,
0.2564854834107512,-2.6464066045149906E-4,
0.2134374142104115,-2.2118652459954258E-4,
0.25716730458286496,-2.4196874103197402E-4,
0.21433628227064028,-2.5365299820596585E-4,
0.21561464898669747,-1.924312042607297E-4,
0.2168856140013591,-3.0985847394800897E-4,
0.25695582406112133,-2.2399414091241882E-4,
0.217778972411566,-2.163190658283319E-4,
0.21899125534454433,-1.9475771032282513E-4,
0.22021825252132401,-2.2117094946943333E-4,
0.22129919480794225,-2.175555471235907E-4,
0.22261523297895092,-2.4869726869643574E-4,
0.2564081774444501,-2.636539360604054E-4,
0.25744750157909385,-2.4113731399626886E-4,
0.22325885743283647,-1.8660173805861574E-4,
0.2244759617789824,-2.753764134144944E-4,
0.22563582913576385,-2.1280209529482216E-4,
0.22690230353966967,-2.504629927704352E-4,
0.25720504777490055,-2.2943100001174277E-4,
0.2275482344979912,-2.055100861483236E-4,
0.2577631920011456,-1.6361541418756856E-4,
0.2285426091184598,-1.6276007434392128E-4,
0.25868733831989466,-2.652810870822468E-4,
0.22938893483338813,-2.1346428259565176E-4,
0.25930996501772696,-2.531983867510787E-4,
0.23030473101693008,-1.6529887263114912E-4,
